#include <math.h>
#include <string.h>
#include "echo_torbeamNN_x.h"
#include "../k2c/k2c_include.h"
#include "../k2c/k2c_tensor_include.h"

void echo_torbeamNN_x(k2c_tensor* input_1_input, k2c_tensor* dense_4_0_output) {

float dense_0_output_array[96] = {0};
k2c_tensor dense_0_output = {&dense_0_output_array[0],1,96,{96, 1, 1, 1, 1}};
float dense_kernel_array[2304] = {
-4.42029446e-01f,+8.94838274e-02f,-7.05392286e-02f,-3.01815346e-02f,+1.01381116e-01f,
-8.11631143e-01f,+9.04131681e-02f,-5.45250177e-01f,+1.04491487e-02f,-4.27311540e-01f,
+2.08244264e-01f,+3.93451512e-01f,+4.22481028e-03f,+2.44872257e-01f,+1.06962219e-01f,
-1.11170876e+00f,-9.54623878e-01f,+9.53594875e-03f,+7.63769388e-01f,+4.87221003e-01f,
+4.33061987e-01f,+5.11062920e-01f,+1.76883295e-01f,+1.12210512e-02f,-3.00121546e-01f,
-1.27752289e-01f,+4.86139357e-01f,+9.05484036e-02f,+5.48226953e-01f,+4.65261340e-01f,
-2.98820317e-01f,-2.87120312e-01f,-5.68344653e-01f,-7.05206454e-01f,-6.54623806e-01f,
+7.72360563e-01f,-2.48252407e-01f,-1.71168640e-01f,+3.58950824e-01f,-5.66068411e-01f,
+6.03335977e-01f,+8.13674688e-01f,+6.12621188e-01f,+2.02478006e-01f,+7.65680254e-01f,
+3.88431102e-02f,-3.92086357e-01f,+3.42478454e-01f,+1.23510785e-01f,+8.96392763e-02f,
-3.14411163e-01f,-4.78608072e-01f,-1.11722529e-01f,+6.72520092e-03f,-3.44322711e-01f,
-6.47016406e-01f,-1.88939109e-01f,+4.01322484e-01f,+3.53915691e-01f,-5.96425384e-02f,
+5.03095746e-01f,+1.44846693e-01f,+6.84042156e-01f,-1.48651257e-01f,+4.14160281e-01f,
+5.41634500e-01f,-9.91100550e-01f,+5.85025437e-02f,+1.25926089e+00f,+8.45758915e-01f,
-7.30690882e-02f,-4.29765821e-01f,-1.76270068e-01f,+3.04336194e-02f,+1.04786932e+00f,
+3.89572114e-01f,-1.53669670e-01f,+9.76643324e-01f,+1.07647574e+00f,-3.07632208e-01f,
+4.64086205e-01f,-1.58496294e-02f,+9.81006324e-02f,-5.07545769e-02f,-8.79116654e-02f,
-2.41549000e-01f,-9.68997777e-01f,-2.31657308e-02f,+6.90942034e-02f,+8.18538964e-01f,
+2.20205218e-01f,-4.21928376e-01f,-2.48620227e-01f,+6.93597734e-01f,-4.52072034e-03f,
+2.37866566e-02f,+2.44934168e-02f,+2.72355806e-02f,-1.71183143e-02f,+5.76033164e-03f,
+4.01249342e-03f,+3.04467417e-02f,-8.16520452e-01f,-1.63901057e-02f,+3.72511372e-02f,
-5.82992658e-02f,+1.21845365e+00f,+2.20697243e-02f,-2.12796852e-02f,-1.46165168e+00f,
+8.25925291e-01f,-1.88031401e-02f,-4.63070022e-03f,-8.92502666e-01f,+2.93737352e-01f,
+4.91936386e-01f,-9.77304697e-01f,+2.53792340e-03f,-1.46204638e+00f,+1.31822489e-02f,
-2.80842185e-02f,-8.41364741e-01f,-2.28957627e-02f,+6.33575814e-03f,+6.18124381e-03f,
+9.93862927e-01f,-1.27537482e-04f,-1.05153909e-02f,-1.82660725e-02f,-1.55634703e-02f,
+3.05960663e-02f,-1.65303871e-02f,+4.37914841e-02f,-5.05016698e-03f,-6.63519800e-01f,
-2.45345794e-02f,+2.31083892e-02f,+1.37051835e-03f,-1.05611160e-01f,+1.01086783e+00f,
+4.26864699e-02f,-6.44947123e-03f,-2.45524626e-02f,-2.03144662e-02f,+9.35758092e-03f,
-7.67393410e-01f,+1.65812089e-03f,-9.19824000e-03f,-1.70423067e-03f,+1.09529924e-02f,
+4.94661182e-02f,-3.64007168e-02f,+8.15849423e-01f,-6.73065841e-01f,+7.30367064e-01f,
-1.48028955e-02f,+3.27703403e-03f,-1.81423558e-03f,+5.51151903e-03f,-4.96043786e-02f,
+2.51839906e-02f,-4.03590232e-01f,+4.59638704e-03f,-8.68990183e-01f,-9.67862178e-03f,
+1.36735085e-02f,+1.20602231e-02f,+1.35610290e-02f,+1.58279203e-02f,+1.03911478e-02f,
+2.00183075e-02f,-6.25182688e-02f,-3.59345488e-02f,-8.92571267e-03f,-2.60667969e-03f,
-5.18779635e-01f,+6.77248001e-01f,+6.13489607e-03f,+1.68128943e+00f,-9.24547389e-03f,
+6.41673952e-02f,+4.97510694e-02f,-7.82512221e-03f,+1.33919194e-02f,+7.90839851e-01f,
-8.50709528e-03f,+7.60963678e-01f,+7.15250988e-03f,+4.19540470e-03f,-6.40133381e-01f,
+4.14248630e-02f,+4.87659220e-03f,+2.02985168e-01f,-4.48872179e-01f,+1.33436099e-01f,
+1.06909715e-01f,+2.50783205e-01f,-1.03033662e-01f,-6.54193014e-02f,+1.42146170e-01f,
-2.63984561e-01f,-1.93479583e-01f,-1.02844927e-02f,+1.08903937e-01f,+3.52229297e-01f,
-1.58593878e-01f,+3.88863832e-02f,+2.35988274e-02f,+3.69934067e-02f,-6.24196902e-02f,
-1.89005062e-01f,+9.10398662e-02f,-1.49864592e-02f,+4.72811311e-02f,-2.25896649e-02f,
+1.09386720e-01f,+2.12081283e-01f,-2.17582788e-02f,-3.18833649e-01f,-1.87317029e-01f,
+8.51952806e-02f,-5.56721725e-02f,+6.40962599e-03f,-1.90892920e-01f,-1.49420649e-01f,
-4.12804186e-02f,+9.08869356e-02f,+1.17659546e-01f,+1.55514866e-01f,-9.75615680e-02f,
-1.59254968e-01f,-2.63003886e-01f,+7.06640556e-02f,+9.82210040e-02f,-1.21189050e-01f,
-2.53227409e-02f,-1.98233008e-01f,+2.82379448e-01f,+1.35070145e-01f,-8.98880605e-03f,
-2.32024685e-01f,-1.28597274e-01f,+1.59900617e-02f,-1.46850064e-01f,+3.52353863e-02f,
+1.12173572e-01f,-4.00918722e-02f,-1.42495006e-01f,-1.55096194e-02f,-6.50098994e-02f,
+3.71338315e-02f,-1.43491745e-01f,+2.06792615e-02f,-7.28557538e-03f,-6.83493614e-02f,
+1.64876223e-01f,-2.12407768e-01f,+1.56873278e-02f,+8.67578909e-02f,+9.94404852e-02f,
+9.39302593e-02f,-3.29617523e-02f,+3.96678597e-03f,-1.54925570e-01f,+4.45383191e-01f,
-2.20534578e-01f,-4.55155931e-02f,+1.68931782e-02f,-1.26093790e-01f,-7.50798211e-02f,
-4.26316932e-02f,-1.16226263e-01f,-1.17428243e-01f,-5.62383607e-02f,+2.44415994e-03f,
+7.29072765e-02f,+1.88791871e-01f,-1.49699390e-01f,-1.01971021e-03f,-2.12464742e-02f,
-1.05814107e-01f,-1.18642852e-01f,-2.50971287e-01f,-1.44639894e-01f,+5.48360981e-02f,
-7.98108354e-02f,-2.65558928e-01f,+1.93455175e-01f,+2.96357041e-03f,+3.14437836e-01f,
-1.52378350e-01f,-1.64778123e-03f,-2.32259721e-01f,+9.40312594e-02f,+1.02579005e-01f,
-6.67935535e-02f,-4.64703470e-01f,-7.29184523e-02f,+7.88905248e-02f,+1.22788049e-01f,
-1.43005520e-01f,+8.36607534e-03f,+1.00363493e-01f,-2.20143162e-02f,-9.79642868e-02f,
-1.08195972e-02f,+6.68138936e-02f,-1.25830173e-01f,-2.58914400e-02f,+1.44342622e-02f,
+8.35384876e-02f,+6.22785613e-02f,-3.45405012e-01f,+1.88271672e-01f,+9.80989411e-02f,
-2.31029838e-01f,+1.82902917e-01f,-1.61079824e-01f,+9.75447670e-02f,+3.45229656e-01f,
-1.25294283e-01f,-1.19849309e-01f,-6.54918253e-02f,+8.56261179e-02f,-5.91625944e-02f,
+9.71228257e-02f,+1.84523743e-02f,-3.42803001e-01f,+1.91588439e-02f,+7.99098238e-02f,
-2.25375444e-02f,-1.23825088e-01f,-9.12714228e-02f,-6.86823670e-03f,+1.08554378e-01f,
-2.92084605e-01f,+2.40301594e-01f,-1.66585553e-03f,-8.17614198e-02f,-6.89561442e-02f,
+4.02559526e-02f,+4.34738360e-02f,-2.78576333e-02f,-1.38976261e-01f,-1.56576723e-01f,
+4.09525558e-02f,+5.07295132e-02f,-2.80710369e-01f,+2.66828272e-03f,+2.97365010e-01f,
+3.67637947e-02f,+1.74598262e-01f,+5.30192070e-03f,-8.74826685e-02f,-1.16417687e-02f,
-8.99516344e-02f,+1.59809411e-01f,-3.23097706e-02f,-2.23485678e-01f,+9.94274169e-02f,
-9.99046937e-02f,+1.08056523e-01f,-1.94698218e-02f,-9.91711542e-02f,-7.17944652e-02f,
+4.92345802e-02f,-9.85242054e-03f,+4.26943302e-02f,-2.82959882e-02f,+2.44552419e-01f,
-3.13245468e-02f,-8.83917063e-02f,+1.55309364e-01f,+8.24608728e-02f,-1.32781103e-01f,
+3.00991118e-01f,-6.27251249e-03f,-2.56981570e-02f,-4.36087623e-02f,-5.50445542e-02f,
-1.74261201e-02f,-1.21518999e-01f,+8.02789107e-02f,+3.22638750e-01f,+1.57393664e-01f,
-1.24056377e-01f,+1.18741363e-01f,+1.14075243e-01f,+3.60566378e-01f,-1.56265125e-01f,
-7.37873614e-02f,-5.10987360e-04f,-2.89656967e-01f,-1.51989888e-03f,-5.25071956e-02f,
-8.16541016e-02f,+1.23548821e-01f,-1.18309960e-01f,+7.51103535e-02f,+5.81308417e-02f,
+4.02134508e-02f,-9.88399535e-02f,-1.34844854e-01f,+7.92723447e-02f,+5.88718653e-02f,
+3.30208316e-02f,-1.13825738e-01f,+1.68555398e-02f,-4.91185263e-02f,-3.78122889e-02f,
-2.29449481e-01f,+2.37937555e-01f,-8.20643157e-02f,-2.55693849e-02f,+1.33117124e-01f,
-6.52567819e-02f,+2.13500798e-01f,-3.45183983e-02f,+1.96313277e-01f,-1.22297015e-02f,
-3.48218560e-01f,-3.47763568e-01f,-1.61670193e-01f,-1.77965552e-01f,+4.54094373e-02f,
+1.30705908e-01f,-8.20479393e-02f,+1.06564946e-01f,-1.67182356e-01f,+2.37712383e-01f,
+8.23179036e-02f,-2.90250778e-01f,-2.30331972e-01f,-9.21010226e-02f,-4.76968028e-02f,
-5.05764298e-02f,+4.38035354e-02f,-9.85084400e-02f,-1.87112227e-01f,-1.24813825e-01f,
-1.87422000e-02f,-3.00923772e-02f,-6.33283705e-02f,+5.61968446e-01f,-3.04890815e-02f,
-4.82884079e-01f,-6.31108657e-02f,+1.21451050e-01f,-9.02931690e-02f,-1.18048333e-01f,
+5.27382381e-02f,-1.46796018e-01f,+3.28806713e-02f,+8.19268823e-03f,+3.32756758e-01f,
+2.82150283e-02f,-2.01212063e-01f,-7.17291981e-02f,+1.99636072e-02f,-2.10782960e-01f,
+2.69544516e-02f,+4.94006090e-02f,-1.65008366e-01f,-3.85285527e-01f,-6.72324076e-02f,
+1.95975244e-01f,-2.19570324e-02f,+3.78853858e-01f,+1.10705592e-01f,-9.47674811e-02f,
-1.21259369e-01f,+7.98347294e-02f,-1.23764008e-01f,-1.39425561e-01f,-1.73860088e-01f,
+3.11514288e-02f,+3.00481310e-03f,+1.74838305e-02f,-1.84093952e-01f,+3.37995768e-01f,
-2.55450327e-02f,+3.64032686e-01f,+3.93161103e-02f,-9.11817104e-02f,+1.90835029e-01f,
-1.45952433e-01f,-3.83494534e-02f,+3.69000696e-02f,-3.43067259e-01f,+1.63721308e-01f,
+6.65676668e-02f,-2.96093505e-02f,-3.05044241e-02f,+9.10920464e-03f,+1.05903111e-01f,
-2.81189252e-02f,+7.68381916e-03f,-1.06802061e-02f,-1.37376741e-01f,-2.10177556e-01f,
+1.17475308e-01f,+5.05285664e-03f,+1.68945603e-02f,+5.01564005e-03f,+2.24870786e-01f,
-1.14323288e-01f,+4.49488685e-02f,-1.71363473e-01f,-9.72422492e-03f,-3.59934643e-02f,
-8.52031186e-02f,+7.05986619e-02f,+1.46588266e-01f,-2.55630594e-02f,+5.53283431e-02f,
-3.83505970e-02f,-2.36222267e-01f,+3.15133601e-01f,-1.99435242e-02f,-2.00666279e-01f,
+2.30974089e-02f,+5.01703992e-02f,-3.68179232e-02f,+6.78495839e-02f,-1.93471722e-02f,
+1.81449324e-01f,-1.32812828e-01f,-2.18304217e-01f,+1.26780763e-01f,-2.95646954e-02f,
+6.91405386e-02f,-7.85768926e-02f,+2.65662074e-01f,-2.51958799e-02f,-2.32119784e-01f,
-3.75014991e-02f,+2.21733823e-02f,-1.02356806e-01f,+4.77906577e-02f,-3.28357890e-02f,
+2.54066661e-02f,+1.99700251e-01f,-1.71783920e-02f,+2.11116537e-01f,-5.81660531e-02f,
-7.41025805e-02f,+1.70867238e-02f,+1.19372062e-01f,+3.86782736e-02f,+1.81780457e-02f,
+2.06237704e-01f,-6.07656911e-02f,+1.80686656e-02f,+3.17735374e-02f,+1.06862515e-01f,
-2.86260337e-01f,-3.62830795e-02f,+1.25406664e-02f,+8.51071030e-02f,-1.10111155e-01f,
-5.63583411e-02f,+2.33479366e-01f,+5.34025505e-02f,+3.55671108e-01f,-6.91381842e-02f,
-3.92950960e-02f,-5.31329550e-02f,+2.05873828e-02f,-4.48854789e-02f,-1.78162511e-02f,
-7.95306563e-02f,-5.28405607e-02f,-2.79528856e-01f,-1.51651680e-01f,-1.26120478e-01f,
+2.52658397e-01f,-3.98178207e-04f,+9.24472511e-02f,-2.99035646e-02f,-7.67814443e-02f,
-6.27188385e-02f,+4.29389067e-02f,+1.07157014e-01f,-3.22289430e-02f,-3.88541192e-01f,
-3.20969105e-01f,-2.25857962e-02f,-1.39299124e-01f,+9.81761664e-02f,-7.86144659e-02f,
-2.68161278e-02f,+6.96506202e-02f,+6.10757293e-03f,-4.07049479e-03f,+2.37766933e-02f,
-1.42575786e-01f,+7.12974146e-02f,-2.58430950e-02f,+7.54065290e-02f,-8.73307064e-02f,
+4.32230860e-01f,+1.20098941e-01f,+1.13245592e-01f,+1.29127383e-01f,+6.23023249e-02f,
+4.56753932e-02f,-1.07897714e-01f,+1.07832484e-01f,+1.01754174e-01f,-5.92055209e-02f,
-5.48206531e-02f,+4.95118387e-02f,+3.31035703e-01f,-2.26947501e-01f,+9.73550007e-02f,
+1.31775185e-01f,-7.75249628e-03f,-9.74864885e-03f,-5.90630509e-02f,+1.85256507e-02f,
+8.38452727e-02f,-2.00026318e-01f,+1.94137394e-01f,-4.58261706e-02f,-5.99316806e-02f,
-7.12649897e-03f,+4.33727689e-02f,-5.78612015e-02f,+1.46979943e-01f,-6.35005757e-02f,
-8.21670704e-03f,+4.69403267e-02f,-1.32213473e-01f,+4.65678982e-02f,+8.72582495e-02f,
-1.79842070e-01f,+4.81147878e-02f,+1.19998366e-01f,+2.16149054e-02f,-3.12943220e-01f,
+1.40481470e-02f,-7.88974166e-02f,+1.31820023e-01f,+9.24927592e-02f,+1.02421224e-01f,
-4.17853482e-02f,+8.44011307e-02f,+1.54777154e-01f,-1.07183121e-01f,-4.94884521e-01f,
-1.68503150e-02f,-1.98023245e-02f,+9.41346362e-02f,-5.60505427e-02f,+7.65198991e-02f,
-1.24177366e-01f,-8.56671557e-02f,-1.56333998e-01f,+1.35390371e-01f,+2.08098426e-01f,
+2.68149585e-01f,-1.70500115e-01f,+4.02075425e-02f,+2.70739377e-01f,-6.79062027e-03f,
-3.00781522e-02f,+6.55525103e-02f,+3.79103899e-01f,+1.16515532e-01f,-1.74441770e-01f,
-1.03108935e-01f,-3.24278511e-02f,+1.27321258e-01f,+1.51624143e-01f,+2.69972440e-02f,
-1.33491114e-01f,-2.90910751e-01f,+4.67255041e-02f,+2.14977905e-01f,-7.60296807e-02f,
-1.33037657e-01f,-1.93841219e-01f,-1.63330114e-03f,+4.20786105e-02f,-2.95982897e-01f,
-9.45395082e-02f,-8.77511129e-02f,+2.85486653e-02f,-9.19825733e-02f,-2.33983565e-02f,
+5.25222644e-02f,+2.92715639e-01f,-2.10168995e-02f,+1.72177777e-02f,+9.69001725e-02f,
+3.73497665e-01f,-9.10902321e-02f,+1.13502823e-01f,+9.62063074e-02f,-1.93848819e-01f,
+3.02907258e-01f,-2.88687535e-02f,+1.58003066e-02f,+1.86472401e-01f,-3.89842659e-01f,
-8.95032585e-02f,-3.49471979e-02f,+1.47121623e-01f,+3.20623279e-01f,+1.54663682e-01f,
+9.64815170e-03f,-1.79138198e-01f,+6.22463375e-02f,+6.23294227e-02f,-7.37341419e-02f,
-1.48357511e-01f,-1.09974712e-01f,-1.99093446e-01f,+1.06122367e-01f,-2.00642776e-02f,
-4.77464534e-02f,-9.44769681e-02f,+2.23558452e-02f,-1.52914897e-01f,+1.63480043e-02f,
-1.30437547e-03f,+1.43290713e-01f,-1.51425242e-01f,-1.01415962e-01f,-1.50898442e-01f,
-5.00411773e-03f,-2.17790306e-01f,+2.41090134e-02f,+3.78814116e-02f,+2.37083714e-02f,
-1.23247315e-04f,+1.00802153e-01f,+1.55588269e-01f,-1.70896444e-02f,+1.12993263e-01f,
+1.17350578e-01f,-6.56457022e-02f,-3.47401261e-01f,+7.48649910e-02f,+2.11768702e-01f,
+2.78749198e-01f,-1.22723877e-01f,+2.27871224e-01f,-1.65653542e-01f,-3.39142121e-02f,
+5.53660095e-02f,+1.85837060e-01f,-4.39364165e-02f,-1.00247733e-01f,+3.11139189e-02f,
-1.61135718e-01f,-1.90497696e-01f,-5.54103330e-02f,-1.17230371e-01f,+2.45794691e-02f,
+3.04396097e-02f,-4.05610763e-02f,-6.88190684e-02f,-2.43205294e-01f,+1.85746253e-01f,
-4.27189171e-02f,+2.54847646e-01f,-1.99823573e-01f,-9.37049389e-02f,-1.59794595e-02f,
-1.10367723e-01f,-1.83378801e-01f,-4.80204634e-02f,+6.35756254e-02f,+1.01272240e-02f,
+4.82194424e-02f,+1.71660841e-01f,-4.10369970e-03f,+2.47616190e-02f,-2.36864358e-01f,
+8.49251971e-02f,+8.28171615e-05f,-7.91781470e-02f,+3.67552564e-02f,+4.38973755e-02f,
-1.55919725e-02f,-7.99718872e-02f,+2.26361096e-01f,-2.70527862e-02f,-2.06283238e-02f,
-1.53785003e-02f,-2.09164590e-01f,-2.83728056e-02f,-1.73546448e-01f,-9.12606716e-02f,
+1.23583682e-01f,+1.21109076e-02f,-4.63907272e-02f,+2.05388099e-01f,-1.00783288e-01f,
-5.63555323e-02f,+5.38861677e-02f,+1.08707763e-01f,-6.73262030e-02f,-4.30588782e-01f,
+1.40132993e-01f,-9.42384009e-04f,+5.85028641e-02f,-3.33956778e-02f,-5.79543225e-02f,
+2.69613117e-02f,-1.14968598e-01f,+1.24793597e-01f,+7.29812384e-02f,-1.58942193e-02f,
-7.40719065e-02f,+5.30530736e-02f,-1.43249989e-01f,+1.90459304e-02f,+5.18466718e-02f,
+6.40106648e-02f,-9.16688889e-03f,-1.52919870e-02f,-3.25357839e-02f,+7.77658424e-04f,
-1.27756828e-03f,-5.33959828e-02f,+2.19181180e-01f,-2.63575912e-02f,+7.03618079e-02f,
-4.42540124e-02f,-1.83934912e-01f,+5.47046401e-02f,+1.26679495e-01f,+6.46698475e-03f,
-6.86990619e-02f,-1.07922971e-01f,-4.12516668e-02f,+1.65252671e-01f,+2.98900008e-01f,
-4.64126408e-01f,-1.83402181e-01f,+6.33915365e-02f,+2.24959761e-01f,+7.78090730e-02f,
-7.10502118e-02f,+3.57276015e-02f,+1.96942046e-01f,-3.42162373e-03f,-3.00638489e-02f,
-1.83308311e-02f,+1.52105793e-01f,-1.80660889e-01f,+2.70282120e-01f,-1.14699125e-01f,
-7.89100647e-01f,-3.12841497e-02f,-6.33760020e-02f,-1.59388483e-02f,-1.66066736e-01f,
-2.01338291e-01f,-1.39234468e-01f,+1.08543262e-01f,-6.59707069e-01f,-8.36531818e-02f,
+1.10602584e-02f,+1.61091369e-02f,+2.20844910e-01f,+6.34093136e-02f,+2.70368382e-02f,
-1.98808648e-02f,+5.97470701e-02f,-4.14228261e-01f,+5.64911813e-02f,+1.09612271e-01f,
+2.95496106e-01f,+1.57206580e-01f,+4.32701558e-02f,+2.30250835e-01f,-6.07293472e-02f,
+6.17368938e-03f,-1.08632771e-02f,-1.02251440e-01f,+7.91513696e-02f,-1.84299409e-01f,
+7.51225557e-03f,+3.71714085e-02f,-1.42734721e-01f,-1.59354672e-01f,+4.87761758e-02f,
-1.15310632e-01f,-2.42309973e-01f,-2.64052544e-02f,-2.32171804e-01f,-1.07378932e-02f,
-1.45508587e-01f,+9.04096961e-02f,-1.43179214e-02f,-5.31167910e-02f,+3.59211452e-02f,
-8.62005875e-02f,-2.03595802e-01f,-1.87898893e-02f,-1.61525339e-01f,+7.29680643e-04f,
-1.11393016e-02f,+2.75056344e-03f,+5.42013869e-02f,-4.96521853e-02f,+3.00660372e-01f,
-2.84160916e-02f,+9.08649266e-02f,+1.80835500e-01f,-3.10877431e-02f,-1.18388362e-01f,
+1.03056422e-02f,-1.23502411e-01f,+1.46844268e-01f,+5.15286811e-03f,+8.37854892e-02f,
+1.74874552e-02f,+1.79527923e-01f,+1.75134152e-01f,-2.39133194e-01f,-4.04801825e-03f,
+2.50367641e-01f,+1.35672661e-02f,+1.82341039e-01f,-2.68367790e-02f,-2.13681720e-03f,
-1.52808931e-02f,+3.42401005e-02f,+1.13870250e-02f,+8.60713772e-05f,+1.27521917e-01f,
+8.86160955e-02f,-7.66999051e-02f,+1.91677362e-01f,+1.22638000e-03f,-1.73937231e-02f,
+1.93430614e-02f,-6.89219823e-03f,+6.39774604e-04f,+2.43506506e-01f,-2.20349412e-02f,
+3.74936253e-01f,+4.60280739e-02f,+3.88271451e-01f,-2.57832371e-02f,+1.54738054e-01f,
+8.59195292e-02f,+3.36578228e-02f,-2.96783242e-02f,-1.99112087e-03f,-3.91263030e-02f,
+1.75910890e-01f,-1.53184365e-02f,-4.42946851e-02f,-4.82191801e-01f,+1.59983948e-01f,
-3.19278203e-02f,+1.78613499e-01f,-6.44745454e-02f,+2.46332973e-01f,+1.02258734e-01f,
-5.47503727e-03f,-1.03357330e-01f,+6.72625601e-02f,-1.03807047e-01f,-2.89601535e-02f,
+2.01659463e-02f,-2.78695263e-02f,-2.25020777e-02f,-4.69194492e-03f,+3.15808430e-02f,
-8.02444108e-03f,+8.02445263e-02f,+2.21469440e-02f,-8.42548460e-02f,-8.71511921e-02f,
-2.17821822e-02f,-2.15437878e-02f,+7.71234185e-02f,-8.91856179e-02f,+2.16437012e-01f,
+1.13180518e-01f,-1.41722634e-01f,+7.07461685e-02f,-1.30623102e-01f,+1.48234591e-02f,
+1.34400595e-02f,-7.20102042e-02f,+1.49496779e-01f,+5.39760478e-03f,+4.42473553e-02f,
+4.45197104e-03f,+2.08947018e-01f,-3.74842226e-03f,+7.35852644e-02f,-8.14156979e-02f,
-1.32167479e-02f,-6.65139183e-02f,+1.33593502e-02f,+2.87930183e-02f,+2.06444874e-01f,
+4.35993634e-02f,+3.30844335e-02f,+2.37980962e-01f,+2.83128731e-02f,+1.42024785e-01f,
-1.45668192e-02f,+1.36299720e-02f,+1.65333733e-01f,-6.78976346e-03f,-1.36664644e-01f,
+1.84481740e-01f,+7.46849105e-02f,+1.37251109e-01f,+2.35676453e-01f,-2.89444681e-02f,
+4.31967080e-02f,+1.71438694e-01f,+4.54240246e-03f,-7.82535225e-02f,-2.14361399e-02f,
-1.11020967e-01f,+4.35561761e-02f,+2.48344801e-02f,-1.28244190e-02f,+4.38814098e-03f,
+3.84870887e-01f,-3.60401673e-03f,+1.16198219e-01f,+2.60747522e-01f,-9.78708118e-02f,
-1.81819886e-01f,+7.15778470e-02f,-9.22014043e-02f,+1.55419871e-01f,+1.40897989e-01f,
-5.17000332e-02f,-8.48340243e-02f,+1.24962494e-01f,-3.28000821e-02f,+3.33154649e-01f,
+9.17527974e-02f,+1.60886765e-01f,+1.65255949e-01f,-1.96129996e-02f,-1.62151847e-02f,
+4.10791747e-02f,-4.33618762e-02f,+4.68961038e-02f,-1.24275409e-01f,-2.62960821e-01f,
-2.84041226e-01f,-2.30589192e-02f,-4.34113443e-01f,-1.39377996e-01f,-1.30878299e-01f,
+8.93144235e-02f,-1.13708772e-01f,+4.05627489e-02f,-2.43379682e-01f,+6.81280568e-02f,
+3.38705853e-02f,+2.83517241e-02f,-2.66797133e-02f,-2.79478639e-01f,+5.69323674e-02f,
-2.61502136e-02f,-8.70640203e-02f,-1.24197736e-01f,-2.72415690e-02f,+8.13817233e-02f,
+4.25584391e-02f,+1.44974142e-01f,-2.77126208e-02f,-7.35942740e-03f,-2.78878689e-01f,
-3.23606342e-01f,-9.91014764e-02f,+2.79403031e-01f,+6.28686994e-02f,-2.92539150e-02f,
-4.94426973e-02f,+5.71205793e-03f,-2.04312786e-01f,+1.13568477e-01f,-4.65659201e-02f,
-1.73644260e-01f,-2.86494568e-03f,+1.08048886e-01f,-3.05264920e-01f,+2.60094162e-02f,
+2.85232723e-01f,-6.98808208e-03f,+3.34792398e-02f,-1.96062364e-02f,+2.50703301e-02f,
-1.06000798e-02f,+1.01725601e-01f,-9.35752243e-02f,-5.22291422e-01f,+1.92227751e-01f,
+8.62804130e-02f,-7.21069425e-02f,+3.89365330e-02f,+3.88747960e-01f,-1.78444788e-01f,
-2.24284440e-01f,-8.66040885e-02f,-8.72161984e-02f,-1.54033592e-02f,-1.16627477e-01f,
+1.88018426e-01f,+1.78126656e-02f,+3.96401495e-01f,+3.13726328e-02f,-2.33821243e-01f,
+7.65614733e-02f,-5.24907373e-02f,-7.20587149e-02f,-1.14038840e-01f,+8.83705318e-02f,
+9.71035380e-03f,+4.16707285e-02f,+1.71772525e-01f,-1.77804947e-01f,+2.68501848e-01f,
+7.74821341e-02f,-1.37493059e-01f,+1.34658769e-01f,+9.26920027e-02f,+2.46537980e-02f,
-4.42408845e-02f,-1.04018662e-03f,+3.69617462e-01f,+1.00225564e-02f,+1.54600501e-01f,
-2.76847780e-01f,-2.48089999e-01f,-3.00652117e-01f,+3.68808657e-01f,-1.51929874e-02f,
+1.06291026e-02f,+7.45553747e-02f,+2.70440400e-01f,-3.55216354e-01f,-1.60098746e-01f,
+1.80484518e-01f,+2.47676641e-01f,-8.13520029e-02f,+3.74927104e-01f,+7.69327283e-02f,
-5.83521836e-03f,-2.95116566e-02f,+7.96636268e-02f,-1.96879953e-02f,-2.74463911e-02f,
-2.15476602e-01f,+3.98730859e-02f,+1.24232873e-01f,+1.83652490e-02f,+2.30680019e-01f,
+5.69554716e-02f,+2.43225899e-02f,+2.67191306e-02f,+5.55975363e-02f,+3.22701484e-02f,
-2.39136368e-01f,-1.87818974e-01f,-3.47138429e-03f,-1.42714325e-02f,+6.34523705e-02f,
+3.90977353e-01f,+3.64737026e-02f,+9.76527259e-02f,+9.12158713e-02f,-6.13465726e-01f,
+1.10552534e-01f,-2.40576162e-04f,-6.04999244e-01f,+3.34451079e-01f,-1.93241928e-02f,
-3.26673575e-02f,-4.46656086e-02f,-1.25897482e-01f,-6.45621940e-02f,+4.22502831e-02f,
+1.09781951e-01f,-1.78265706e-01f,+1.17423711e-02f,-1.60645861e-02f,-7.76370429e-03f,
-3.41855697e-02f,-5.98705821e-02f,-8.27373922e-01f,-5.34635305e-01f,+2.52094828e-02f,
+1.50836498e-01f,+8.79656151e-02f,-6.71050027e-02f,-1.78517342e-01f,+1.27226979e-01f,
+1.32493362e-01f,+1.38372988e-01f,+5.42730354e-02f,+8.18096772e-02f,-1.36105374e-01f,
+1.76557824e-01f,-6.51857495e-01f,+5.22214472e-02f,+4.62468714e-02f,+3.52153815e-02f,
+1.74868643e-01f,+1.41445443e-01f,+2.66458411e-02f,+1.00468900e-02f,+1.30348787e-01f,
-8.69416222e-02f,+4.39285487e-02f,-1.97659776e-01f,-2.67892843e-03f,-9.16308165e-02f,
+1.03792779e-01f,-4.77593876e-02f,+7.40521625e-02f,-3.60528499e-01f,-6.26352504e-02f,
+6.89987242e-02f,+3.91462110e-02f,+4.43715006e-02f,-3.10745567e-01f,+3.09999045e-02f,
+8.46302286e-02f,+2.56284148e-01f,+1.20583080e-01f,+2.00550631e-02f,-3.74808945e-02f,
+1.02167903e-02f,+2.77598128e-02f,+6.32236302e-02f,-4.31062207e-02f,-2.65621483e-01f,
-1.08959518e-01f,+2.39598155e-01f,-1.83999568e-01f,-2.99316328e-02f,+9.89442170e-02f,
-1.56132072e-01f,+3.94870751e-02f,+1.93802863e-01f,-3.64965312e-02f,-8.29863474e-02f,
-1.63751841e-01f,+7.86369443e-02f,-1.44127294e-01f,+4.84413691e-02f,+1.99571565e-01f,
+2.96993166e-01f,-1.08853010e-02f,+9.20928195e-02f,-1.97684005e-01f,-1.44994065e-01f,
+2.47707441e-02f,+3.72604281e-02f,-2.00915352e-01f,+1.49888352e-01f,+4.96045537e-02f,
-8.00853223e-03f,+1.17431827e-01f,-4.68167663e-02f,-5.75642176e-02f,+2.28513665e-02f,
+9.85485092e-02f,-3.23058143e-02f,+3.85622121e-02f,-1.06581546e-01f,-4.56899963e-02f,
+7.84304366e-02f,-7.54752457e-02f,-1.29796490e-01f,+1.07431449e-01f,+3.25137138e-01f,
-2.08000153e-01f,+7.23230764e-02f,+9.42502096e-02f,+4.30454351e-02f,+6.82298690e-02f,
+5.42372614e-02f,+2.31960341e-02f,+1.46638855e-01f,-1.17974982e-01f,-1.95306286e-01f,
-2.10217521e-01f,-7.64022321e-02f,+4.89974059e-02f,-4.27584425e-02f,-4.09729071e-02f,
+8.30111057e-02f,-1.62134945e-01f,-3.65683697e-02f,+9.82432812e-03f,+6.44820230e-03f,
+1.87426239e-01f,+1.60107866e-01f,+5.08404784e-02f,+4.89104241e-02f,-3.91781986e-01f,
+7.39225894e-02f,-2.44957224e-01f,+2.92919241e-02f,+1.48702770e-01f,-9.36053097e-02f,
+1.84207223e-02f,+1.72187403e-01f,+9.88850966e-02f,-1.86688632e-01f,+4.20791917e-02f,
+2.11559668e-01f,+1.96969267e-02f,+1.20125584e-01f,+2.21799627e-01f,+3.04081407e-03f,
+1.12590156e-01f,+2.34186158e-01f,+3.32068920e-01f,-3.67582566e-03f,-2.26328522e-01f,
+1.24503709e-01f,+6.47393882e-01f,-3.16670567e-01f,+2.68459648e-01f,-1.54261783e-01f,
-7.05284402e-02f,-2.45434255e-03f,+1.00089289e-01f,+4.14974801e-02f,+7.10430294e-02f,
-1.16188429e-01f,-2.17899635e-01f,-6.16851188e-02f,-1.05954923e-01f,-3.08189154e-01f,
+1.29946858e-01f,-7.17121005e-01f,-7.47149065e-02f,+9.91495028e-02f,+4.52561490e-02f,
-3.12473327e-02f,-6.28480539e-02f,+1.45988315e-01f,+1.83088169e-01f,+1.39943734e-01f,
-2.73061872e-01f,-2.15172805e-02f,+4.61779833e-02f,+6.64643049e-02f,+7.26398686e-03f,
+8.80954564e-02f,+3.51468548e-02f,-2.45513720e-03f,+1.35441899e-01f,-1.14737812e-03f,
-2.07083616e-02f,-2.01269111e-04f,+5.71024895e-01f,+1.05170079e-01f,-2.86634237e-01f,
+1.28004819e-01f,-3.17327678e-01f,-8.27457458e-02f,+7.30579719e-03f,+2.20213190e-01f,
-1.23523645e-01f,-9.28321332e-02f,+4.63207476e-02f,-4.96524274e-02f,-1.22936532e-01f,
-9.36787277e-02f,+3.14734191e-01f,+1.09256759e-01f,-7.22528547e-02f,-2.81573441e-02f,
-8.30137432e-02f,+3.31114084e-02f,-1.12282224e-01f,+2.30900556e-01f,-3.12042326e-01f,
-3.02296989e-02f,-1.87765986e-01f,+1.57484531e-01f,+3.91422287e-02f,+1.47462890e-01f,
+1.04948342e-01f,-1.67863324e-01f,+5.86066544e-02f,-1.96125194e-01f,+2.02269703e-02f,
+9.98536870e-02f,+1.55138940e-01f,+5.39008342e-02f,-1.13071827e-02f,+8.77064187e-03f,
-2.58960187e-01f,-3.30154635e-02f,+2.01366901e-01f,-1.38059139e-01f,+2.97472905e-02f,
+2.47878823e-02f,+1.00120559e-01f,-1.00475967e-01f,-3.50951105e-02f,+3.33098099e-02f,
-3.14018548e-01f,-3.60892773e-01f,+2.36907229e-01f,+1.22766607e-01f,+1.14175931e-01f,
+1.54719323e-01f,-1.13680415e-01f,+5.77938557e-02f,-1.37231544e-01f,+4.74133343e-02f,
-4.62923735e-01f,+4.85762842e-02f,+2.40182698e-01f,+3.26376945e-01f,-1.84826314e-01f,
+4.75109816e-02f,-2.23831043e-01f,+1.77897215e-02f,-5.09101488e-02f,+5.07789999e-02f,
-5.17217278e-01f,-4.09182012e-01f,-1.21721823e-04f,+2.21601680e-01f,-2.58809119e-01f,
-6.08585835e-01f,-4.50093783e-02f,+3.79878245e-02f,-5.70965648e-01f,-4.65203434e-01f,
-5.38776219e-01f,-2.22828731e-01f,+2.51630396e-01f,-9.32261720e-02f,+6.35024011e-02f,
-9.67658088e-02f,-1.24845795e-01f,+1.13432691e-01f,-1.46518752e-01f,-4.25737858e-01f,
-4.41659465e-02f,+1.53615966e-01f,-5.22326902e-02f,+1.75719596e-02f,+1.10502392e-01f,
+1.36595309e-01f,-1.48162857e-01f,-1.16261221e-01f,+3.05485547e-01f,+3.83174032e-01f,
-4.22088951e-01f,+1.37350246e-01f,-3.05698097e-01f,-2.64457911e-01f,+6.63875043e-02f,
+6.19795144e-01f,-1.65960208e-01f,-2.57155806e-01f,+5.97684026e-01f,-3.42099935e-01f,
+1.72262952e-01f,+3.00307423e-02f,+9.26341712e-02f,-5.52700721e-02f,-4.19084519e-01f,
-2.64952004e-01f,-4.13661331e-01f,-9.14753824e-02f,-2.69347847e-01f,+3.90106618e-01f,
+1.94564182e-02f,+7.27999568e-01f,+1.32184342e-01f,+2.84330755e-01f,+9.25892405e-03f,
+1.08412445e+00f,+7.15073049e-01f,-8.06782186e-01f,+1.06946111e+00f,-7.19514728e-01f,
+9.27842408e-02f,+1.85881987e-01f,-2.40750127e-02f,+2.85973726e-03f,+8.96998942e-02f,
-9.88800451e-02f,+2.16272339e-01f,-2.32207924e-01f,+7.55235910e-01f,-6.03949487e-01f,
+8.99473280e-02f,-2.89077386e-02f,-4.47344244e-01f,-1.44403324e-01f,-3.53821218e-01f,
-1.88522860e-01f,+5.88267267e-01f,+4.59993362e-01f,+1.20102391e-02f,+4.60364670e-01f,
+5.12685329e-02f,+1.07093012e+00f,-3.26040298e-01f,+1.80401787e-01f,-2.23140195e-01f,
-8.89982358e-02f,-3.59627008e-02f,-8.64071697e-02f,+3.80403191e-01f,+4.62615311e-01f,
+6.07716441e-02f,+1.55119613e-01f,-7.92649314e-02f,-7.11000562e-02f,-3.07202756e-01f,
-6.80170208e-02f,+3.49839270e-01f,-4.01714951e-01f,+6.13305084e-02f,+7.74182230e-02f,
+5.19714272e-03f,+1.34921491e-01f,-7.95822144e-02f,+2.37636536e-01f,+1.66530207e-01f,
+1.57610938e-01f,+2.33209670e-01f,+1.13527194e-01f,+1.52490214e-01f,+5.14390953e-02f,
+8.40268433e-02f,+1.54783472e-01f,-1.17690235e-01f,-4.56220992e-02f,+7.43271131e-03f,
+8.33577514e-02f,+1.24984972e-01f,+7.66209066e-02f,-6.09955378e-02f,+3.44925672e-02f,
-3.71137750e-03f,+5.16963713e-02f,-8.91545489e-02f,-6.79323152e-02f,-6.06215857e-02f,
-2.87465416e-02f,-2.08109990e-01f,+2.53638579e-03f,-1.83096770e-02f,-1.54266417e-01f,
+6.08882047e-02f,+1.20218091e-01f,+6.27103122e-03f,-9.42188054e-02f,+4.29605693e-02f,
+1.72403321e-01f,-1.46162808e-01f,+3.78805906e-01f,+3.92622530e-01f,+6.99510891e-03f,
+7.03132302e-02f,+1.63547173e-02f,-1.48398653e-01f,-6.83349296e-02f,-1.50990814e-01f,
+2.77049243e-01f,-3.83153558e-01f,-1.00493856e-01f,-2.13176265e-01f,+3.05589586e-01f,
+7.16175884e-02f,+2.44917423e-01f,+2.21906945e-01f,-2.03197449e-01f,+1.36194462e-02f,
-6.73932433e-02f,-4.10048626e-02f,+2.67214850e-02f,+1.80579200e-02f,-3.30404146e-03f,
-6.57302439e-02f,+3.80859002e-02f,-2.70332634e-01f,-7.30338022e-02f,-8.00780356e-02f,
-1.27000153e-01f,-7.94591289e-03f,-5.15733883e-02f,+4.33457494e-02f,-1.22368529e-01f,
+6.58962205e-02f,-5.28128445e-02f,-1.30669493e-02f,+1.28869236e-01f,-1.15383729e-01f,
+2.18063280e-01f,+1.53295062e-02f,+1.21076748e-01f,-2.25748017e-01f,+7.09239617e-02f,
-1.28719985e-01f,+1.83470592e-01f,-2.79013127e-01f,+1.26721868e-02f,+1.18496403e-01f,
+4.18419212e-01f,-6.39257208e-02f,+2.40964378e-04f,-1.34612337e-01f,-7.56051578e-03f,
-1.64287835e-01f,-1.52562438e-02f,+2.92997479e-01f,+6.52206838e-02f,-4.01905563e-04f,
+1.34752810e-01f,-2.47972175e-01f,-2.07481667e-01f,-9.88632739e-02f,-1.08325079e-01f,
-1.96049958e-01f,-1.24601670e-01f,+9.87519547e-02f,-1.38191096e-02f,-1.29986510e-01f,
+3.65584999e-01f,-3.32776546e-01f,-1.20840721e-01f,+4.01470751e-01f,-3.25347692e-01f,
-3.69899459e-02f,+3.48247379e-01f,-8.52519944e-02f,-2.05752794e-02f,+8.93587396e-02f,
-1.37631565e-01f,-2.57657290e-01f,-5.17850444e-02f,+7.89179206e-02f,+4.37223464e-02f,
+3.87283638e-02f,+1.31336421e-01f,+2.46768102e-01f,+1.21137910e-01f,-1.16124026e-01f,
+1.42607763e-01f,-7.61901438e-02f,-1.33307993e-01f,-3.74554724e-01f,+3.04448098e-01f,
-6.47328123e-02f,-8.40045139e-03f,+1.03274941e-01f,-1.09803200e-01f,-6.94899783e-02f,
+4.22008522e-02f,-1.54628605e-01f,+2.16764435e-02f,+1.08219370e-01f,+7.07671642e-02f,
+6.16496056e-02f,-1.11541554e-01f,+6.55821115e-02f,-1.47126570e-01f,+3.44836682e-01f,
-1.22430578e-01f,+4.09790948e-02f,-1.00600153e-01f,-2.01475888e-01f,-3.05698305e-01f,
-8.06981102e-02f,+1.82107210e-01f,+2.61908192e-02f,+5.81415463e-03f,+1.22429289e-01f,
-5.23157679e-02f,-4.65826057e-02f,-5.77023427e-04f,+1.91160262e-01f,+6.02139048e-02f,
-1.15811303e-01f,+4.37440202e-02f,-1.07743017e-01f,+7.14004487e-02f,+1.46891654e-01f,
+7.98722431e-02f,-5.38861938e-02f,+1.15399361e-01f,-3.70845556e-01f,-1.70285344e-01f,
-9.28587243e-02f,-1.03524633e-01f,+6.02474087e-04f,-1.17707275e-01f,+1.59668267e-01f,
-6.25653118e-02f,-1.02436557e-01f,-1.96701601e-01f,-1.13617159e-01f,+1.46338856e-02f,
+1.22601070e-01f,+2.09038153e-01f,+1.57917023e-01f,+4.98387441e-02f,+2.73970187e-01f,
+4.58040982e-02f,+1.26248538e-01f,+1.85400233e-01f,+2.57072091e-01f,-3.55271310e-01f,
+3.21972035e-02f,+3.05427164e-01f,-1.93174049e-01f,-5.48105966e-03f,-4.27568406e-02f,
+6.63899630e-02f,+1.28747925e-01f,+7.16011599e-02f,-2.79836953e-02f,+4.57214862e-02f,
-1.76892485e-02f,-1.97860166e-01f,+5.18634096e-02f,+2.18231287e-02f,-6.37004375e-02f,
+1.53647065e-01f,+3.26764435e-02f,-9.13966596e-02f,-1.03904391e-02f,-3.61830406e-02f,
+2.09820084e-03f,+4.92533259e-02f,-1.13371447e-01f,+3.73915695e-02f,+2.03381833e-02f,
+2.47491356e-02f,-9.88107473e-02f,+1.18108109e-01f,-8.43254700e-02f,-1.35331722e-02f,
+4.08872664e-02f,-8.76721519e-04f,-2.11233031e-02f,-1.03770532e-01f,+7.96326920e-02f,
-7.73389786e-02f,-4.08995152e-02f,-3.33268493e-02f,+1.69735458e-02f,+3.15973490e-01f,
-3.18765968e-01f,+2.10841056e-02f,-5.10611273e-02f,+3.36044608e-03f,+6.37065247e-03f,
+1.50259594e-02f,+2.83349901e-02f,-5.07282726e-02f,+1.58674687e-01f,+1.64377540e-01f,
+2.55277485e-01f,-3.19856614e-01f,+1.15217775e-01f,-2.79533886e-03f,-1.81100499e-02f,
+7.21430331e-02f,+2.23257877e-02f,-3.21539491e-02f,-1.82506349e-02f,-6.40282780e-02f,
-1.14040591e-01f,+3.59948236e-03f,-1.16782812e-02f,-1.77003592e-02f,+3.26153338e-02f,
+7.84055889e-03f,+8.11887998e-03f,+2.96789333e-02f,-8.20114613e-02f,+2.23666467e-02f,
-6.42340481e-02f,+1.39254183e-02f,-1.27452072e-02f,-1.34103939e-01f,+1.34933442e-01f,
-2.55038403e-03f,-1.92334533e-01f,-2.99374238e-02f,+3.90018493e-01f,-1.86326390e-03f,
+2.16760710e-02f,+5.41203097e-03f,+9.67231095e-02f,+4.58845217e-03f,+5.82846738e-02f,
+1.23430807e-02f,-6.50792271e-02f,+5.60005940e-02f,-3.39777946e-01f,-4.07844447e-02f,
-1.06903456e-01f,-1.68330828e-03f,+1.37753198e-02f,+1.13681428e-01f,-1.89120427e-01f,
+9.19558629e-02f,-7.02589899e-02f,+5.26092155e-03f,+6.97200373e-02f,+7.14076832e-02f,
-7.12745860e-02f,-4.90233898e-01f,+2.60661040e-02f,-3.72858569e-02f,+3.53807919e-02f,
+4.23166230e-02f,+7.66973495e-02f,+1.59223599e-03f,-8.67403224e-02f,+1.72299035e-02f,
+2.13966861e-01f,-1.47701070e-01f,-1.23495638e-01f,-1.18068241e-01f,+3.10128275e-02f,
+8.33713915e-03f,-5.87558001e-02f,-1.46002799e-01f,-7.10857436e-02f,+1.55871987e-01f,
-2.11257264e-02f,-7.50111714e-02f,-7.15670511e-02f,+3.56420249e-01f,-1.65213659e-01f,
+6.86197579e-02f,+9.31262784e-03f,-2.76147611e-02f,+1.23730227e-01f,+1.20680712e-01f,
-1.21946983e-01f,+9.33102220e-02f,+2.09335028e-03f,+6.48429021e-02f,+8.12256802e-03f,
-6.02816939e-02f,+3.01777069e-02f,+1.57064144e-02f,-2.09320318e-02f,+4.33766190e-03f,
-3.54735591e-02f,+1.10177118e-02f,-8.53990577e-03f,+1.16590440e-01f,-1.59118861e-01f,
+3.01385596e-02f,-4.63785790e-02f,-2.87714899e-01f,-1.76431537e-02f,+3.83861107e-03f,
+5.77680506e-02f,+5.08682169e-02f,+2.79238578e-02f,-1.32249042e-01f,+1.40442010e-02f,
+3.99401076e-02f,-1.42595127e-01f,+2.15488784e-02f,-6.28895089e-02f,+3.33312573e-03f,
+1.99742362e-01f,-3.09263673e-02f,-4.84223403e-02f,-1.76842380e-02f,+2.38182433e-02f,
-4.81927581e-02f,+6.20398996e-03f,-7.12066237e-03f,+1.92181114e-02f,-1.52330860e-01f,
-3.45421195e-01f,+1.45119950e-01f,-2.04308093e-01f,+5.43462895e-02f,-1.45378679e-01f,
-8.41623463e-04f,-4.57685478e-02f,-2.38227397e-02f,+3.75226736e-01f,+1.06112193e-02f,
-1.98679477e-01f,+1.01399019e-01f,+5.85159622e-02f,+4.59283330e-02f,-9.91556719e-02f,
+1.06704105e-02f,+2.28701919e-01f,-1.06921820e-02f,-5.24095148e-02f,+2.51179729e-02f,
+1.77010119e-01f,+1.30047891e-02f,-4.04949859e-02f,+1.70044348e-01f,-1.91321403e-01f,
-1.03780448e-01f,+6.13716990e-02f,+3.07325214e-01f,+2.54132777e-01f,-1.74038440e-01f,
+1.08184546e-01f,-6.36234879e-02f,+2.95596849e-02f,+2.11826917e-02f,+4.15664881e-01f,
+8.54966789e-02f,-5.37019456e-03f,-3.63057286e-01f,-6.61444291e-02f,+2.46396903e-02f,
+9.06851236e-03f,+5.11940792e-02f,+1.22220047e-01f,+6.99006245e-02f,+2.65186280e-02f,
+1.45725787e-01f,+1.15898661e-01f,+1.54387861e-01f,-6.59581780e-01f,+2.22385630e-01f,
+6.65642023e-02f,+3.85235310e-01f,+1.12184443e-01f,+1.05979510e-01f,+1.06768079e-01f,
-2.66986573e-03f,+1.86809525e-01f,-2.16915291e-02f,+1.89041272e-02f,+5.56934997e-02f,
-9.77120027e-02f,+3.03107113e-01f,+7.76162297e-02f,+1.81188092e-01f,+5.43476641e-02f,
+1.33104190e-01f,+3.05879470e-02f,+1.02234885e-01f,+1.94305182e-01f,+2.82783568e-01f,
+8.99713933e-02f,-1.55386478e-01f,-1.72781646e-01f,+4.68390077e-01f,+2.13115141e-01f,
-1.00671850e-01f,-7.15283155e-02f,-2.27142468e-01f,-2.08820418e-01f,+2.92881638e-01f,
+3.81159663e-01f,+3.77320275e-02f,+3.93447354e-02f,+6.72535300e-02f,+5.19129224e-02f,
-1.34707792e-02f,+2.23962575e-01f,-2.37672161e-02f,-8.82950649e-02f,-8.71024504e-02f,
+8.48304704e-02f,+1.41602799e-01f,+9.23148319e-02f,+1.07794330e-01f,+2.10371703e-01f,
-4.94074404e-01f,-1.12026870e-01f,+2.98812985e-03f,+3.08633536e-01f,-2.35822022e-01f,
+2.74429053e-01f,-1.02914825e-01f,-8.86830091e-02f,-2.54553072e-02f,+1.02313019e-01f,
+9.68266577e-02f,-2.04682365e-01f,-8.37111250e-02f,-2.12703183e-01f,+2.46702701e-01f,
+4.24543262e-01f,+1.46357149e-01f,-5.41969761e-02f,+4.64246459e-02f,-3.16642709e-02f,
+8.47492740e-03f,+1.76499188e-01f,-7.11994022e-02f,+1.32087812e-01f,-5.29502332e-01f,
+2.26295725e-01f,+1.25461787e-01f,-2.94624388e-01f,+1.85991719e-01f,+4.91323136e-02f,
-2.15267494e-01f,+2.56482303e-01f,+2.94582605e-01f,-1.25959516e-01f,-1.29112396e-02f,
-3.77222110e-04f,+1.04105935e-01f,+2.46004015e-02f,-3.62456918e-01f,+1.83292925e-01f,
-3.36256018e-03f,+1.18314795e-01f,+4.11766134e-02f,-6.10247590e-02f,+8.76607597e-02f,
-1.31857663e-01f,-7.01941401e-02f,-8.97959769e-02f,-4.71461937e-02f,-1.50939375e-01f,
+1.57983601e-01f,-1.54999331e-01f,+6.19796589e-02f,+7.15286890e-03f,-1.31646320e-01f,
-6.15974776e-02f,+1.56401932e-01f,-7.06849806e-03f,+3.92205529e-02f,-6.06817566e-02f,
-3.36412452e-02f,+3.49916928e-02f,+3.19490731e-02f,+2.00457394e-01f,-1.29582891e-02f,
+8.14946145e-02f,+9.79231596e-02f,+3.73445116e-02f,-4.69382145e-02f,-1.07167882e-03f,
-1.44743696e-01f,+2.06027851e-01f,-5.23896404e-02f,-3.17126922e-02f,+3.38634789e-01f,
+1.52230307e-01f,-9.14216191e-02f,+1.64573751e-02f,+1.52234823e-01f,+6.71723951e-03f,
+1.77097335e-01f,-2.25760713e-01f,-7.51248300e-02f,-1.78191870e-01f,-3.50369960e-01f,
-5.94141567e-03f,+7.81774968e-02f,-1.35014087e-01f,+4.04847190e-02f,-1.61066726e-01f,
+2.19010502e-01f,-2.31685713e-01f,+2.07759459e-02f,+5.31583764e-02f,-1.63835570e-01f,
-1.72252521e-01f,+2.09442288e-01f,-1.18230410e-01f,+7.61952177e-02f,-1.09815765e-02f,
-8.97371620e-02f,+6.17851838e-02f,+1.45141650e-02f,+1.09483205e-01f,-6.51668906e-02f,
+1.39061272e-01f,-9.50963050e-03f,+7.22033456e-02f,+2.50882238e-01f,-5.52162006e-02f,
+1.17647558e-01f,+2.31355399e-01f,-2.56599002e-02f,+1.09730989e-01f,+6.16845153e-02f,
-8.14329647e-03f,+2.20815614e-01f,-1.22552486e-02f,+9.86533165e-02f,-1.64170228e-02f,
-1.30406499e-01f,-4.87178192e-02f,+1.09332621e-01f,-2.00393856e-01f,+2.41003111e-01f,
+1.85978174e-01f,-1.26665562e-01f,+1.54346423e-02f,+2.77086045e-03f,-8.39654473e-04f,
-9.27154869e-02f,-2.41089076e-01f,+1.71997421e-03f,-6.60602823e-02f,-1.94246650e-01f,
-3.98827270e-02f,-8.97466615e-02f,-7.39184115e-03f,-2.71344520e-02f,-2.73618102e-02f,
+1.44151211e-01f,-3.09788018e-01f,-1.47159994e-01f,+4.08040220e-03f,-1.98518243e-02f,
-1.12061404e-01f,+3.41901444e-02f,-7.32452199e-02f,+7.04974309e-02f,+3.57902348e-01f,
-1.64120141e-02f,-1.30984306e-01f,+3.75238024e-02f,+4.58968133e-01f,-5.93244694e-02f,
+1.90612078e-02f,+1.17897671e-02f,-3.90502624e-02f,-2.86284238e-01f,+3.92281413e-02f,
+1.01496773e-02f,-6.83454722e-02f,+1.35126695e-01f,-1.19496761e-02f,-8.02415702e-03f,
+2.08782721e-02f,+6.39982522e-02f,+7.30198845e-02f,-1.04154333e-01f,-3.83260965e-01f,
-1.68243662e-01f,-7.65506327e-02f,-1.15927204e-01f,+2.57537384e-02f,-5.14814183e-02f,
+7.19245970e-02f,-2.34296113e-01f,-4.96018268e-02f,-6.02846816e-02f,-1.72610417e-01f,
+1.81363657e-01f,+7.59906173e-02f,+1.24409031e-02f,-1.14617823e-02f,-9.21906624e-03f,
-7.26796314e-03f,+5.62332757e-02f,-1.19890682e-01f,-2.68161390e-02f,+9.31614935e-02f,
-6.24401383e-02f,-1.44377248e-02f,-1.41870797e-01f,-9.39764734e-03f,+2.70213634e-01f,
-1.36887446e-01f,-2.85453558e-01f,+1.17491327e-01f,+1.01793125e-01f,-2.90637426e-02f,
+1.75403535e-01f,+2.15855137e-01f,+2.06333529e-02f,+3.19143325e-01f,-9.19305999e-03f,
+6.20680973e-02f,-2.96576992e-02f,-3.44529718e-01f,-5.55905327e-02f,-1.39043182e-01f,
-1.20556690e-02f,-3.10750008e-02f,-1.74574107e-02f,+5.42660207e-02f,+7.39751533e-02f,
+9.31849852e-02f,+9.29923654e-02f,-5.71554936e-02f,-8.67185295e-02f,-7.34853819e-02f,
-2.32444495e-01f,+7.78661296e-02f,+5.19491769e-02f,-5.29924110e-02f,+4.77158763e-02f,
+5.97401001e-02f,+1.58061132e-01f,+2.10515305e-01f,-3.36580561e-03f,-2.57107735e-01f,
+3.81504714e-01f,+2.80121304e-02f,-4.46788967e-02f,+3.92525196e-02f,-6.59885909e-03f,
-1.54204033e-02f,-5.52613810e-02f,-4.62004058e-02f,-4.05068174e-02f,-7.52935931e-03f,
+1.79028767e-03f,-1.46605028e-03f,+2.93366145e-02f,-7.53276572e-02f,-4.44763675e-02f,
-2.91595012e-01f,+5.49437627e-02f,+8.06165859e-03f,-7.70407692e-02f,+2.34298930e-01f,
+1.72472090e-01f,-1.38520543e-02f,+4.86792997e-02f,+3.47459991e-03f,-1.11565236e-02f,
+2.83417016e-01f,+2.53556520e-02f,+5.94678037e-02f,-5.37461974e-02f,+3.75413410e-02f,
+1.15340902e-02f,-1.25930086e-02f,+1.31189059e-02f,-1.22747086e-01f,-4.27713841e-02f,
+1.20446965e-01f,+6.15126751e-02f,+6.02580234e-02f,+3.90511490e-02f,-1.26547907e-02f,
+1.00581506e-02f,-3.86922411e-03f,+7.99857080e-02f,-6.42872825e-02f,-2.37839622e-03f,
+5.46718389e-02f,-2.15453088e-01f,+8.05870667e-02f,-4.83759772e-03f,-9.09289792e-02f,
+1.16164181e-02f,+3.52411438e-03f,+4.65247259e-02f,-8.76667723e-02f,-4.43098247e-02f,
-5.34744784e-02f,+1.46724386e-02f,+8.94108694e-03f,-2.27075636e-01f,-1.66648254e-01f,
+1.76467493e-01f,-1.67227283e-01f,+6.65941183e-03f,-1.60512533e-02f,-5.01805283e-02f,
+5.75676523e-02f,-7.66240880e-02f,-2.41062745e-01f,+1.61428414e-02f,+2.73996182e-02f,
-1.36555675e-02f,-3.70131694e-02f,+1.24700433e-02f,+1.30340144e-01f,-4.63664755e-02f,
+1.99564859e-01f,+1.61223058e-02f,+1.74418297e-02f,+7.72897005e-02f,-1.61936402e-01f,
-1.42584994e-01f,+1.19280107e-01f,+6.03333265e-02f,-5.01013137e-02f,};
k2c_tensor dense_kernel = {&dense_kernel_array[0],2,2304,{24,96, 1, 1, 1}};
float dense_bias_array[96] = {
+1.16917543e-01f,-9.01355669e-02f,-2.99218863e-01f,-6.49930537e-01f,-8.14775527e-01f,
-2.35093430e-01f,-9.06179011e-01f,-1.00017285e+00f,-5.18869877e-01f,-5.88185251e-01f,
-5.85614443e-01f,-5.61837077e-01f,-5.08378029e-01f,-4.71881270e-01f,-2.58131117e-01f,
+4.53200489e-01f,+6.29307330e-01f,-1.01739073e+00f,-7.56861687e-01f,-1.44810408e-01f,
-3.33725572e-01f,-8.58150005e-01f,-3.97005767e-01f,+1.56255007e-01f,-4.66520011e-01f,
-1.58474967e-01f,-7.07657576e-01f,-2.95710683e-01f,-8.32394183e-01f,-2.75034577e-01f,
-4.95807916e-01f,-2.66728491e-01f,-6.39913619e-01f,+6.48279190e-01f,-7.70564854e-01f,
+1.21765864e+00f,-1.98388249e-01f,-2.43842363e-01f,-8.08791339e-01f,-3.38127673e-01f,
-7.74189115e-01f,-4.74000394e-01f,-9.89081442e-01f,-6.38125181e-01f,-3.13376486e-01f,
-4.03061330e-01f,+2.88945079e-01f,-1.81939434e-02f,-4.78395313e-01f,-9.11211073e-01f,
-3.90940100e-01f,+4.25776571e-01f,-4.18104678e-01f,-6.50273323e-01f,-6.73501799e-03f,
-8.07977080e-01f,-8.87204587e-01f,+4.85024303e-01f,+1.76539376e-01f,-5.67310333e-01f,
-8.45366240e-01f,-2.89964914e-01f,-7.10283875e-01f,-8.33604097e-01f,-5.99946976e-01f,
-7.34786332e-01f,-8.48427236e-01f,-1.28640831e-02f,+2.82815039e-01f,-5.84969878e-01f,
+2.16216192e-01f,+8.21417794e-02f,-1.15633667e-01f,-5.59540629e-01f,+7.00624883e-02f,
-8.16848040e-01f,-6.08057141e-01f,+2.25122496e-01f,-8.96931905e-03f,-1.76360250e-01f,
-8.27905715e-01f,-1.59096956e-01f,-3.31484556e-01f,-3.36032689e-01f,-4.46744025e-01f,
-3.90510798e-01f,-4.54108685e-01f,-5.53030372e-01f,-1.05324781e+00f,-6.51471555e-01f,
-8.73948693e-01f,-7.15031028e-02f,-4.42608178e-01f,-4.41129029e-01f,+4.98797089e-01f,
-4.06801850e-01f,};
k2c_tensor dense_bias = {&dense_bias_array[0],1,96,{96, 1, 1, 1, 1}};
float dense_fwork[2328] = {0};


float batch_normalization_0_output_array[96] = {0};
k2c_tensor batch_normalization_0_output = {&batch_normalization_0_output_array[0],1,96,{96, 1, 1, 1, 1}};
size_t batch_normalization_axis = 0;
float batch_normalization_mean_array[96] = {
+3.91546369e-01f,+4.04083431e-01f,+2.74759084e-01f,+1.02561660e-01f,+3.44413854e-02f,
+3.13651592e-01f,+6.52580038e-02f,+2.08924357e-02f,+1.52217031e-01f,+1.53674334e-01f,
+2.94552624e-01f,+1.22202821e-01f,+1.60413697e-01f,+4.28724974e-01f,+3.13350052e-01f,
+7.25515604e-01f,+7.87805796e-01f,+4.14773561e-02f,+8.93558487e-02f,+3.28094125e-01f,
+3.22284341e-01f,+1.18722785e-02f,+4.58931237e-01f,+4.19715464e-01f,+1.96432352e-01f,
+3.71884704e-01f,+6.11969717e-02f,+1.81856409e-01f,+3.33561748e-02f,+3.45145524e-01f,
+2.33468771e-01f,+2.99438596e-01f,+6.93139881e-02f,+8.06046903e-01f,+6.58966079e-02f,
+1.23112750e+00f,+3.41228664e-01f,+2.87976086e-01f,+5.50614111e-02f,+2.04380110e-01f,
+4.85781245e-02f,+1.85591027e-01f,+1.35640875e-02f,+2.05054089e-01f,+2.45291382e-01f,
+1.06831484e-01f,+5.68196833e-01f,+2.64005870e-01f,+1.86705515e-01f,+7.20632225e-02f,
+2.85373330e-01f,+6.48302615e-01f,+2.52043992e-01f,+1.19813636e-01f,+4.12368387e-01f,
+3.67580391e-02f,+6.31361082e-02f,+6.48993611e-01f,+4.71212149e-01f,+7.47671798e-02f,
+8.53367802e-03f,+1.92139372e-01f,+6.63398281e-02f,+8.54887813e-02f,+1.26760274e-01f,
+7.13407993e-02f,+1.04006067e-01f,+4.13746566e-01f,+6.73357904e-01f,+1.54970288e-01f,
+4.07810241e-01f,+4.04726535e-01f,+2.71823823e-01f,+2.44496569e-01f,+5.24356842e-01f,
+4.82008383e-02f,+2.02029109e-01f,+5.39820969e-01f,+4.62023795e-01f,+3.20701003e-01f,
+6.78189397e-02f,+2.14022845e-01f,+5.76117456e-01f,+2.56513387e-01f,+2.29211643e-01f,
+1.97832704e-01f,+2.26843446e-01f,+7.74267465e-02f,+2.08637398e-02f,+1.25390798e-01f,
+5.99486381e-02f,+3.54413033e-01f,+9.88282487e-02f,+2.22613096e-01f,+6.57686353e-01f,
+1.26450419e-01f,};
k2c_tensor batch_normalization_mean = {&batch_normalization_mean_array[0],1,96,{96, 1, 1, 1, 1}};
float batch_normalization_stdev_array[96] = {
+5.54715037e-01f,+7.16373682e-01f,+4.02453393e-01f,+2.90723652e-01f,+1.54717132e-01f,
+5.21201253e-01f,+1.83197930e-01f,+1.00570984e-01f,+3.41609091e-01f,+3.84544104e-01f,
+4.84701276e-01f,+2.83238202e-01f,+3.44621330e-01f,+6.46735966e-01f,+5.21262765e-01f,
+7.90810049e-01f,+7.68503129e-01f,+1.19980596e-01f,+2.40946516e-01f,+5.23358524e-01f,
+5.10759413e-01f,+7.03767538e-02f,+6.70665383e-01f,+5.45042455e-01f,+4.76436853e-01f,
+5.63982069e-01f,+2.02383608e-01f,+3.56552213e-01f,+1.36235312e-01f,+5.31836212e-01f,
+4.21617121e-01f,+5.22561610e-01f,+1.97474971e-01f,+7.34329343e-01f,+2.01812878e-01f,
+7.63546228e-01f,+4.87092465e-01f,+5.25836587e-01f,+1.58963621e-01f,+3.62985790e-01f,
+1.71903044e-01f,+3.99043262e-01f,+7.66134113e-02f,+3.81586760e-01f,+4.41635042e-01f,
+2.81468362e-01f,+6.22655749e-01f,+3.81963342e-01f,+4.17564988e-01f,+2.02386960e-01f,
+4.43269402e-01f,+6.28290236e-01f,+4.69382942e-01f,+2.38337889e-01f,+6.49495423e-01f,
+1.25728086e-01f,+1.71534553e-01f,+6.73391700e-01f,+5.94964802e-01f,+1.82169572e-01f,
+5.81883900e-02f,+3.07772547e-01f,+1.99526697e-01f,+2.15841323e-01f,+3.39592725e-01f,
+2.10002154e-01f,+2.58721203e-01f,+5.80157697e-01f,+8.34717751e-01f,+3.55520338e-01f,
+4.98020828e-01f,+5.47364950e-01f,+3.94437402e-01f,+4.41601336e-01f,+7.32006669e-01f,
+1.74605906e-01f,+3.69380116e-01f,+6.86565518e-01f,+6.58487022e-01f,+4.83141065e-01f,
+1.87074989e-01f,+3.20592701e-01f,+8.08884084e-01f,+4.63603765e-01f,+4.74673659e-01f,
+4.44538742e-01f,+4.11682338e-01f,+1.91687584e-01f,+8.11890811e-02f,+3.08266431e-01f,
+1.72862574e-01f,+5.21184325e-01f,+2.37019852e-01f,+4.19550687e-01f,+7.62869656e-01f,
+2.21418068e-01f,};
k2c_tensor batch_normalization_stdev = {&batch_normalization_stdev_array[0],1,96,{96, 1, 1, 1, 1}};
float batch_normalization_gamma_array[96] = {
+9.20179009e-01f,+8.88039708e-01f,+8.96888673e-01f,+1.03659201e+00f,+1.05060184e+00f,
+9.19151843e-01f,+9.04124320e-01f,+8.07763219e-01f,+9.80969787e-01f,+9.89369750e-01f,
+8.89563620e-01f,+7.42456615e-01f,+8.99076104e-01f,+8.30402195e-01f,+8.32459688e-01f,
+8.00037801e-01f,+7.85738468e-01f,+1.14585376e+00f,+7.09263921e-01f,+6.75128520e-01f,
+7.72623181e-01f,+1.07725370e+00f,+9.00967538e-01f,+1.03793895e+00f,+1.19681489e+00f,
+9.19585347e-01f,+7.77806640e-01f,+8.04360688e-01f,+7.78957665e-01f,+7.31849253e-01f,
+1.20205295e+00f,+1.00354493e+00f,+1.03533792e+00f,+9.57239330e-01f,+1.12516439e+00f,
+5.32854438e-01f,+9.07361388e-01f,+8.85806799e-01f,+8.16635787e-01f,+1.07706439e+00f,
+8.45762432e-01f,+8.31226230e-01f,+6.80222213e-01f,+9.17350411e-01f,+7.33747959e-01f,
+8.83149087e-01f,+1.00654423e+00f,+6.29819989e-01f,+8.31003010e-01f,+7.59885669e-01f,
+1.18994522e+00f,+1.10901320e+00f,+9.99281287e-01f,+9.86038148e-01f,+1.04631889e+00f,
+9.79419470e-01f,+9.20533299e-01f,+7.80627251e-01f,+7.13631630e-01f,+1.06571603e+00f,
+1.04184818e+00f,+8.28362286e-01f,+8.76924157e-01f,+1.06650698e+00f,+8.46278250e-01f,
+6.21136665e-01f,+1.47583568e+00f,+7.87354112e-01f,+7.38944232e-01f,+8.44669878e-01f,
+8.76922548e-01f,+9.94765878e-01f,+9.88652885e-01f,+8.49273086e-01f,+7.34930336e-01f,
+6.67257130e-01f,+1.39438736e+00f,+7.35089242e-01f,+5.33872068e-01f,+8.20808828e-01f,
+7.72679746e-01f,+8.57586682e-01f,+9.61619735e-01f,+8.62055659e-01f,+8.89923275e-01f,
+9.27326262e-01f,+9.31643009e-01f,+9.80355978e-01f,+8.41457367e-01f,+7.01718628e-01f,
+7.34674633e-01f,+8.72240663e-01f,+9.98189092e-01f,+6.64727807e-01f,+1.04180992e+00f,
+8.96761179e-01f,};
k2c_tensor batch_normalization_gamma = {&batch_normalization_gamma_array[0],1,96,{96, 1, 1, 1, 1}};
float batch_normalization_beta_array[96] = {
+2.36152962e-01f,+1.22203000e-01f,+2.52859205e-01f,+2.15037271e-01f,-1.18041329e-01f,
+1.18660972e-01f,-3.55950966e-02f,-4.99659628e-01f,+3.60894650e-01f,+9.67868790e-02f,
-2.00986221e-01f,-3.87228467e-02f,+1.81494713e-01f,-2.54583418e-01f,-7.96723962e-02f,
+7.91316777e-02f,+9.28189233e-02f,+1.04236484e-01f,-5.39439142e-01f,-8.14244598e-02f,
-9.34726670e-02f,-2.81429440e-01f,-1.79059774e-01f,+5.72291732e-01f,+4.34190094e-01f,
+2.74191201e-01f,-2.95544267e-01f,+2.19668709e-02f,-2.73192137e-01f,-3.59972537e-01f,
+5.84674358e-01f,+2.34954074e-01f,+8.81612077e-02f,+7.68544257e-01f,+2.07531899e-01f,
-3.58990431e-02f,+1.70626774e-01f,+1.86606735e-01f,-2.46978909e-01f,+4.45392251e-01f,
-6.06979251e-01f,-6.49321020e-01f,-4.46959347e-01f,-1.26321271e-01f,-2.91569173e-01f,
+1.11678608e-01f,+6.15132093e-01f,-1.17982112e-01f,+5.17769642e-02f,-8.51702020e-02f,
+4.65047240e-01f,+7.87916601e-01f,+1.12552084e-01f,+1.28711879e-01f,+2.61571199e-01f,
-2.71373123e-01f,+5.28046787e-02f,-2.31666908e-01f,-2.24150822e-01f,+2.76911288e-01f,
-3.31233770e-01f,+7.30405077e-02f,-5.43338895e-01f,+1.23284832e-01f,-2.68633455e-01f,
-2.75280233e-02f,+4.78006572e-01f,-1.75609767e-01f,-6.61393046e-01f,-8.37377608e-01f,
+2.10913733e-01f,+6.72587812e-01f,+5.14515996e-01f,+1.02421187e-01f,-4.62585419e-01f,
-9.79446545e-02f,+5.56711137e-01f,-5.47450185e-01f,-4.54773277e-01f,+4.02365446e-01f,
-2.52367586e-01f,+2.40998507e-01f,-8.08955207e-02f,+3.49466771e-01f,+1.99403882e-01f,
-4.74826321e-02f,+1.15896650e-01f,+1.59628317e-01f,-8.12890455e-02f,-7.12548673e-01f,
-2.54705846e-01f,+4.67824370e-01f,+1.81589410e-01f,-3.87716591e-01f,+5.76186419e-01f,
+1.41858429e-01f,};
k2c_tensor batch_normalization_beta = {&batch_normalization_beta_array[0],1,96,{96, 1, 1, 1, 1}};


float dense_1_0_output_array[96] = {0};
k2c_tensor dense_1_0_output = {&dense_1_0_output_array[0],1,96,{96, 1, 1, 1, 1}};
float dense_1_kernel_array[9216] = {
+2.71032751e-01f,-2.81264335e-01f,-2.88960636e-01f,+2.76189856e-03f,-2.44453296e-01f,
+2.17745379e-02f,+1.11609511e-01f,+1.09971777e-01f,-7.04063848e-02f,+1.54097632e-01f,
+6.33702204e-02f,-2.78427362e-01f,+1.15059614e-01f,+2.39467733e-02f,+1.68492764e-01f,
+6.28882423e-02f,-1.69462025e-01f,+9.50167775e-02f,+2.86089867e-01f,+2.25404203e-02f,
-1.66659988e-02f,-2.58127134e-02f,-3.72826047e-02f,+2.22305208e-01f,+1.74213231e-01f,
+5.32360785e-02f,-5.47915399e-01f,+1.23965308e-01f,-1.67742774e-01f,+1.45059815e-02f,
-1.02089513e-02f,-6.32071868e-02f,+1.25476614e-01f,+1.19813055e-01f,-1.81221113e-01f,
+5.34015074e-02f,+7.81235024e-02f,-5.38679421e-01f,-3.97331938e-02f,-5.21238223e-02f,
+1.06341206e-01f,-3.24481651e-02f,-1.66296884e-01f,+1.35451272e-01f,-1.92730069e-01f,
+4.28227037e-02f,+1.80014357e-01f,+1.58971876e-01f,-1.04365095e-01f,-3.35299850e-01f,
-7.46237040e-02f,+2.32596993e-01f,-2.01854020e-01f,-3.37267518e-01f,+1.22108459e-02f,
+8.65847021e-02f,-1.59380049e-01f,-1.66115552e-01f,+1.93324268e-01f,-1.07327141e-01f,
-9.93683115e-02f,-1.44918235e-02f,-2.37671230e-02f,+1.76173877e-02f,+2.08030105e-01f,
-6.85496256e-02f,-2.02444986e-01f,+6.82537854e-02f,+5.98870367e-02f,+6.44437224e-02f,
-5.76977551e-01f,+5.77454753e-02f,-1.44342771e-02f,+1.00989370e-02f,+6.43489659e-02f,
-5.75919449e-01f,-3.11679572e-01f,+2.82950878e-01f,+6.21465631e-02f,+1.14380844e-01f,
-4.13784415e-01f,-1.06794149e-01f,+1.73207372e-02f,-1.91662520e-01f,+2.48110723e-02f,
-2.84889072e-01f,+2.64109313e-01f,-3.97482097e-01f,-6.34464249e-02f,-1.85190141e-01f,
-6.13102876e-02f,+1.29639819e-01f,-5.30464016e-02f,-7.82455564e-01f,-1.91915989e-01f,
+8.43274072e-02f,-1.87757760e-01f,+8.60167295e-02f,+1.15947165e-01f,+6.28262833e-02f,
-3.85413259e-01f,-1.11425892e-01f,-4.31313626e-02f,-1.16041012e-01f,+7.27087781e-02f,
+1.17664278e-01f,-2.06798147e-02f,+1.49084423e-02f,+2.08329946e-01f,-9.00209025e-02f,
-1.05547011e+00f,+8.31838995e-02f,-4.38295789e-02f,-2.27289215e-01f,-2.87807882e-01f,
-3.32617834e-02f,+1.03873402e-01f,+1.96788937e-01f,+7.98062459e-02f,+1.12045802e-01f,
+4.38659340e-02f,-4.61681247e-01f,-1.73630953e-01f,+9.25915316e-02f,+1.12361468e-01f,
-7.79144242e-02f,-1.29509307e-02f,+1.13875382e-01f,+6.94996119e-02f,+7.82831162e-02f,
+4.58850935e-02f,+1.12275884e-01f,+4.42590564e-02f,+3.82520825e-01f,-3.34674001e-01f,
+2.49526978e-01f,+1.32969901e-01f,-1.32720008e-01f,+1.50699109e-01f,+2.58700609e-01f,
+4.64354008e-02f,+1.30995899e-01f,+5.87880872e-02f,-8.79615903e-01f,+9.38830301e-02f,
-1.19366750e-01f,-1.87933430e-01f,+4.75616939e-02f,+1.25340611e-01f,-4.96337116e-02f,
-3.15733217e-02f,+6.10091910e-02f,+4.62361723e-02f,+7.63475746e-02f,+1.88028496e-02f,
+2.75233220e-02f,+1.54420268e-02f,-1.48589574e-02f,-5.10533340e-02f,-1.87636748e-01f,
+1.71340108e-01f,+3.89149599e-02f,-1.28022566e-01f,-4.06638145e-01f,-8.40847206e-04f,
+1.52146354e-01f,-2.20156372e-01f,+2.22265482e-01f,-3.87975752e-01f,-1.53052196e-01f,
+2.76397467e-01f,+1.06306531e-01f,-7.24389926e-02f,+1.85643837e-01f,-2.60286510e-01f,
-4.31398422e-01f,-3.07098031e-01f,-1.69988349e-01f,+1.21959232e-01f,-7.27561787e-02f,
+7.64244795e-02f,-9.48300064e-02f,-7.13440031e-02f,+3.26855779e-02f,-2.59504076e-02f,
+1.76891744e-01f,-3.20092142e-02f,-3.72672603e-02f,-1.88975353e-02f,+2.28416890e-01f,
-2.67554782e-02f,+2.80634239e-02f,-7.43613422e-01f,-7.58971944e-02f,+5.40658757e-02f,
-4.63991947e-02f,-7.73331046e-01f,-1.48290833e-02f,+1.50093623e-02f,-1.71109065e-02f,
+2.02996001e-01f,-1.00535192e-01f,+4.46312269e-03f,-2.01717928e-01f,-8.99800733e-02f,
-4.45435084e-02f,-2.93662459e-01f,-6.80142567e-02f,+1.65468007e-02f,+2.36241501e-02f,
-1.87762901e-01f,+6.03636540e-02f,+2.55613863e-01f,+7.77378008e-02f,-1.42635824e-02f,
+1.70011625e-01f,-2.20500324e-02f,-1.79885149e-01f,+3.94130475e-04f,-1.27083436e-01f,
-2.20111594e-01f,+6.70843348e-02f,+5.54149458e-03f,-1.58803895e-01f,-1.36500031e-01f,
-2.11529404e-01f,+8.38438421e-02f,-8.02031904e-02f,-5.16861752e-02f,-1.66897535e-01f,
-1.41128851e-02f,+9.86570045e-02f,-3.95063311e-02f,+1.96579114e-01f,+7.27434084e-02f,
-8.93335789e-02f,-1.16459854e-01f,+4.52728346e-02f,-8.37801173e-02f,-5.61955422e-02f,
-7.71455169e-02f,+1.15180813e-01f,-6.30715191e-01f,-1.62136123e-01f,-2.75004923e-01f,
-1.60685822e-01f,-2.54936814e-01f,+1.68259397e-01f,-2.20773816e-01f,+1.07683152e-01f,
-5.44488691e-02f,+1.06193908e-01f,-1.67118266e-01f,+7.17566460e-02f,-7.58505985e-02f,
-1.61374792e-01f,-4.50517908e-02f,+1.31357461e-01f,+2.07449034e-01f,-3.85471910e-01f,
+2.78702766e-01f,-7.01919943e-02f,+2.76716262e-01f,-4.56836700e-01f,+1.31733671e-01f,
-1.94816366e-01f,-6.93360344e-02f,-2.04606187e-02f,+2.78495764e-03f,-3.51263046e-01f,
+8.51972550e-02f,-1.23929344e-01f,-3.70885968e-01f,-2.31332958e-01f,+1.13219365e-01f,
+3.85368094e-02f,+5.49411364e-02f,-1.23821571e-01f,+4.11852123e-03f,-1.91152677e-01f,
-1.39077142e-01f,-2.50590920e-01f,-1.72709927e-01f,+5.01171090e-02f,+1.47436708e-01f,
-6.40843716e-03f,-9.34436023e-02f,-5.70611544e-02f,+1.62807032e-02f,-1.32437706e-01f,
-2.59689629e-01f,-6.33707866e-02f,+8.47707018e-02f,-7.39283711e-02f,+1.37829840e-01f,
+1.98634848e-01f,-1.13462731e-01f,-2.20894024e-01f,-1.95082300e-03f,-6.46552350e-03f,
-2.33386770e-01f,+3.75659391e-02f,-3.96561265e-01f,-2.95186453e-02f,-2.47420579e-01f,
-4.16482419e-01f,+2.97752041e-02f,+3.08541069e-03f,-2.75191545e-01f,+2.52844602e-01f,
+2.28724480e-02f,+3.69678020e-01f,+2.00700328e-01f,-4.08243716e-01f,-1.49925932e-01f,
-2.75441110e-01f,-6.20616861e-02f,-7.24828243e-02f,+7.68694654e-02f,-1.74983293e-01f,
-8.41711238e-02f,+1.96407124e-01f,-1.70379078e+00f,-1.15276501e-02f,+2.44660210e-03f,
-5.85406506e-03f,+2.08439082e-01f,-1.17377996e-01f,-4.19551432e-01f,+1.73719570e-01f,
-4.65921342e-01f,-2.35170737e-01f,-1.20665535e-01f,+1.70599110e-02f,+1.12275824e-01f,
+4.50534262e-02f,-7.35775456e-02f,-2.45404527e-01f,-2.17109308e-01f,+1.36055321e-01f,
-1.45463780e-01f,-5.86511731e-01f,+2.39101667e-02f,+3.21182273e-02f,-1.38785066e-02f,
+1.61516652e-01f,-5.55518009e-02f,+2.24267244e-02f,-2.51969229e-03f,-1.04226554e-02f,
-1.01419650e-01f,+1.25138890e-02f,+1.63624987e-01f,-6.47330955e-02f,-6.53436720e-01f,
+4.43239883e-03f,+1.68239638e-01f,+4.69271466e-02f,+9.37805921e-02f,-1.71696246e-01f,
+1.18729528e-02f,-1.18089683e-01f,+5.89068569e-02f,-5.90714872e-01f,-1.76099181e-01f,
+1.21986195e-02f,-1.43498797e-02f,-1.43201038e-01f,-5.75500369e-01f,-7.28154555e-02f,
-1.85110018e-01f,+8.29416215e-02f,-1.79667011e-01f,+3.84197719e-02f,+3.59198600e-01f,
+1.86957151e-01f,-6.84758425e-02f,-3.79835606e-01f,-3.36277373e-02f,-1.97801571e-02f,
-5.11695519e-02f,-1.04678132e-01f,-3.73585299e-02f,-2.12375164e-01f,+2.89340436e-01f,
-2.46061072e-01f,-5.57691157e-01f,+4.52217907e-02f,+9.69067365e-02f,+2.02276632e-02f,
+6.92229867e-02f,+1.47501051e-01f,-6.26082644e-02f,+1.39012203e-01f,+7.59011209e-02f,
-2.10080385e-01f,-2.81479117e-02f,-1.31360874e-01f,-1.41703606e-01f,-1.13097817e-01f,
-2.46795993e-02f,-5.59214763e-02f,+1.21433221e-01f,+1.61481425e-02f,+2.62555838e-01f,
-6.68031216e-01f,+3.41949612e-02f,-3.34429853e-02f,+2.03021660e-01f,-2.17647685e-05f,
-7.91381121e-01f,+2.88969547e-01f,-2.08206177e-01f,+2.14284092e-01f,+5.36124766e-01f,
+2.04901531e-01f,-3.09705194e-02f,+2.89308310e-01f,-8.64421129e-02f,-2.01881975e-01f,
+8.41992944e-02f,-5.93364537e-01f,-8.00698176e-02f,+2.40317181e-01f,+2.01773524e-01f,
-7.20266774e-02f,+2.54651904e-01f,-3.14583153e-01f,+1.27338156e-01f,-1.50920853e-01f,
+5.03513105e-02f,+1.34768430e-02f,+1.42066516e-02f,-3.15975398e-02f,+9.61948931e-02f,
-1.82219833e-01f,-3.00590903e-01f,-3.14930342e-02f,+1.87001675e-01f,+5.34027927e-02f,
-7.64873773e-02f,-2.42177531e-01f,-2.79488992e-02f,+3.69813815e-02f,+8.28845277e-02f,
+1.05410829e-01f,+2.06917182e-01f,-1.06971167e-01f,+1.28232226e-01f,+1.16539365e-02f,
+1.28689975e-01f,+8.94194916e-02f,-2.12790623e-01f,+4.93840367e-01f,-3.58990848e-01f,
+1.33522870e-02f,-4.23305273e-01f,+1.15174979e-01f,+9.89337191e-02f,-5.46732545e-01f,
+1.76101208e-01f,-1.58288047e-01f,-1.81702301e-02f,+2.81432346e-02f,+1.90594703e-01f,
+5.89189269e-02f,+2.08256111e-01f,-4.81961183e-02f,+3.06728911e-02f,-8.06691200e-02f,
-5.80036566e-02f,-9.04331058e-02f,+1.10156216e-01f,+1.12397924e-01f,+3.04941759e-02f,
-2.13932116e-02f,-1.28174245e-01f,-6.61240995e-01f,-1.08913377e-01f,-4.02336270e-01f,
+1.13098487e-01f,-8.92591625e-02f,-4.87162322e-01f,-2.66007148e-02f,+1.52755037e-01f,
+4.13613021e-02f,+7.95859620e-02f,+1.06410392e-01f,-1.27190307e-01f,-1.51986629e-01f,
-2.50354409e-01f,-5.28973937e-01f,-4.99704741e-02f,+1.50624439e-01f,+5.31565119e-03f,
+1.01572990e-01f,-4.15219933e-01f,-1.64451912e-01f,-1.88610360e-01f,+2.79063880e-01f,
-2.60702968e-01f,-3.97155732e-01f,+1.01532966e-01f,-4.72695604e-02f,-1.62859082e-01f,
-5.96479297e-01f,+1.93397626e-01f,+6.39329329e-02f,+1.18037812e-01f,-1.03450581e-01f,
+1.69841155e-01f,-6.20165793e-03f,+3.07109147e-01f,-6.24611676e-02f,+1.56385526e-01f,
+2.82196522e-01f,+9.10613239e-02f,-1.60026088e-01f,-1.78686216e-01f,-8.45770389e-02f,
+2.32612789e-02f,-1.65013701e-01f,-2.15070978e-01f,+2.96489596e-01f,-5.32202542e-01f,
+6.11675344e-02f,+1.52543709e-01f,-1.53470514e-02f,-1.05528817e-01f,-5.13426006e-01f,
-7.25004002e-02f,+1.55157313e-01f,-1.70816872e-02f,-1.21135227e-02f,+5.41815115e-03f,
-1.00278556e-01f,-9.07533020e-02f,-5.87334335e-02f,-2.61033475e-02f,-2.15691924e-01f,
+1.81903198e-01f,+3.28473449e-01f,-1.90528706e-01f,+7.06349984e-02f,+1.40046448e-01f,
+9.18644071e-02f,-1.76119238e-01f,-4.49856445e-02f,-4.18096706e-02f,-1.49425417e-01f,
-8.07750151e-02f,-7.63417110e-02f,+1.90495014e-01f,-2.44042929e-02f,+1.75643578e-01f,
-1.12686522e-01f,-3.50912124e-01f,-1.16890453e-01f,+2.43923172e-01f,+1.05251163e-01f,
-4.43650663e-01f,-1.87730342e-01f,+1.74940497e-01f,-1.64777175e-01f,-1.76549822e-01f,
+6.20420650e-02f,+4.88445908e-02f,-2.88663536e-01f,+4.27659824e-02f,-2.66266584e-01f,
+1.77224994e-01f,+1.24270648e-01f,+2.35545918e-01f,+3.92474644e-02f,+1.58988148e-01f,
+1.56370848e-01f,-1.04661368e-01f,-6.72625378e-02f,-2.41662279e-01f,-3.97825651e-02f,
+6.28527552e-02f,+2.29071543e-01f,+2.31951848e-03f,+1.86470002e-01f,-2.94594765e-01f,
+1.24257766e-02f,-1.78861320e-01f,+1.99251711e-01f,+9.37075317e-02f,-7.95124829e-01f,
-2.09344223e-01f,-3.14714819e-01f,+2.36168504e-01f,-3.07898922e-03f,+2.44407374e-02f,
-5.59959412e-02f,-8.73387381e-02f,-3.75019073e-01f,+1.27870053e-01f,+2.06820011e-01f,
-2.31879383e-01f,-3.38299945e-02f,-1.25176519e-01f,-8.34668055e-02f,-1.51108634e-02f,
+1.85584128e-01f,+1.90269455e-01f,+7.89055154e-02f,+1.01687737e-01f,+1.29914537e-01f,
-2.29516387e-01f,+6.88051730e-02f,-1.56885251e-01f,-1.24395387e-02f,+7.59622455e-02f,
+1.77149966e-01f,-1.77777424e-01f,-2.64404982e-01f,-1.94053367e-01f,-2.29225859e-01f,
+1.12249643e-01f,+1.89781994e-01f,+1.24684811e-01f,-2.62977909e-02f,+4.68035229e-02f,
-2.53225923e-01f,+5.85006364e-03f,+1.06837153e-01f,+2.95152329e-02f,-9.10086930e-02f,
-1.40195517e-02f,-7.32617974e-02f,-1.05333693e-01f,+4.64274585e-02f,-3.39568555e-01f,
+1.92553043e-01f,+9.34063271e-02f,+1.17535606e-01f,-1.97140932e-01f,-9.99463424e-02f,
-8.12206790e-02f,-2.37607673e-01f,+1.21469125e-01f,-2.44311672e-02f,+1.35658188e-02f,
+8.49119201e-02f,-9.03988928e-02f,-5.43857180e-02f,+2.04146922e-01f,+4.09652963e-02f,
-2.65073866e-01f,-9.65062156e-02f,-1.60796687e-01f,+7.45825619e-02f,+1.19927652e-01f,
+5.92860356e-02f,-7.51043260e-02f,+4.39549796e-02f,-3.00295325e-03f,-6.22256577e-01f,
-3.61837953e-01f,+3.58867496e-01f,-2.06460319e-02f,+3.67288023e-01f,-2.68293828e-01f,
+1.51108041e-01f,+1.33075818e-01f,+1.85716860e-02f,+8.87639523e-02f,+6.10249937e-02f,
+1.24052018e-01f,+5.63678853e-02f,-4.80771326e-02f,-1.36947408e-01f,+1.95029587e-01f,
-1.87034756e-02f,+2.13057786e-01f,+4.66665141e-02f,-1.56466931e-01f,+1.57936901e-01f,
+4.05475408e-01f,-1.12794422e-01f,+1.26869395e-01f,-2.03801751e-01f,+1.35050058e-01f,
-2.54086077e-01f,+1.20221518e-01f,+1.94612354e-01f,+2.16215611e-01f,-2.61776477e-01f,
-1.88371599e-01f,-4.88794222e-02f,+8.50382522e-02f,-1.59614831e-01f,+3.46668720e-01f,
+1.88150555e-01f,-2.48409227e-01f,+1.60982251e-01f,+2.35948078e-02f,+1.26663357e-01f,
+5.83267137e-02f,+4.49203625e-02f,+1.17249787e-02f,+6.58874363e-02f,-2.03508455e-02f,
+2.79522687e-02f,+1.10012740e-01f,+2.09348053e-01f,-6.60572499e-02f,-2.27534398e-01f,
+1.79681674e-01f,+2.13323429e-01f,+5.21954417e-01f,+1.24598391e-01f,+2.76544511e-01f,
+1.53784394e-01f,-1.41312361e-01f,+7.53164217e-02f,+1.05899028e-01f,+3.16554159e-01f,
+8.56756568e-02f,+1.39417231e-01f,+1.98951051e-01f,+6.31476492e-02f,-1.41886286e-02f,
+5.70529997e-02f,-6.67587519e-02f,+1.23358890e-01f,+2.87053764e-01f,-3.57371181e-01f,
-1.23516031e-01f,-2.32938051e-01f,+9.20433253e-02f,-4.54928614e-02f,-1.04465298e-01f,
-1.01293035e-01f,-6.01581894e-02f,-7.83474147e-02f,+2.17563137e-01f,+7.08408281e-02f,
+1.61743730e-01f,+2.27133036e-01f,+2.14132652e-01f,-4.50961366e-02f,-1.13309072e-02f,
+9.94145945e-02f,-1.65371574e-03f,-1.44880682e-01f,-6.70849383e-02f,+1.99385718e-01f,
+1.12560272e-01f,+1.67204008e-01f,+1.36975851e-02f,+2.52157062e-01f,+1.76052004e-02f,
+1.65006727e-01f,+1.14430115e-01f,+1.97732583e-01f,-1.17866851e-01f,+2.09915265e-01f,
+8.33237469e-02f,+1.62047774e-01f,-1.00389719e-02f,+2.81191260e-01f,+3.01989773e-03f,
+1.37739107e-01f,-1.02494210e-01f,+1.08169921e-01f,-5.39964795e-01f,-2.39144176e-01f,
+6.55538514e-02f,+1.40445203e-01f,-3.18907648e-02f,+1.33177675e-02f,-7.14336634e-02f,
+1.27199695e-01f,+3.66652980e-02f,+1.21939508e-02f,-1.25910133e-01f,+1.77285343e-01f,
-5.04276864e-02f,-3.05288881e-01f,+3.51509869e-01f,-2.23438099e-01f,+1.05169654e-01f,
+1.18363313e-01f,-1.75494980e-02f,+4.83109206e-02f,-7.45818242e-02f,+2.28778869e-02f,
-1.23038419e-01f,-7.13944957e-02f,+1.29665107e-01f,+1.20457001e-01f,-7.22952932e-02f,
-9.63542238e-02f,-1.96528181e-01f,+1.02544583e-01f,-8.00590366e-02f,+5.45391487e-03f,
+5.79059720e-02f,-1.60539880e-01f,+1.95333019e-01f,-6.09275624e-02f,+2.07941696e-01f,
+8.10004249e-02f,-9.42386985e-02f,-8.77224326e-01f,-2.18716964e-01f,-1.00751348e-01f,
+6.34222524e-03f,-7.40606964e-01f,-4.46133316e-02f,+2.01260954e-01f,+6.83146641e-02f,
+8.24194774e-02f,-9.77775678e-02f,-1.23067655e-01f,-1.19502649e-01f,-3.46963882e-01f,
+3.02450731e-02f,+7.04099759e-02f,+1.94757506e-02f,-1.25257003e+00f,-7.62631744e-02f,
-9.81892925e-03f,-1.83642402e-01f,-3.05547178e-01f,-1.04804873e-01f,+1.26382440e-01f,
-1.90400720e-01f,-9.55880210e-02f,-5.10278463e-01f,+1.95391290e-02f,+1.60014033e-01f,
+2.18833033e-02f,-4.34567444e-02f,-7.16110915e-02f,+3.68767567e-02f,-1.62468836e-01f,
-9.34019208e-01f,-1.08996637e-01f,-9.93849874e-01f,-6.53121900e-03f,-1.06919497e-01f,
+8.19115788e-02f,+1.04241148e-01f,+3.96982729e-01f,+2.15353016e-02f,-2.09232584e-01f,
+7.11171925e-02f,-6.89182207e-02f,-2.28973627e-02f,-2.32263103e-01f,+4.74733766e-03f,
-2.85058152e-02f,+2.50296853e-02f,+1.01582031e-04f,-1.37563616e-01f,+9.15763080e-02f,
-2.17277512e-01f,+8.93609300e-02f,-6.89541474e-02f,-1.93935677e-01f,-6.37420313e-03f,
+1.67863160e-01f,-1.18587479e-01f,-1.85367659e-01f,-3.41260582e-02f,+2.55389243e-01f,
+3.49229313e-02f,+2.95101196e-01f,+1.24810584e-01f,+1.29904300e-01f,-1.69500113e-01f,
-8.15717354e-02f,+8.27784017e-02f,-6.19881041e-02f,+6.47395998e-02f,+1.14099860e-01f,
+2.59809524e-01f,-4.27089781e-02f,+2.00245097e-01f,+1.52529702e-01f,-4.04625863e-01f,
-4.52502370e-01f,-2.22260952e-02f,+1.10151768e-01f,-1.63182855e-01f,-4.53384407e-02f,
+3.81309360e-01f,-8.50134566e-02f,+3.71841453e-02f,+5.09701520e-02f,+2.70154864e-01f,
-5.15768155e-02f,+2.56917458e-02f,+9.55894124e-03f,-2.71405876e-01f,-7.82728046e-02f,
-3.77604157e-01f,+1.95155870e-02f,-1.30195573e-01f,+4.46490087e-02f,+4.71892133e-02f,
-1.73007429e-01f,-3.56465161e-01f,+3.29748660e-01f,-7.74641037e-02f,+5.67475855e-01f,
+5.73043860e-02f,+8.21336135e-02f,-3.11849862e-01f,+3.43043543e-02f,-2.13276711e-03f,
-1.32911116e-01f,-5.76974452e-02f,+1.28020095e-02f,+1.47375613e-01f,+1.12935780e-02f,
+9.07536224e-02f,-4.97083832e-03f,-6.00714050e-02f,+1.72695532e-01f,+1.06115855e-01f,
+7.02510327e-02f,-3.15988898e-01f,+4.13567340e-03f,+6.43961802e-02f,+2.34920308e-01f,
+7.02608004e-02f,+2.21267678e-02f,+1.58830494e-01f,+4.11268920e-02f,-1.11727558e-01f,
-3.30237836e-01f,+2.55020093e-02f,+7.48875216e-02f,-7.13865981e-02f,-2.42417548e-02f,
-2.83513844e-01f,+3.21486264e-01f,-2.53543288e-01f,-3.05682085e-02f,+7.45323375e-02f,
+1.59295157e-01f,-9.82847214e-02f,-1.24015525e-01f,-8.31500292e-01f,+2.34740794e-01f,
+1.12034179e-01f,-8.38421285e-02f,-2.29498833e-01f,-6.16480075e-02f,+3.92579660e-02f,
-3.02210590e-03f,+4.05592360e-02f,+5.88982068e-02f,-2.35344797e-01f,+5.42760380e-02f,
-2.44891793e-02f,+8.36658254e-02f,+8.59531462e-02f,+4.51832592e-01f,+4.74888943e-02f,
-2.99238842e-02f,-8.96731671e-03f,+7.26010129e-02f,-4.75778095e-02f,+1.93889607e-02f,
+1.61458731e-01f,-1.35814608e-03f,+8.90753940e-02f,+3.25524151e-01f,-6.42350502e-03f,
-2.48881858e-02f,+1.74886227e-01f,-7.33162835e-02f,-2.41214126e-01f,+5.24088554e-02f,
+2.23902147e-02f,-2.51586735e-01f,-2.02339455e-01f,+4.78680395e-02f,-2.92714000e-01f,
-4.72844541e-02f,-1.70127720e-01f,-9.36585944e-03f,-3.41910064e-01f,+3.08492094e-01f,
+1.56395100e-02f,-1.15935877e-01f,-5.82369454e-02f,-7.74238259e-02f,-5.40289208e-02f,
-1.20119676e-02f,+1.22641638e-01f,-6.42546192e-02f,-2.73559809e-01f,-1.70587115e-02f,
+8.04788470e-02f,-7.95763582e-02f,-5.07945307e-02f,+2.97336765e-02f,+9.27165151e-02f,
-4.15330045e-02f,+6.80782378e-01f,-1.26702800e-01f,-2.89653689e-01f,+2.14860756e-02f,
-9.84205231e-02f,+7.88789093e-02f,-1.83811247e-01f,-4.31236625e-02f,+1.33909926e-01f,
+7.34357685e-02f,-1.19582966e-01f,+4.87321503e-02f,-7.57092983e-02f,-3.31388354e-01f,
+2.17637215e-02f,+2.22859681e-01f,-1.00954317e-01f,-5.00974655e-02f,+1.72164273e-02f,
+4.87750053e-01f,+8.92509595e-02f,+1.12191051e-01f,+5.22960760e-02f,+6.12522587e-02f,
+2.97665894e-01f,-1.05959423e-01f,+1.73643734e-02f,+5.56925051e-02f,+1.77438974e-01f,
-6.56608073e-03f,+8.82304274e-03f,+5.92091046e-02f,-9.77986157e-02f,+1.04731359e-01f,
+4.05718014e-03f,-2.52607316e-01f,-1.54502839e-01f,+2.95467257e-01f,-1.44366473e-01f,
-8.91522989e-02f,+7.82380477e-02f,+1.15446374e-01f,+4.58250016e-01f,+1.16224013e-01f,
-2.87774839e-02f,-3.74226302e-01f,+2.49380931e-01f,+8.23028665e-03f,+6.51818002e-03f,
-1.04740039e-02f,+3.62079404e-02f,-2.99197137e-01f,+6.02937862e-02f,+1.33750420e-02f,
-5.88586964e-02f,+1.70542493e-01f,+2.74362981e-01f,+1.10379696e-01f,-1.22472487e-01f,
+1.54699653e-01f,-3.27419341e-02f,-8.60017687e-02f,-9.39248577e-02f,+9.88568515e-02f,
+2.39282563e-01f,+8.51039663e-02f,+1.11494586e-01f,-3.32484156e-01f,+3.28810424e-01f,
+8.51075873e-02f,+8.47163722e-02f,+2.74559227e-03f,-9.50971395e-02f,-6.22359067e-02f,
-6.05378591e-04f,+3.86162922e-02f,+6.17322885e-03f,-2.98741519e-01f,-9.60620269e-02f,
+1.16583452e-01f,-1.82525843e-01f,+1.14609271e-01f,+3.39479074e-02f,-1.52854860e-01f,
+1.99292406e-01f,-6.84337258e-01f,-6.81414679e-02f,-5.90868220e-02f,-1.36111602e-01f,
+5.95456883e-02f,+3.02829832e-01f,-9.78718549e-02f,+1.91485379e-02f,-5.73283210e-02f,
+5.87022118e-02f,+1.82377875e-01f,+5.95559776e-02f,+2.83184439e-01f,+2.21547019e-02f,
-9.19419751e-02f,+6.17256165e-02f,+3.35120797e-01f,-1.61979664e-02f,+1.84756562e-01f,
-9.10136253e-02f,-3.09583157e-01f,-2.69785404e-01f,-1.78612739e-01f,+1.14113361e-01f,
-2.74410665e-01f,-3.13129783e-01f,-2.67642319e-01f,+3.46455462e-02f,-1.26145765e-01f,
+1.38624310e-01f,-6.37546554e-02f,+6.26733676e-02f,-2.58074924e-02f,+1.69714645e-01f,
-5.47293620e-03f,+9.39917043e-02f,+5.63611910e-02f,-3.45387489e-01f,-7.03590810e-01f,
+6.72467127e-02f,-5.43089323e-02f,-1.76426657e-02f,+2.06713334e-01f,-3.72862041e-01f,
-3.51476446e-02f,-3.73263180e-01f,-1.21550560e-01f,+3.09545454e-02f,+9.15946588e-02f,
+8.77278075e-02f,+1.58684645e-02f,-3.37851495e-02f,-7.61706522e-03f,-4.42438833e-02f,
-6.50102049e-02f,+1.09385878e-01f,+6.26776367e-02f,-9.04538631e-02f,+3.16150784e-02f,
-6.86449409e-02f,-2.10581928e-01f,-3.29801850e-02f,+8.50646645e-02f,+2.14407388e-02f,
+4.44967225e-02f,+3.75661850e-02f,+1.81623287e-02f,-7.56020248e-02f,-1.11850742e-02f,
+2.13153347e-01f,-2.83700023e-02f,-1.94914907e-01f,-1.51953083e-02f,-5.13466485e-02f,
+1.17520623e-01f,-1.21870041e-01f,-3.79636586e-01f,+1.57478541e-01f,-1.18690573e-01f,
-4.69079837e-02f,+2.84639560e-03f,+6.35222569e-02f,+1.17906161e-01f,+1.75439715e-01f,
+2.81836301e-01f,+5.41380160e-02f,-9.11284015e-02f,+8.31916630e-02f,+3.33251618e-02f,
+6.99483827e-02f,+8.61398038e-03f,+1.50118917e-01f,+9.46736149e-03f,+2.19707310e-01f,
-4.42838632e-02f,+2.07564712e-01f,+4.48017307e-02f,+1.46148533e-01f,-2.83798784e-01f,
-1.41236223e-02f,-8.31308663e-02f,-2.19876356e-02f,+1.31457508e-01f,+3.16250294e-01f,
-2.43528947e-01f,+1.31132249e-02f,-2.56760061e-01f,+4.26332280e-02f,-3.05724531e-01f,
-4.58810367e-02f,-2.67272472e-01f,+8.10517445e-02f,-1.71735510e-01f,-1.86322182e-02f,
+4.24696021e-02f,-1.18597798e-01f,-2.39219353e-01f,-5.61940558e-02f,+2.84753442e-02f,
-2.09469706e-01f,-1.57696232e-01f,-3.00109163e-02f,-1.11815959e-01f,-3.33454856e-03f,
-1.49910329e-02f,-6.77470505e-01f,-2.35752702e-01f,+2.30841026e-01f,-9.04126465e-02f,
+5.70227392e-02f,-5.24375215e-02f,+2.47333422e-01f,+2.04342660e-02f,+9.32968482e-02f,
-1.14969122e+00f,-4.86217141e-02f,+6.83126301e-02f,-5.27742244e-02f,+1.19708534e-02f,
+1.72568455e-01f,+1.49301961e-01f,+1.50615916e-01f,+1.56743824e-01f,+5.04086688e-02f,
-3.21500927e-01f,+2.40886420e-01f,-5.47253489e-01f,-2.96285339e-02f,+1.08278386e-01f,
+6.71315119e-02f,+2.20340267e-01f,-7.47210812e-03f,-4.13593389e-02f,-1.40673965e-01f,
+1.23635553e-01f,-2.09666774e-01f,+8.36368427e-02f,-1.18119553e-01f,+1.46847174e-01f,
+1.38909683e-01f,-2.31796831e-01f,+4.40734103e-02f,+2.42719337e-01f,-2.50315070e-02f,
+7.65176862e-02f,+6.91237152e-02f,-4.66236658e-02f,+1.02501124e-01f,-1.36647597e-02f,
+1.10062368e-01f,-2.18754485e-01f,-7.67739713e-02f,-4.79861395e-03f,+1.86966956e-01f,
-9.43988189e-02f,-2.54084438e-01f,-1.41990921e-02f,+5.98794371e-02f,-3.22960079e-01f,
+6.22427464e-01f,+1.70579366e-03f,-1.56752661e-01f,+1.47526676e-03f,-3.90523747e-02f,
+5.42655587e-02f,+8.26486528e-01f,+2.80115157e-01f,+7.27602020e-02f,-1.91168487e-01f,
-6.90075085e-02f,+1.91280678e-01f,+7.37564042e-02f,+8.84950981e-02f,+2.33305186e-01f,
-7.35214651e-02f,-4.66557592e-02f,-5.14962710e-02f,+1.52675718e-01f,-4.86816376e-01f,
+2.18717195e-02f,+1.64919943e-01f,+5.93772531e-02f,-5.19621074e-02f,-1.00636240e-02f,
-2.30918035e-01f,+6.90330029e-01f,+1.31213993e-01f,-6.42433241e-02f,+1.62459314e-01f,
-8.21264312e-02f,+8.57306942e-02f,+3.05657908e-02f,+6.67698681e-02f,+5.14104888e-02f,
-6.07475713e-02f,+6.06561482e-01f,+2.54654020e-01f,+2.48014070e-02f,+1.35670468e-01f,
+6.11434132e-02f,+2.57687904e-02f,-8.51976126e-02f,-2.14154184e-01f,+8.76658633e-02f,
+9.98841450e-02f,-2.37124730e-02f,-2.24654730e-02f,+3.34245533e-01f,-2.93085240e-02f,
+1.36927729e-02f,+7.37370774e-02f,-1.36568323e-01f,+2.54891068e-02f,-1.06638698e-02f,
+1.58500209e-01f,+8.53805616e-02f,-2.00418048e-02f,-8.43262151e-02f,-4.78316508e-02f,
-1.59587920e-01f,-3.37561011e-01f,-1.62356228e-01f,+7.81115144e-02f,+1.00085095e-01f,
+3.44858654e-02f,-2.52132654e-01f,+1.32200584e-01f,-2.24206690e-02f,-3.15391034e-01f,
+1.70154244e-01f,-6.06321031e-03f,-4.64978404e-02f,+1.69482946e-01f,+1.63368225e-01f,
+1.24988362e-01f,+1.94853485e-01f,+3.55590075e-01f,+3.26832905e-02f,+1.50163904e-01f,
-7.32243247e-03f,+2.61549354e-01f,-2.15587571e-01f,+3.65024544e-02f,+4.77757603e-02f,
-2.23285913e-01f,+1.09038576e-02f,-7.43882870e-03f,-2.40894899e-01f,-4.61596340e-01f,
-5.28381690e-02f,+5.23955859e-02f,-2.62885839e-01f,-8.30897782e-03f,-1.28823938e-02f,
-2.69657433e-01f,-6.14925086e-01f,-1.12810932e-01f,+1.03141151e-01f,-1.07819155e-01f,
-1.03621237e-01f,-1.35567799e-01f,-4.10696268e-01f,-1.20583393e-01f,-9.53156203e-02f,
-1.79143958e-02f,-1.50390208e-01f,+2.76075363e-01f,+4.40723151e-02f,-1.05271488e-01f,
+1.44456644e-02f,-1.55991778e-01f,-9.31371570e-01f,-2.10580930e-01f,+1.74040962e-02f,
+5.49512319e-02f,+2.41516810e-02f,+6.20575212e-02f,+1.00343749e-01f,-9.19119120e-02f,
-6.82948083e-02f,+1.93499878e-01f,-3.31041008e-01f,-1.44117236e-01f,+5.41066332e-03f,
+3.27696651e-01f,-3.18188250e-01f,-9.56052318e-02f,+2.34814733e-02f,+7.48132169e-02f,
-5.02360582e-01f,-1.29398093e-01f,-2.27288932e-01f,-5.52152455e-01f,+2.98705115e-03f,
+9.76802856e-02f,-3.12635414e-02f,-3.60524058e-02f,-2.31493972e-02f,+3.06327969e-01f,
-1.38454614e-02f,+1.41415894e-01f,+8.32586363e-02f,-2.25852639e-03f,+9.83082950e-02f,
-1.43617734e-01f,+1.91052601e-01f,-1.04811162e-01f,+1.11043319e-01f,-2.31827144e-02f,
-1.79621968e-02f,+1.34099707e-01f,+1.57136917e-01f,-1.95129178e-02f,-2.16305405e-01f,
-2.11702613e-03f,+2.90812757e-02f,+9.44212154e-02f,+9.21717510e-02f,-1.25980452e-01f,
-1.27152637e-01f,+4.00358774e-02f,+2.35963434e-01f,+7.18141273e-02f,+1.21508367e-01f,
+1.15335144e-01f,-9.00681131e-03f,-2.15261132e-02f,-4.30389345e-02f,+2.88557224e-02f,
-6.33398220e-02f,+1.77123860e-01f,-1.10960856e-01f,-1.27750605e-01f,+7.76587650e-02f,
+2.76063452e-03f,+5.65493584e-01f,-3.27878213e-03f,+1.13081232e-01f,-2.77987599e-01f,
+1.53977349e-01f,+1.44149482e-01f,-2.75313139e-01f,+6.63161725e-02f,+8.65465850e-02f,
+9.79170203e-02f,+3.79987955e-02f,-7.79028758e-02f,-6.12224787e-02f,+7.24144757e-01f,
-2.47966051e-01f,-2.48476751e-02f,-7.78782368e-02f,-5.02742790e-02f,-2.43200168e-01f,
-4.35862571e-01f,+6.04714528e-02f,+7.08220899e-01f,+4.40088324e-02f,-1.07302345e-01f,
-2.89172065e-02f,-1.26496285e-01f,+1.59173887e-02f,+3.92575860e-01f,+7.00510740e-02f,
+2.47017622e-01f,-7.15102851e-02f,-7.43051767e-02f,-1.53283939e-01f,-1.23894073e-01f,
+6.86639324e-02f,-1.48803324e-01f,-2.27127150e-01f,-8.62849802e-02f,-3.30843925e-01f,
+1.81409016e-01f,+1.23989396e-02f,+1.85157557e-03f,-3.73498388e-02f,-2.13865519e-01f,
+1.08933114e-02f,-4.29456607e-02f,+7.68702999e-02f,+1.76857989e-02f,-2.57234305e-01f,
+6.35603741e-02f,-9.62981395e-03f,-6.07730523e-02f,+5.50185814e-02f,-6.82659224e-02f,
+9.68673170e-01f,-2.04523548e-01f,+6.25856919e-03f,+3.20138177e-04f,+1.23913065e-01f,
+4.90325987e-02f,-2.15224493e-02f,-1.28504843e-03f,+2.94536859e-01f,-2.57443935e-01f,
-7.22986385e-02f,-7.67805502e-02f,+9.89600942e-02f,+4.57499102e-02f,+9.33201760e-02f,
-1.57357663e-01f,-7.43202716e-02f,+1.29662141e-01f,+1.66640151e-02f,+4.68712747e-02f,
-5.76440543e-02f,-7.79351825e-03f,+3.10829245e-02f,-6.15167767e-02f,-3.06647629e-01f,
+8.94234031e-02f,+5.45536578e-01f,-3.78084213e-01f,-1.46947965e-01f,-1.72682375e-01f,
-1.43875787e-03f,+1.74405739e-01f,+1.19913228e-01f,-4.42401886e-01f,-6.33231342e-01f,
-9.46206525e-02f,+1.04364073e-02f,+1.68425068e-01f,-1.82319004e-02f,-5.09079136e-02f,
+6.79303184e-02f,-6.30354434e-02f,+7.38951027e-01f,-1.11016771e-02f,+9.82417539e-02f,
-1.13901131e-01f,-6.42569438e-02f,+1.31765097e-01f,-4.80492890e-01f,+1.20284893e-01f,
-5.23126274e-02f,+1.25628218e-01f,+2.19967589e-02f,-6.43974096e-02f,+9.75744203e-02f,
+4.24481422e-01f,-1.59605518e-01f,-1.10636584e-01f,-1.26068518e-02f,-2.83074975e-02f,
-4.97325063e-01f,-6.66711628e-02f,+2.24738911e-01f,+7.81234801e-01f,+1.30200073e-01f,
-1.24609880e-01f,-1.62122279e-01f,-7.90582225e-02f,-1.40072227e-01f,-2.18025103e-01f,
+1.77164748e-01f,+6.99469507e-01f,+5.42542152e-02f,-1.13634475e-01f,-2.64451593e-01f,
+1.05503023e-01f,+9.32893306e-02f,-1.87774822e-01f,-2.52686352e-01f,-1.96622871e-02f,
+7.13034123e-02f,+1.33867472e-01f,+4.24935445e-02f,-8.58123899e-02f,-4.04920876e-02f,
+2.41090376e-02f,-1.73350014e-02f,-2.51776218e-01f,+1.40840843e-01f,+1.05959423e-01f,
-9.89047214e-02f,+1.05579719e-01f,-6.41348213e-02f,+9.15021896e-02f,+9.99093987e-03f,
-2.31998172e-02f,+5.87938964e-01f,-2.61895150e-01f,+3.93689200e-02f,+2.54335739e-02f,
+2.77743600e-02f,+5.22305183e-02f,+1.95007429e-01f,+1.19545594e-01f,+1.29696399e-01f,
-8.16122741e-02f,+1.62335932e-02f,-2.69119292e-02f,+2.42246360e-01f,+3.10039353e-02f,
+1.27689362e-01f,+1.23956660e-03f,-1.20131262e-01f,+1.39667431e-03f,+1.61563214e-02f,
+3.89522985e-02f,+5.98115958e-02f,-8.89212713e-02f,-2.88073383e-02f,-6.62686750e-02f,
-3.15550834e-01f,+4.74930964e-02f,+5.42848706e-01f,-5.69882989e-02f,-4.11463678e-02f,
-5.04226014e-02f,+5.05167469e-02f,+1.87151402e-01f,+2.07924545e-01f,-1.16806054e+00f,
-4.26612347e-01f,+7.97650665e-02f,-3.98511551e-02f,-3.77632752e-02f,-6.15470149e-02f,
+1.78285912e-02f,+4.12609614e-02f,-7.14099631e-02f,+2.29761805e-02f,-1.20779760e-01f,
+3.44475172e-02f,-1.29842877e-01f,-3.14836353e-01f,+1.85169339e-01f,+2.23033950e-01f,
-3.25353950e-01f,+7.85298296e-04f,+7.52300918e-02f,+2.05038544e-02f,+2.12623235e-02f,
-2.22190931e-01f,+7.54415393e-02f,-8.66965503e-02f,-3.76268178e-02f,+2.72707313e-01f,
+1.09648794e-01f,-2.68401474e-01f,-1.31712645e-01f,-2.65318245e-01f,+1.31172523e-01f,
+2.84739614e-01f,+1.10328048e-01f,-5.01053855e-02f,+1.97886989e-01f,+1.59480085e-03f,
-3.89956027e-01f,-6.90521970e-02f,+9.16774869e-02f,+2.95994550e-01f,+3.40774022e-02f,
+2.16375962e-02f,+1.06204376e-01f,+2.82175355e-02f,+2.85914689e-01f,+1.61765497e-02f,
+1.65421680e-01f,+6.11488800e-03f,+7.67876357e-02f,+4.49229702e-02f,+2.51620531e-01f,
+5.69011085e-02f,+3.21551204e-01f,+2.05269843e-01f,-1.14718646e-01f,+7.15937540e-02f,
+1.19092658e-01f,+1.72550887e-01f,+1.80459872e-01f,-1.10585190e-01f,+6.01666048e-02f,
+3.78375575e-02f,+3.50437224e-01f,-3.94915715e-02f,+1.65783092e-01f,-3.80829610e-02f,
-3.02174892e-02f,+1.64221942e-01f,+1.11066354e-02f,+1.96421053e-02f,-2.25564707e-02f,
-3.10434327e-02f,-1.53935030e-01f,+6.84472993e-02f,+1.54672816e-01f,+3.99232432e-02f,
+3.15616876e-02f,+7.93335676e-01f,+4.97375317e-02f,-1.83134004e-01f,+8.95606801e-02f,
-5.63154295e-02f,+1.85559198e-01f,+5.04000261e-02f,+3.58343869e-01f,-3.96466881e-01f,
-3.57260317e-01f,-3.68420660e-01f,+5.10186493e-01f,+2.10442357e-02f,+2.91714370e-01f,
-1.79610953e-01f,+1.61425650e-01f,-2.59562403e-01f,-5.45350090e-02f,+2.42278308e-01f,
-7.93434009e-02f,+1.70944303e-01f,-9.30848867e-02f,-2.61291824e-02f,+1.50997769e-02f,
-1.27689362e-01f,+1.33234477e-02f,+1.06220119e-01f,+1.06712446e-01f,-2.29363769e-01f,
-4.23785532e-03f,+1.29934356e-01f,+9.69469771e-02f,+2.68868506e-01f,-5.33280149e-03f,
+1.91531986e-01f,-3.10015790e-02f,-1.14986964e-01f,-2.23796200e-02f,+2.06580028e-01f,
+4.39150073e-02f,+1.63369328e-01f,-1.26888737e-01f,-1.33218110e-01f,-7.90306716e-04f,
-2.52763599e-01f,+1.68167084e-01f,+2.19815429e-02f,-1.55973941e-01f,-1.29904017e-01f,
+8.74049310e-03f,-1.30152807e-01f,-1.39399350e-01f,-8.94423947e-02f,+7.15870857e-02f,
+2.88768671e-02f,-2.23689571e-01f,-1.22596741e-01f,+3.24419029e-02f,+8.69650915e-02f,
+1.22199245e-01f,-4.19168209e-04f,-3.97337042e-02f,+6.45349324e-02f,+1.92905232e-01f,
-3.86807732e-02f,-9.71335173e-02f,+9.96559188e-02f,+1.15318626e-01f,+8.96128491e-02f,
+1.67901427e-01f,-2.17162803e-01f,+1.14074565e-01f,-4.77053225e-02f,-4.98076305e-02f,
+4.18814458e-02f,+1.15522288e-01f,+2.20770642e-01f,+1.68232441e-01f,-1.45565078e-01f,
+1.42471341e-03f,-3.09006453e-01f,+5.64265072e-01f,-8.67992416e-02f,+2.09257483e-01f,
-2.09492460e-01f,-1.20836683e-01f,-1.15595385e-02f,+5.01890806e-03f,-5.71870729e-02f,
-5.83789311e-02f,+3.53597760e-01f,-7.17733651e-02f,+6.90745488e-02f,+6.92300871e-02f,
+8.46128389e-02f,+1.22483581e-01f,-6.61625294e-03f,-3.83101813e-02f,+6.23331591e-02f,
+8.52989554e-02f,+2.53826380e-02f,-1.49873691e-02f,-2.04897542e-02f,+6.34988323e-02f,
-3.44783723e-01f,+1.13711096e-01f,-1.06148399e-01f,+2.27783889e-01f,+2.11408392e-01f,
-1.04463682e-01f,-9.86568928e-02f,+1.12278201e-01f,+4.65351641e-01f,-4.68346924e-02f,
+1.56664178e-01f,-1.21609047e-02f,-4.43877727e-02f,-1.89711735e-01f,-2.33935148e-01f,
-3.32908705e-03f,-1.75585374e-01f,+8.69391859e-02f,+2.68827286e-02f,+4.47684564e-02f,
-1.56967089e-01f,+2.51960278e-01f,+1.90535262e-02f,+1.01579994e-01f,+1.37345165e-01f,
+7.90046901e-02f,+6.07832186e-02f,+8.28935802e-02f,+9.55882147e-02f,-7.41837263e-01f,
+9.19744819e-02f,+1.57786220e-01f,+1.54803678e-01f,-4.80536997e-01f,-3.94622773e-01f,
-3.99626680e-02f,-2.95126289e-01f,-1.34932637e-01f,-3.51098627e-02f,-2.93383092e-01f,
-2.18016446e-01f,+2.59661283e-02f,-2.36342847e-01f,-1.40532687e-01f,+7.06349239e-02f,
+3.31293046e-02f,+6.13313494e-03f,+7.00661168e-02f,+4.58877385e-02f,-1.23668546e-02f,
+5.85310487e-03f,-1.06525354e-01f,-6.76636174e-02f,+1.57660007e-01f,-9.49788913e-02f,
+2.94053584e-01f,+5.00270277e-02f,+3.36563617e-01f,+4.83196639e-02f,+4.23012488e-02f,
+4.37326692e-02f,-9.55267772e-02f,-4.69456553e-01f,-1.97966932e-03f,-1.23970576e-01f,
-2.17700347e-01f,+2.27965638e-01f,+1.48832649e-01f,+6.31768489e-03f,-1.58369377e-01f,
-7.66404867e-02f,+9.35402978e-03f,-6.39353916e-02f,+3.14875603e-01f,-2.71478176e-01f,
+2.15160146e-01f,-2.07571954e-01f,-6.53798431e-02f,-1.54631391e-01f,+8.48697647e-02f,
+9.59083438e-02f,-7.59713054e-02f,+6.75405860e-02f,-1.57712460e-01f,-2.00305670e-01f,
-1.45767435e-01f,+3.29511762e-01f,-5.44833280e-02f,+1.05339840e-01f,-1.02159858e-01f,
-1.11104816e-01f,+2.62934238e-01f,-1.19148709e-01f,-2.24498585e-01f,+1.42528445e-01f,
+5.05198896e-01f,-6.08864129e-02f,+8.13070014e-02f,+8.41044784e-02f,+1.47850916e-01f,
+1.43931448e-01f,-2.12063357e-01f,-1.12566330e-01f,-4.04219935e-03f,+1.91366062e-01f,
-9.88568142e-02f,-1.73426017e-01f,+2.87836958e-02f,+2.57145166e-02f,-2.57732272e-01f,
-4.54640985e-02f,+3.25394832e-02f,+1.00867495e-01f,-3.55068058e-01f,-7.01141357e-02f,
+9.05615762e-02f,-1.06673375e-01f,+7.22797513e-02f,+1.03476144e-01f,+6.44985959e-02f,
+9.76711214e-02f,+7.48999068e-04f,+1.88483879e-01f,-1.30920440e-01f,-1.29645407e-01f,
-1.53866515e-01f,+3.53457421e-01f,+1.92778334e-02f,-7.31907189e-02f,+3.94775234e-02f,
+5.67830540e-02f,-4.90368456e-02f,+1.71716124e-01f,+7.42223039e-02f,-6.27296511e-03f,
-1.91580839e-02f,+1.13070123e-01f,-1.06419265e-01f,+3.73696417e-01f,+4.27853912e-01f,
+3.52825582e-01f,+1.25862241e-01f,+2.81028915e-02f,-5.50813451e-02f,-5.92028610e-02f,
+1.50249735e-01f,-1.08770423e-01f,+3.89237888e-02f,-9.78702977e-02f,+9.83088277e-03f,
-3.33134048e-02f,-4.64053363e-01f,+1.18964612e-01f,+1.86247062e-02f,+1.87091067e-01f,
-1.65666118e-01f,-1.68088421e-01f,-2.87959725e-01f,+3.17601621e-01f,+6.59820810e-02f,
+1.19697146e-01f,-1.13987394e-01f,+1.92446653e-02f,+8.52901712e-02f,+8.50872621e-02f,
-5.34212776e-02f,-1.42993823e-01f,-1.13483325e-01f,+3.02580714e-01f,-1.13013452e-02f,
+2.09124386e-02f,+2.04450727e-01f,-1.80119589e-01f,-1.81528345e-01f,+1.47461340e-01f,
-4.78903532e-01f,-9.48837399e-02f,+5.53366058e-02f,+1.87874168e-01f,-8.01914409e-02f,
-2.74195289e-03f,+2.07758442e-01f,-1.39134284e-02f,+3.56276073e-02f,+3.62211652e-02f,
+3.35465446e-02f,-1.21420629e-01f,+2.06993714e-01f,-2.10482672e-01f,+6.63603237e-03f,
-4.63104136e-02f,-1.34256348e-01f,-2.81882316e-01f,-2.59145737e-01f,-7.92185366e-02f,
-1.37437269e-01f,+7.77439633e-03f,+8.04003403e-02f,-7.66302586e-01f,-5.51616102e-02f,
+3.17616239e-02f,-7.22137332e-01f,+7.60343522e-02f,+2.74451822e-02f,+1.25905052e-01f,
+3.03233236e-01f,+1.95841845e-02f,-1.26777180e-02f,+3.75419199e-01f,-6.35147393e-02f,
-2.40361005e-01f,+1.22198209e-01f,-1.76865816e-01f,+4.51425761e-02f,-3.82327065e-02f,
-8.52157623e-02f,-7.97925070e-02f,-2.69152880e-01f,-3.25509369e-01f,-4.71778326e-02f,
-1.51025504e-01f,-4.62306030e-02f,+6.96236491e-02f,-1.09773867e-01f,-2.05944955e-01f,
-1.82200432e-01f,-4.21496302e-01f,-4.36703861e-01f,-1.53452428e-02f,+2.31782272e-01f,
+6.66499138e-02f,-7.61707895e-04f,+2.81620532e-01f,+1.84622586e-01f,+7.02378526e-02f,
-6.80525042e-03f,-2.91571543e-02f,+1.04002669e-01f,-1.14399761e-01f,-1.20285742e-01f,
+1.68615784e-02f,-2.66312391e-01f,-1.95060432e-01f,-1.76158741e-01f,-8.12964141e-02f,
-2.00500175e-01f,+5.74720651e-02f,-2.54174590e-01f,-4.14079458e-01f,-1.16549537e-01f,
-1.63772658e-01f,+2.00886056e-01f,+5.82564026e-02f,-1.20148882e-01f,-6.04197942e-02f,
-3.87297906e-02f,-8.60075578e-02f,+1.21117020e-02f,+6.05623499e-02f,+1.46198884e-01f,
-2.15241820e-01f,+1.50513902e-01f,+9.96176079e-02f,-3.56598437e-01f,-4.56247687e-01f,
+3.57296705e-01f,-3.18835229e-01f,+2.26639286e-02f,-9.02452022e-02f,+2.81922579e-01f,
+2.56613374e-01f,-1.15357295e-01f,-8.83108377e-02f,+1.06445707e-01f,-7.89757967e-02f,
+1.90057643e-02f,+1.04056902e-01f,-9.51405056e-03f,-1.40737733e-02f,-2.98207253e-02f,
+2.14723006e-01f,-4.90530998e-01f,+2.18838766e-01f,+2.37299934e-01f,+1.54025450e-01f,
+1.89465493e-01f,-1.36518523e-01f,+3.62676471e-01f,-1.83666080e-01f,+4.49284256e-01f,
+2.01729551e-01f,+1.95474595e-01f,-8.77682567e-02f,+2.84267992e-01f,-1.20188877e-01f,
-6.41747952e-01f,-3.18332851e-01f,-2.48712767e-02f,+4.04132642e-02f,-8.09768587e-02f,
-2.36615837e-01f,-1.35304123e-01f,-5.83951585e-02f,+1.48901775e-01f,+1.75955743e-01f,
-2.35154822e-01f,+4.16572839e-02f,+3.70234810e-02f,-1.81057043e-02f,-3.92063223e-02f,
+7.00972304e-02f,+2.45543924e-04f,+6.03669584e-02f,-3.43142226e-02f,+5.97577430e-02f,
-3.23901862e-01f,-1.16200177e-02f,+4.34253179e-02f,+1.60969391e-01f,+4.69377749e-02f,
-3.17940831e-01f,-1.31467462e-01f,+1.02939747e-01f,-2.11957052e-01f,+7.38700747e-01f,
+7.57010281e-02f,-2.98875839e-01f,+2.97697596e-02f,-3.99266891e-02f,+1.27253145e-01f,
+8.36703718e-01f,+2.51672179e-01f,+2.91573610e-02f,-1.33813545e-01f,-1.40017718e-01f,
+2.22727299e-01f,+6.42869473e-02f,+3.98382097e-02f,+2.40035176e-01f,+1.57806352e-02f,
-2.05580577e-01f,+1.40353497e-02f,+9.37462524e-02f,-6.65673077e-01f,-3.44025642e-02f,
+2.27342285e-02f,+1.04635462e-01f,+5.85141331e-02f,-7.16189528e-03f,-1.47824258e-01f,
+6.07811093e-01f,+1.25300258e-01f,-1.55537531e-01f,+1.38881937e-01f,-4.51174751e-02f,
+1.21419072e-01f,+1.51374117e-01f,+6.88665062e-02f,+9.12551489e-03f,-3.56886834e-02f,
+5.84445775e-01f,+1.72987714e-01f,+2.72404104e-02f,+7.97481164e-02f,-4.43884060e-02f,
+9.32087936e-03f,-3.17050889e-02f,-1.08604997e-01f,+7.78994709e-02f,+8.13303292e-02f,
-4.02329788e-02f,+1.22872241e-01f,+1.92766786e-01f,-3.66402529e-02f,+8.53603929e-02f,
+1.27729669e-01f,-1.49095893e-01f,-6.21335208e-02f,+8.58552903e-02f,+4.70336340e-02f,
-5.12249023e-02f,+3.97913391e-03f,+9.16897506e-03f,+2.17426531e-02f,-2.72245169e-01f,
-1.98505282e-01f,-1.62018538e-01f,+8.77732038e-03f,+1.39585033e-01f,+9.61225778e-02f,
-2.22594500e-01f,+9.09955725e-02f,-8.53060111e-02f,-2.96124339e-01f,+1.46871641e-01f,
-4.64904355e-03f,-2.28475574e-02f,+2.30804369e-01f,+1.20306602e-02f,+7.32046589e-02f,
+2.59648800e-01f,-6.16509616e-02f,+4.21563424e-02f,-2.68747509e-01f,+5.55747822e-02f,
+1.86735354e-02f,-3.78755718e-01f,-1.79915413e-01f,-3.90725344e-01f,-9.52386186e-02f,
-6.68420643e-02f,+1.85890839e-01f,+1.33381173e-01f,+7.92880058e-02f,+3.89355533e-02f,
-2.01414805e-02f,+1.98425233e-01f,-2.39856541e-02f,-1.30438562e-02f,-7.85410404e-02f,
-6.13899492e-02f,+1.21483132e-01f,+1.49242254e-02f,+2.13279650e-01f,+2.34742090e-01f,
+5.24851047e-02f,-4.75126691e-02f,-2.88051248e-01f,-8.44906509e-01f,+3.96751463e-02f,
+7.60020241e-02f,+5.12985364e-02f,+1.60730511e-01f,+3.16874869e-02f,-3.16385329e-01f,
-1.04458086e-01f,+1.42168766e-02f,-1.24119473e+00f,-5.25246486e-02f,+1.01904050e-01f,
+1.60705343e-01f,-2.22575426e-01f,+1.33744965e-04f,-2.19931096e-01f,-3.73333953e-02f,
+1.85021028e-01f,-5.11358902e-02f,+7.53471777e-02f,+1.05901189e-01f,+3.20654362e-02f,
+2.19900161e-03f,-2.07578123e-01f,-4.99637946e-02f,-1.56717077e-01f,-2.88820621e-02f,
-1.76783781e-02f,-8.38981867e-02f,-1.06960878e-01f,-1.88611999e-01f,-1.62016116e-02f,
+1.07710205e-01f,-1.96946353e-01f,-2.79504597e-01f,-8.10998976e-02f,+7.33245313e-02f,
-2.87849337e-01f,-3.03148907e-02f,-2.10810587e-01f,+3.05368006e-01f,+3.28187197e-02f,
+1.56713054e-02f,-1.16070378e+00f,+2.05102563e-03f,+2.41065472e-01f,+1.11538626e-01f,
+7.41840824e-02f,-5.08305477e-03f,-8.26804191e-02f,-1.37586907e-01f,+3.77907902e-02f,
+3.28049473e-02f,-1.38119027e-01f,+2.57570297e-01f,-2.86498547e-01f,+1.53869063e-01f,
-2.83378270e-02f,-1.06047444e-01f,-2.02083699e-02f,-1.83361888e-01f,+1.05185562e-03f,
-6.75095439e-01f,+6.81628883e-02f,+2.61972606e-01f,+2.79308230e-01f,-2.32640281e-02f,
+1.33775368e-01f,-8.77124667e-02f,-1.42392844e-01f,-4.70379502e-01f,-5.36476076e-01f,
+8.86620507e-02f,-5.21758944e-02f,-2.32135385e-01f,-1.39711678e-01f,-1.61332086e-01f,
+6.14994280e-02f,+2.85489410e-02f,-4.25409497e-04f,-2.08393723e-01f,-6.45938441e-02f,
-2.17018090e-02f,+2.22917095e-01f,+8.02181438e-02f,-5.25085591e-02f,+8.04984272e-02f,
+5.74569665e-02f,-2.11088821e-01f,-4.95413095e-02f,+2.58389600e-02f,+4.06429827e-01f,
-1.73163824e-02f,+9.69628319e-02f,-4.50992472e-02f,-6.36128902e-01f,+3.31043124e-01f,
-3.73320431e-02f,+4.65995856e-02f,-6.87384307e-02f,-6.02321088e-01f,+1.16129732e-02f,
-3.68791930e-02f,+2.27438137e-01f,-1.79606646e-01f,-2.03353688e-02f,+1.49459904e-02f,
-1.23762647e-02f,-6.98320642e-02f,-8.38537365e-02f,+5.47491126e-02f,-3.84973735e-01f,
+4.14670855e-02f,+1.83927342e-01f,+4.53361981e-02f,+1.36802822e-01f,-1.23441242e-01f,
-7.08850205e-01f,-2.50731502e-02f,-4.68289368e-02f,-3.52675110e-01f,-4.14709777e-01f,
+6.49363175e-02f,+1.14946170e-02f,-3.10417503e-01f,+1.46054447e-01f,-5.18365838e-02f,
-8.24177265e-02f,-1.88502129e-02f,-1.19106078e+00f,-6.56630635e-01f,-2.30716974e-01f,
+9.35426950e-02f,+1.17562197e-01f,+6.93849847e-02f,-9.43049137e-03f,+2.31623407e-02f,
+1.63455725e-01f,-1.71975926e-01f,+1.36826038e-01f,-3.60926501e-02f,-2.15923369e-01f,
+1.29250273e-01f,+4.01142910e-02f,-2.21822307e-01f,+1.52814416e-02f,-2.61610955e-01f,
+1.92027874e-02f,+2.38838568e-01f,+9.06192437e-02f,-3.31725687e-01f,-5.44349015e-01f,
+2.73307264e-02f,-1.38341844e-01f,+9.36305523e-02f,-1.51612964e-02f,-8.67220044e-01f,
+1.97839275e-01f,-3.53938222e-01f,-9.48248729e-02f,-9.72212479e-02f,+2.00441986e-01f,
+6.06150292e-02f,+1.39441639e-01f,-1.52092846e-02f,-7.24919021e-01f,-2.71581560e-01f,
+2.44497657e-02f,+5.30735292e-02f,+5.94815910e-02f,-1.58574164e-01f,+1.79370835e-01f,
-1.09041430e-01f,+7.44015425e-02f,-1.11418471e-01f,-8.18958938e-01f,-1.10163026e-01f,
+4.51412126e-02f,-1.07662268e-01f,+1.26678636e-02f,-3.04625779e-01f,-6.50497852e-03f,
-1.92992613e-02f,-5.56438556e-03f,+1.64961308e-01f,-3.11198886e-02f,+2.26531506e-01f,
-1.27013221e-01f,-1.45571977e-01f,+9.22809988e-02f,+2.59300768e-01f,-1.36798844e-01f,
-3.68697159e-02f,-8.08604211e-02f,-7.58654028e-02f,+1.34659097e-01f,+7.76124820e-02f,
+6.15885593e-02f,-9.81317610e-02f,-2.32433707e-01f,+1.59086555e-01f,-6.94822595e-02f,
-1.86803062e-02f,-5.12091815e-01f,+9.47332289e-03f,-1.78179514e-04f,-5.85494637e-02f,
-4.88068303e-03f,+1.19632609e-01f,+6.70062676e-02f,+2.55689412e-01f,-7.80063868e-02f,
-3.86942416e-01f,+1.25217691e-01f,+1.68491509e-02f,+3.35909985e-02f,-1.95924431e-01f,
-4.59756367e-02f,-1.63194716e-01f,+1.75574291e-02f,-6.31417558e-02f,+1.08729623e-01f,
-1.57049093e-02f,+1.37584955e-01f,+1.08044229e-01f,-1.60364375e-01f,+4.92031965e-03f,
-4.20089364e-01f,+1.42644020e-02f,-8.99173506e-03f,-1.19220972e-01f,+4.04706262e-02f,
+9.85803381e-02f,+2.18472227e-01f,+2.68809982e-02f,-1.71720013e-01f,-8.13993216e-02f,
-1.01868197e-01f,+1.41698578e-02f,+3.59144181e-01f,+2.74541080e-02f,+4.45829853e-02f,
-3.31500888e-01f,+2.47737795e-01f,+9.81527343e-02f,-9.75834608e-01f,+9.03600752e-02f,
-2.29105167e-02f,-1.31444216e-01f,-1.52597979e-01f,-4.79330689e-01f,+2.21763551e-01f,
+1.37725204e-01f,+1.06815256e-01f,+5.33945188e-02f,-7.09030628e-02f,-7.38748237e-02f,
+1.70512214e-01f,+1.54597461e-01f,+1.87467277e-01f,+1.20656364e-01f,+8.82952511e-02f,
+7.94578716e-02f,+2.09051013e-01f,+2.28394195e-03f,+1.02714524e-01f,-6.39118075e-01f,
+1.62473470e-01f,+7.91388601e-02f,+2.09322572e-01f,-2.83446480e-02f,+7.44607896e-02f,
-8.44912380e-02f,+3.08454372e-02f,-1.03205204e-01f,-1.25479594e-01f,-2.78065920e-01f,
+4.70264163e-03f,-8.70032385e-02f,-7.07811266e-02f,-1.08581968e-01f,-1.07957676e-01f,
+4.06116992e-02f,+8.82084370e-02f,-1.30572040e-02f,-5.57607077e-02f,-5.65927885e-02f,
+3.54639404e-02f,+4.48475420e-01f,+1.51301265e-01f,+3.11151519e-02f,-5.09633362e-01f,
+1.76409453e-01f,-6.55485736e-03f,-2.39267498e-01f,+7.11115524e-02f,+6.69735447e-02f,
+1.27552390e-01f,+1.59040362e-01f,-1.48756411e-02f,-3.55526686e-01f,+1.72297031e-01f,
-2.76861973e-02f,+8.86741430e-02f,-1.41067177e-01f,+1.82871670e-01f,+7.95811638e-02f,
-6.54015467e-02f,+1.54177189e-01f,-6.43960983e-02f,+1.16481036e-01f,-1.96533889e-01f,
+2.33190745e-01f,+1.19613416e-01f,-6.72778040e-02f,-1.38929576e-01f,+5.96132800e-02f,
-5.22092655e-02f,+1.54206172e-01f,-4.50159311e-02f,-7.73016959e-02f,-1.23639606e-01f,
+7.02488050e-02f,-4.01655585e-02f,-4.44150753e-02f,+2.13475246e-02f,+8.56107697e-02f,
-1.02571458e-01f,+5.91055900e-02f,+1.52672246e-01f,-6.22622110e-02f,+2.03364357e-01f,
+1.65392086e-01f,-3.12969446e-01f,-5.13606429e-01f,-4.87032272e-02f,+5.72591648e-02f,
+2.85631567e-01f,+2.55718410e-01f,-2.82974750e-01f,-1.29256934e-01f,-1.24223128e-01f,
-1.52854741e-01f,+1.05542980e-01f,-1.41216487e-01f,+1.94000989e-01f,-9.52221304e-02f,
-6.64371252e-02f,-8.69007502e-03f,+4.98078465e-02f,+3.38323802e-01f,+2.68994123e-01f,
+2.61970401e-01f,+1.68218717e-01f,-1.96167588e-01f,-2.12156892e-01f,-6.97422698e-02f,
+1.07657954e-01f,-1.99818015e-02f,+2.65323877e-01f,+5.34044877e-02f,+9.03509930e-02f,
-2.41211280e-01f,+9.03890207e-02f,-1.76866651e-01f,-9.42785516e-02f,+2.51046181e-01f,
-1.44000342e-02f,-1.34005994e-01f,-6.20712101e-01f,+3.16690579e-02f,-1.63869545e-01f,
-8.42602104e-02f,-6.10542148e-02f,+1.65051714e-01f,+5.09505033e-01f,+2.17096493e-01f,
+2.13383690e-01f,+1.34398237e-01f,-1.70437731e-02f,-2.72123087e-02f,-1.09542683e-01f,
-1.67191356e-01f,-9.71983299e-02f,-8.13209713e-02f,+1.55803323e-01f,+4.80120242e-01f,
-2.77221233e-01f,-2.99919005e-02f,-2.45778143e-01f,+2.05990583e-01f,+4.79228348e-02f,
-1.12585805e-01f,-4.52116914e-02f,+8.92259702e-02f,+4.23815213e-02f,-1.76838245e-02f,
-7.04661846e-01f,+3.23745340e-01f,+8.47338662e-02f,-6.27248362e-02f,-1.60019055e-01f,
+4.74583097e-02f,+7.73378387e-02f,-2.76734650e-01f,-4.01704252e-01f,+1.83851853e-01f,
-4.68629040e-03f,+2.05630213e-01f,-2.18808293e-01f,-7.23587498e-02f,-4.37698662e-02f,
-4.48653884e-02f,+5.73592708e-02f,+1.95535868e-01f,-4.46314514e-02f,-4.82313484e-02f,
-1.27106175e-01f,+5.48480041e-02f,+9.68059376e-02f,+6.31592572e-02f,-1.25141770e-01f,
-1.64426729e-01f,+2.16634586e-01f,+1.48214385e-01f,-1.38425276e-01f,-3.12147915e-01f,
+6.77049011e-02f,-2.32145414e-01f,-9.16859787e-03f,+3.16750944e-01f,+1.16691232e-01f,
+2.09151059e-01f,+6.60198480e-02f,+2.15543136e-01f,+1.48530811e-01f,-1.64771512e-01f,
-5.96736483e-02f,+1.24815203e-01f,-3.01562756e-01f,-2.54313141e-01f,+1.94396362e-01f,
-2.01886874e-02f,+3.99113834e-01f,+3.34974825e-01f,+9.59017128e-02f,+3.10545415e-01f,
-8.20574090e-02f,-6.66463599e-02f,+3.14292341e-01f,-6.07608370e-02f,+1.26591876e-01f,
+2.53016531e-01f,-1.16551884e-01f,-5.75170577e-01f,-3.07664759e-02f,-4.25849445e-02f,
-6.74188463e-03f,-2.01066971e-01f,-1.49639063e-02f,+8.96511003e-02f,-1.87899023e-01f,
-3.49174917e-01f,+7.73493797e-02f,-2.10737765e-01f,-2.79859547e-02f,+1.88378602e-01f,
-3.27273697e-01f,+8.33201930e-02f,+1.25133872e-01f,-2.69561112e-01f,-3.37875873e-01f,
+7.47474506e-02f,-1.21989109e-01f,+1.53501511e-01f,+4.79915105e-02f,-1.97769366e-02f,
-1.18806042e-01f,-3.95322070e-02f,-1.27506599e-01f,-3.32806967e-02f,-3.08292289e-03f,
-3.78834069e-01f,-4.26531360e-02f,-7.45454989e-03f,-3.00457239e-01f,+1.53849944e-01f,
+8.05188790e-02f,-1.07587501e-01f,-2.39570606e-02f,+7.35426694e-02f,-1.05494708e-01f,
-4.08113226e-02f,+7.10577099e-03f,-1.57745034e-01f,+1.54776916e-01f,+9.03190300e-02f,
+8.11007544e-02f,-1.02194861e-01f,-4.40903366e-01f,+8.54438841e-02f,+9.91176721e-03f,
+1.30772209e-02f,+1.17634349e-02f,-7.88523480e-02f,-1.67375341e-01f,-3.14191341e-01f,
-2.48338565e-01f,-1.35421425e-01f,+1.09148594e-02f,-1.76323578e-01f,-3.84203315e-01f,
+7.19762966e-02f,+1.10345110e-01f,-1.25861749e-01f,+4.66054790e-02f,+1.46338576e-02f,
-4.52836677e-02f,-5.37284374e-01f,+2.27439869e-02f,+3.00541855e-02f,-2.40044873e-02f,
-1.31179214e-01f,-1.57564878e-01f,+1.30785853e-01f,-9.58646536e-02f,-3.98197630e-03f,
+4.13167596e-01f,-7.28801414e-02f,+2.20112219e-01f,-3.57791543e-01f,-1.85626239e-01f,
+4.96511497e-02f,+9.71108004e-02f,-3.92688699e-02f,+5.46110272e-02f,-9.21265706e-02f,
-3.49702723e-02f,-2.20326602e-01f,-1.15674496e-01f,+6.83371350e-02f,-3.62106971e-02f,
-2.74509266e-02f,-2.39630997e-01f,-1.13237955e-01f,-2.00271100e-01f,-6.61107749e-02f,
+9.94418636e-02f,-3.53701375e-02f,+2.49315381e-01f,+3.03103197e-02f,+1.61012098e-01f,
-1.44254595e-01f,+7.61643946e-02f,+1.35373935e-01f,-2.92704115e-03f,+2.21482500e-01f,
+1.57748275e-02f,+2.34127551e-01f,+1.35158554e-01f,-7.92259946e-02f,-1.92187786e-01f,
+1.56757236e-01f,-4.81270179e-02f,-3.01653203e-02f,-1.85141683e-01f,-1.52847931e-01f,
-5.01187369e-02f,-9.94599387e-02f,+1.23980686e-01f,+2.25990936e-02f,-6.66614771e-02f,
+1.11275718e-01f,+6.00390360e-02f,-4.24057543e-01f,+3.37927759e-01f,+2.77578384e-01f,
+1.94988444e-01f,+1.40119925e-01f,+3.64423282e-02f,+2.29554437e-02f,+2.17424706e-01f,
-5.24717569e-02f,-1.09135946e-02f,-2.74816483e-01f,+1.21356636e-01f,+3.99708860e-02f,
+2.91024953e-01f,+1.64683118e-01f,+4.71628867e-02f,+2.76088249e-02f,+2.09968761e-02f,
+1.82400316e-01f,-1.27783239e-01f,-3.60601753e-01f,+2.54623860e-01f,+4.20185253e-02f,
+1.80194583e-02f,+7.72846639e-02f,+1.84946895e-01f,+3.07793673e-02f,+8.60295668e-02f,
+2.36711800e-01f,-1.42115001e-02f,-1.95332035e-01f,-3.88442166e-02f,+4.46990691e-02f,
+1.94455042e-01f,-1.42997310e-01f,-2.18598485e-01f,+1.00719675e-01f,+3.87248993e-01f,
-8.25682469e-03f,+1.49554819e-01f,+5.71253747e-02f,+3.27550282e-04f,+9.62398872e-02f,
+1.64278105e-01f,+4.11398038e-02f,+1.00910589e-01f,-4.92795883e-03f,+1.55549766e-02f,
-6.89864904e-02f,+1.99438915e-01f,-5.66463694e-02f,-4.78996709e-02f,+8.40902403e-02f,
-7.44634215e-03f,-1.55377582e-01f,+4.08018976e-01f,-6.54102564e-02f,-1.18235402e-01f,
+5.63328452e-02f,+1.48686066e-01f,+4.03612643e-01f,+2.18285292e-01f,+1.63582221e-01f,
-3.45581293e-01f,-3.18889804e-02f,+6.75904080e-02f,-2.26069763e-02f,+2.21099302e-01f,
+2.45924518e-02f,-2.88747460e-01f,-5.18744141e-02f,+8.40126351e-02f,+3.42404693e-01f,
-5.80152273e-01f,+2.01648977e-02f,+3.26201379e-01f,+1.34635106e-01f,+1.49606332e-01f,
-9.16821063e-01f,-1.24864906e-01f,-4.02393239e-03f,+1.86520278e-01f,+1.17399156e-01f,
+4.38596532e-02f,-3.14981431e-01f,-9.52555537e-02f,-2.26095300e-02f,-2.79693212e-02f,
-1.32331744e-01f,+3.03586274e-02f,-8.19057673e-02f,-6.81076884e-01f,-2.12915048e-01f,
-4.09598351e-01f,-3.23445141e-01f,-1.12400129e-01f,-4.17490937e-02f,-9.21235919e-01f,
+4.26003449e-02f,-9.45249721e-02f,-2.40355551e-01f,-1.38547152e-01f,-8.07780266e-01f,
+3.20384018e-02f,-2.03043103e-01f,+6.28162920e-02f,+3.21394168e-02f,-6.22225925e-02f,
+1.05563231e-01f,-1.37212187e-01f,-3.09961736e-01f,+2.18753919e-01f,-3.73221524e-02f,
-6.33343831e-02f,+2.56588440e-02f,-2.07185093e-02f,-2.35339344e-01f,+3.42147835e-02f,
-2.65395135e-01f,+1.34637088e-01f,-3.19859713e-01f,-5.31417951e-02f,-5.65178692e-01f,
-2.14399949e-01f,-9.12643000e-02f,-7.42307259e-03f,+1.00954965e-01f,+1.04082655e-02f,
