#include <math.h>
#include <string.h>
#include "echo_torbeamNN_o.h"
#include "../k2c/k2c_include.h"
#include "../k2c/k2c_tensor_include.h"

void echo_torbeamNN_o(k2c_tensor* input_1_input, k2c_tensor* dense_4_0_output) {

float dense_0_output_array[96] = {0};
k2c_tensor dense_0_output = {&dense_0_output_array[0],1,96,{96, 1, 1, 1, 1}};
float dense_kernel_array[2304] = {
-1.12330973e-01f,+4.42323267e-01f,+2.49633640e-01f,+2.68224090e-01f,-3.07603538e-01f,
-2.43327826e-01f,-2.60272354e-01f,+4.42685604e-01f,+4.99763191e-01f,+5.36966264e-01f,
+2.91351020e-01f,+2.80021667e-01f,-2.49053776e-01f,+1.82667398e-03f,+2.85086513e-01f,
-5.41243732e-01f,+4.16118622e-01f,-5.57858050e-01f,-2.84796730e-02f,+6.03328981e-02f,
+4.36625909e-03f,+1.39003620e-01f,+1.59933701e-01f,+4.59988207e-01f,+2.30926424e-01f,
+9.12715215e-03f,-8.69110376e-02f,-1.66561887e-01f,-2.08878398e-01f,+3.45318466e-01f,
-1.54799864e-01f,-3.51128399e-01f,+3.89500141e-01f,+4.17576075e-01f,-5.09067103e-02f,
-1.18016377e-01f,+1.11349456e-01f,+5.12322746e-02f,-1.16583049e-01f,+4.64716941e-01f,
+3.47580969e-01f,+3.09366256e-01f,-4.58952636e-01f,-8.99409596e-03f,-5.94246507e-01f,
+3.73426765e-01f,-1.49493098e-01f,-2.36235559e-01f,-4.76273060e-01f,+2.44409200e-02f,
-8.96457955e-03f,-4.09935385e-01f,-1.41491905e-01f,-3.37134689e-01f,+2.01094016e-01f,
-3.11253726e-01f,+3.88879776e-01f,+3.12327713e-01f,-3.04953754e-01f,+3.16150904e-01f,
+5.81135511e-01f,-4.26248878e-01f,+2.44673461e-01f,+9.98991355e-02f,+3.81070673e-01f,
-2.36739904e-01f,-2.40637273e-01f,+2.05442488e-01f,+3.00908118e-01f,-4.57214385e-01f,
+3.31862122e-01f,-4.48735148e-01f,+4.49231327e-01f,+2.40350753e-01f,-6.21631801e-01f,
+5.39975464e-02f,-9.30825900e-03f,-1.78867191e-01f,+1.95616916e-01f,+5.45834243e-01f,
+6.69222698e-02f,+2.89551597e-02f,+2.02462196e-01f,+3.03005338e-01f,-3.85538578e-01f,
+4.23775375e-01f,+4.08664793e-01f,+2.70944834e-01f,-3.70842367e-01f,+1.35090277e-01f,
+3.09360139e-02f,-7.69012375e-03f,+1.44224420e-01f,-9.00267363e-02f,-2.10213304e-01f,
+5.61676174e-02f,+2.02282723e-02f,-5.67163341e-03f,-2.34065250e-01f,-3.69535983e-02f,
-8.80213547e-03f,-2.04640198e-02f,+3.41878295e-01f,+2.25682959e-01f,-1.64297759e-03f,
+5.65086827e-02f,+4.47018325e-01f,+2.23326613e-03f,+7.31631974e-03f,+2.81264130e-02f,
-5.34941018e-01f,-5.77990711e-02f,-3.07430714e-01f,-1.10673271e-02f,-1.21227525e-01f,
-3.72964501e-01f,+6.85412961e-05f,-4.92530346e-01f,+3.84737134e-01f,+3.69736135e-01f,
+5.03909409e-01f,+3.07139731e-03f,+6.79630563e-02f,-3.48546132e-02f,+3.19823576e-03f,
+1.82351694e-01f,-5.53502202e-01f,-8.73819273e-03f,-9.32950526e-03f,-4.01675105e-01f,
+5.31156838e-01f,+5.88523373e-02f,-6.53086543e-01f,-5.05307550e-03f,-2.75095284e-01f,
-4.06659842e-01f,+1.23192556e-01f,-4.62535918e-01f,+3.86787467e-02f,-5.70780396e-01f,
-1.26079200e-02f,-1.61181018e-02f,-3.53287645e-02f,+1.12294048e-01f,+7.78632099e-03f,
+1.77763067e-02f,-2.37673242e-02f,-2.15226546e-01f,-2.19777245e-02f,+3.50343168e-01f,
+3.15658242e-01f,-3.52725983e-02f,-8.92418378e-04f,+3.92193884e-01f,-1.04643688e-01f,
-2.65573859e-01f,+3.09010353e-02f,+1.87326930e-02f,-2.88909048e-01f,-2.75902838e-01f,
+2.49590278e-01f,+8.98121018e-03f,-5.55673428e-03f,-4.94086951e-01f,+2.43385792e-01f,
-7.85704516e-03f,+3.07810187e-01f,+4.89834659e-02f,-1.41909597e-02f,-1.48428222e-02f,
+2.24739611e-02f,+1.86691493e-01f,+5.22821963e-01f,-1.50274858e-01f,+3.80028933e-01f,
-8.32502090e-04f,+4.16928977e-01f,+3.37623239e-01f,+5.74458957e-01f,+2.37597153e-01f,
+2.86681443e-01f,-1.75797404e-03f,+7.43597327e-03f,+2.88251936e-01f,+1.28822285e-03f,
+1.95833240e-02f,+1.76833868e-01f,-6.98978126e-01f,+6.77078426e-01f,-1.17760235e-02f,
-1.39265517e-02f,-9.62315574e-02f,-7.64602423e-02f,+1.13833891e-02f,+8.34242105e-02f,
-2.06587464e-02f,-1.23675568e-02f,+1.18642375e-01f,-2.68651322e-02f,-1.19617604e-01f,
+1.54718801e-01f,+3.06262095e-02f,-2.12825760e-01f,-9.29967836e-02f,-2.55810600e-02f,
+9.06614661e-02f,+8.01242441e-02f,+4.15064059e-02f,-1.15151130e-01f,-2.25392319e-02f,
-6.72392845e-02f,-1.60039395e-01f,+2.70266622e-01f,+1.38586149e-01f,+1.08442992e-01f,
+8.27293694e-02f,-3.27959750e-03f,-1.99707642e-01f,-5.71835302e-02f,-2.79927142e-02f,
+5.46598658e-02f,-1.88665092e-02f,-2.24356219e-01f,+1.30688459e-01f,-1.10715263e-01f,
-8.34957063e-02f,+1.02027908e-01f,+1.78739782e-02f,-5.27163520e-02f,-9.53557640e-02f,
+2.17030961e-02f,-6.59460723e-02f,+1.30071968e-01f,+3.89456637e-02f,-1.21187000e-02f,
-5.79280294e-02f,+7.26798698e-02f,+1.54062673e-01f,+2.90266871e-01f,-8.97547081e-02f,
-2.96502914e-02f,-1.04000241e-01f,-2.00200871e-01f,-5.07484451e-02f,-1.22524962e-01f,
-9.45153609e-02f,-8.45233202e-02f,+6.43997416e-02f,-3.04403454e-02f,+5.19057438e-02f,
-3.74495015e-02f,-3.96979749e-02f,-7.51522779e-02f,-1.67077392e-01f,-5.01066707e-02f,
-2.26019509e-02f,-1.27217159e-01f,+2.42309179e-02f,+1.20079637e-01f,-4.53554541e-02f,
-6.80667013e-02f,-8.42818171e-02f,-9.79347229e-02f,-1.00787304e-01f,-5.70955910e-02f,
+5.90896085e-02f,+4.39775921e-02f,+2.85305176e-02f,+8.70136470e-02f,+2.44782999e-01f,
+1.50269577e-02f,-8.23116153e-02f,-9.41922236e-03f,-1.18687446e-03f,-2.95156315e-02f,
+4.22027484e-02f,+6.50901347e-02f,-7.47506618e-02f,+1.07920930e-01f,+1.10747330e-01f,
-1.03333585e-01f,+1.79395244e-01f,-1.19305119e-01f,-6.95034042e-02f,+9.10586193e-02f,
+3.39394212e-01f,+1.38938829e-01f,-2.14790598e-01f,-8.49855319e-03f,+1.88296940e-02f,
+9.57654566e-02f,-4.19473685e-02f,-3.38356048e-02f,-1.73258722e-01f,-5.61375320e-02f,
-1.74062878e-01f,+1.48921292e-02f,-1.87515765e-01f,-6.52579144e-02f,-1.76416457e-01f,
+1.40209436e-01f,+1.83474906e-02f,+1.00617729e-01f,+4.59438600e-02f,-1.51027543e-02f,
-1.79844908e-02f,+1.05038829e-01f,-1.07587479e-01f,-5.21490648e-02f,+1.84956957e-02f,
-8.73622522e-02f,+1.00889184e-01f,-5.16683348e-02f,-1.18785486e-01f,-5.61315976e-02f,
+2.51754560e-02f,+3.85497026e-02f,+9.60642174e-02f,-7.67614618e-02f,-1.29976571e-01f,
+7.42368996e-02f,-9.78153348e-02f,-2.04278857e-01f,+1.55243855e-02f,+3.85299064e-02f,
-7.47595355e-02f,+7.21636973e-03f,+1.89695746e-01f,+8.67878480e-05f,+4.52559814e-02f,
-8.39792937e-02f,+4.19917889e-02f,+8.51462875e-03f,+8.74869600e-02f,+1.97968289e-01f,
-1.50565714e-01f,+5.60355186e-03f,-1.97165102e-01f,-2.32256308e-01f,-7.50438198e-02f,
+1.74781621e-01f,+2.81077065e-03f,+3.10961232e-02f,-1.88102350e-01f,-2.22769696e-02f,
+6.26636744e-02f,-4.75655645e-02f,+1.56274773e-02f,+3.55649292e-02f,+2.93068867e-02f,
-6.29358832e-03f,+1.34447157e-01f,-1.43107707e-02f,+6.10332265e-02f,-2.45727167e-01f,
-6.75603887e-03f,-8.17924961e-02f,-1.01138428e-01f,+4.91363518e-02f,-2.63309255e-02f,
-7.33222142e-02f,+1.12828068e-01f,-1.41971596e-02f,-1.53705418e-01f,-4.85450327e-02f,
+3.74633148e-02f,-8.08468834e-02f,-5.32209948e-02f,+4.31649536e-02f,+1.36464477e-01f,
-3.69033068e-02f,+6.14728034e-02f,-1.55393794e-01f,+9.05641466e-02f,+3.52449156e-02f,
-4.17922959e-02f,-9.70558897e-02f,-6.92259371e-02f,+1.83872223e-01f,+8.15202743e-02f,
-4.26228829e-02f,-1.35331854e-01f,-8.07592273e-02f,-2.09351033e-02f,-1.08565904e-01f,
-6.30440265e-02f,-5.38411997e-02f,-5.48027232e-02f,-5.96571714e-02f,+1.62805229e-01f,
+7.12525425e-03f,-4.57842872e-02f,+9.81944576e-02f,+5.50487787e-02f,-1.05826534e-01f,
-1.84123605e-01f,+1.78659558e-01f,+6.49195444e-03f,-9.68782976e-03f,-1.36761479e-02f,
-6.00551702e-02f,+1.11036981e-02f,+1.91585496e-01f,-1.06400266e-01f,+1.22371554e-01f,
-1.14393339e-01f,-1.79508701e-01f,-6.26908466e-02f,-1.61774755e-02f,-1.28536716e-01f,
+7.99166188e-02f,+2.09160913e-02f,+3.05643789e-02f,+1.18393609e-02f,-1.48846552e-01f,
+1.90421399e-02f,-2.01764449e-01f,+5.32100648e-02f,+9.85733792e-02f,+2.27782279e-01f,
-6.34290352e-02f,-9.75814834e-02f,+1.02255940e-01f,+4.68475670e-02f,+8.75334907e-03f,
+3.80605757e-02f,+1.55607030e-01f,-2.77261883e-02f,+8.38078745e-03f,+1.78648576e-01f,
+2.68180102e-01f,+5.82655482e-02f,-1.14603657e-02f,-6.59920424e-02f,-8.32486823e-02f,
+8.36275965e-02f,-1.63601622e-01f,-1.85015559e-01f,+8.91451910e-02f,+1.75828934e-02f,
-2.36685518e-02f,+3.47666219e-02f,+6.46565408e-02f,-2.89229751e-02f,-1.22563979e-02f,
+1.03044035e-02f,+1.07228540e-01f,-2.08993539e-01f,-6.81534931e-02f,-4.44185957e-02f,
+2.20098346e-01f,-1.26127109e-01f,+1.27548315e-02f,+2.18311558e-04f,-1.11188821e-01f,
+1.52136117e-01f,-1.08066432e-01f,-5.46063259e-02f,+9.43868086e-02f,-4.62664403e-02f,
+1.51655138e-01f,-1.51730299e-01f,+5.16554713e-02f,-3.77095491e-02f,-1.02374397e-01f,
+2.25268137e-02f,+5.90383895e-02f,+6.67086914e-02f,-2.30420660e-02f,-1.08005427e-01f,
+1.02921851e-01f,-3.73611189e-02f,-4.33536954e-02f,+1.41304195e-01f,-8.91913753e-03f,
-3.39838192e-02f,+7.17816278e-02f,-1.25919245e-02f,-5.15488070e-03f,+9.91104096e-02f,
-1.33836269e-01f,-6.93922564e-02f,+6.33764639e-02f,-7.39215501e-03f,-1.37207061e-01f,
+1.41387939e-01f,-5.99325262e-02f,-5.90225272e-02f,+2.10967101e-02f,+1.50241368e-02f,
-4.97335009e-02f,-3.11703440e-02f,-5.24888076e-02f,-2.71362096e-01f,-8.08335841e-02f,
+1.16098276e-03f,-3.87950465e-02f,-9.14011616e-04f,-2.26050392e-01f,+2.00033396e-01f,
-4.00728099e-02f,+2.48842854e-02f,+9.88760740e-02f,+4.45678271e-02f,+7.15303198e-02f,
-7.79744005e-03f,-1.09267728e-02f,+1.22893222e-01f,-6.44566193e-02f,+2.15865210e-01f,
-2.40393188e-02f,+6.27772184e-03f,-3.87204438e-02f,+9.45005566e-02f,-2.82539111e-02f,
-3.06811571e-01f,-2.87642684e-02f,-5.98404966e-02f,-1.12204321e-01f,+5.68815246e-02f,
-6.85890913e-02f,+6.94152713e-02f,+6.19983748e-02f,-6.31203596e-03f,-4.79135402e-02f,
+8.37128907e-02f,+7.04169050e-02f,+6.68348670e-02f,-1.09308772e-02f,-1.07183680e-01f,
-1.08521394e-01f,-4.47138399e-02f,+3.26733999e-02f,-1.33785799e-01f,+4.38619182e-02f,
+1.02159446e-02f,-1.00825224e-02f,+3.54853980e-02f,+1.05700210e-01f,-1.98389757e-02f,
+3.90927903e-02f,+5.27696088e-02f,-1.06620274e-01f,+2.46207379e-02f,-7.29930326e-02f,
-7.30905831e-02f,+1.19391777e-01f,-7.33243674e-02f,-9.61731188e-03f,+1.12185990e-02f,
-4.27792706e-02f,+5.51654585e-03f,-2.44151894e-02f,-1.89932510e-02f,-2.55824421e-02f,
-3.78188230e-02f,+6.67761117e-02f,-8.57111141e-02f,+6.12840094e-02f,+2.30246466e-02f,
+6.96870461e-02f,-2.77929399e-02f,+5.26958741e-02f,-1.79803729e-01f,+3.41643542e-02f,
-9.88600403e-03f,+6.53174594e-02f,-8.80594552e-02f,-2.76782773e-02f,-1.29635930e-01f,
-4.51953486e-02f,-1.94287319e-02f,+4.01662551e-02f,+6.59341505e-03f,-8.55418071e-02f,
+6.40230849e-02f,+2.25695502e-02f,+2.89592938e-03f,-8.33341479e-03f,+4.10892814e-02f,
+2.31706440e-01f,-1.90959856e-01f,-3.24053247e-03f,-1.89111754e-01f,-1.27237476e-02f,
-1.01798810e-01f,-2.73903031e-02f,-1.19470648e-01f,-1.35225356e-01f,-1.37228578e-01f,
+8.38661753e-03f,+1.03976563e-01f,-3.52403820e-02f,+2.87045352e-02f,-1.34749219e-01f,
-5.03410026e-02f,-1.16922654e-01f,+1.57702819e-01f,-5.82338609e-02f,-1.30197182e-01f,
+1.22490093e-01f,-1.79362409e-02f,+7.90773612e-03f,-2.85161465e-01f,-1.03183217e-01f,
+9.91031379e-02f,+6.99384212e-02f,+4.91877384e-02f,+7.08627626e-02f,-9.93459225e-02f,
-2.94164997e-02f,-1.76057294e-01f,+5.00499643e-02f,-3.24553698e-02f,-7.43353320e-03f,
+1.89008247e-02f,+9.12987143e-02f,-5.76746743e-03f,-4.97599132e-02f,+3.44364867e-02f,
+1.11529619e-01f,+7.98967574e-03f,-4.14357260e-02f,+8.64046738e-02f,+3.98973003e-02f,
+2.96594631e-02f,-5.30344211e-02f,+1.69328414e-02f,-7.02918395e-02f,+3.17666046e-02f,
-2.03909218e-01f,-2.16076553e-01f,-2.99951062e-02f,+4.48606499e-02f,-1.44480076e-02f,
-1.60543458e-03f,+7.14608803e-02f,+2.67054159e-02f,+9.03738849e-03f,+5.56681901e-02f,
+5.19735962e-02f,+2.83510476e-01f,+1.18127242e-01f,+1.83634516e-02f,+1.17153727e-01f,
-9.31093097e-02f,+2.06839908e-02f,+2.13558391e-01f,+2.24236352e-03f,+1.00724928e-01f,
-5.77166118e-02f,+6.79552406e-02f,-2.88840346e-02f,-1.25902593e-01f,+8.29418302e-02f,
+2.09196517e-03f,-1.10786967e-01f,-4.11254317e-02f,-5.76711446e-02f,-3.87829915e-03f,
-5.63121140e-02f,-7.30476808e-03f,+4.41915989e-02f,-1.74045586e-03f,-2.63400506e-02f,
+2.10863929e-02f,+3.53783481e-02f,+7.67356753e-02f,-3.74803599e-03f,-1.99924801e-02f,
-1.88898295e-01f,-1.31326914e-01f,+6.26846254e-02f,+9.93129089e-02f,+2.09213160e-02f,
-1.35005727e-01f,+1.19063303e-01f,-2.58975059e-01f,-1.33822998e-02f,-4.84256707e-02f,
+8.12163502e-02f,-6.18327335e-02f,-9.48588550e-02f,+1.49157658e-01f,+1.25744008e-02f,
-4.45849486e-02f,+2.34433934e-01f,+1.05448738e-01f,-5.92970662e-03f,-6.08061068e-02f,
-5.80246896e-02f,-1.67401060e-01f,-3.39050889e-02f,+5.65008074e-02f,+1.60686057e-02f,
-4.07971442e-04f,+2.52080075e-02f,-1.07692242e-01f,+6.12955540e-02f,-3.17177862e-01f,
+2.65988130e-02f,+1.00925192e-01f,-5.56635074e-02f,-8.30482617e-02f,+1.60871930e-02f,
-1.27392262e-01f,-1.29091181e-02f,-4.60741781e-02f,+2.69606739e-04f,-4.90191989e-02f,
-1.40697166e-01f,+1.81559976e-02f,+1.37970924e-01f,-1.03592239e-01f,-1.07171215e-01f,
-1.08092790e-02f,+1.42272502e-01f,+5.33355996e-02f,+4.16400917e-02f,-2.23496094e-01f,
-5.86600453e-02f,+1.30915046e-01f,-2.90387332e-01f,-7.45680332e-02f,-6.97827265e-02f,
+1.01709493e-01f,-1.79822534e-01f,-2.52337813e-01f,-2.71327067e-02f,+6.51798695e-02f,
-1.76920131e-01f,+2.70490404e-02f,-7.39800483e-02f,-2.51971602e-01f,-3.84854078e-02f,
+1.24585614e-01f,+4.88688983e-02f,+6.09502643e-02f,-2.57726740e-02f,+9.56015512e-02f,
-1.09641813e-01f,-1.17265821e-01f,+4.69272621e-02f,-1.43917128e-01f,-2.89612226e-02f,
-3.22218277e-02f,-1.93602033e-02f,+2.48063393e-02f,-7.01114312e-02f,+1.35885298e-01f,
-5.11339083e-02f,-9.25393030e-02f,-4.67493087e-02f,+1.27566114e-01f,-1.23318508e-01f,
+2.62825757e-01f,-7.32052103e-02f,+1.32870272e-01f,+2.96031982e-02f,+1.50592014e-01f,
-1.12622917e-01f,+2.01100245e-01f,-2.08911542e-02f,+1.33204162e-01f,-6.05204795e-03f,
+1.03504077e-01f,+3.15347649e-02f,-2.01211184e-01f,+6.91609830e-02f,-6.21965453e-02f,
-2.18857694e-02f,-4.40352876e-03f,-1.13111977e-02f,+2.42535159e-01f,-1.75987910e-02f,
+9.67684090e-02f,-5.33445403e-02f,+1.49488777e-01f,-1.54830618e-02f,+1.21695891e-01f,
-6.33779913e-02f,+1.83024690e-01f,-1.35352043e-02f,-2.20961217e-03f,-8.98808707e-03f,
+1.51537387e-02f,-4.28604968e-02f,+1.94220450e-02f,-1.65285960e-01f,-1.89127088e-01f,
+5.71006676e-03f,-4.36115973e-02f,+1.52201608e-01f,+3.87577936e-02f,+6.80975392e-02f,
+5.19021228e-02f,+2.93897968e-02f,+3.42726141e-01f,+1.06057562e-01f,-1.75994024e-01f,
-1.65612996e-02f,+3.94422747e-02f,-2.49744188e-02f,-1.94433052e-02f,-1.19674532e-02f,
-5.48373461e-02f,-2.31146857e-01f,-5.28707206e-02f,+1.49512529e-01f,-3.52095962e-02f,
+6.05345219e-02f,-1.47853876e-02f,+1.14082426e-01f,-6.56848028e-02f,+1.37184396e-01f,
+5.08583859e-02f,+1.03001632e-02f,+1.06390685e-01f,-2.20010847e-01f,-7.08598644e-02f,
-1.69320628e-01f,+2.35786624e-02f,+2.45923623e-02f,+1.82887577e-02f,+8.70128907e-03f,
+2.99407765e-02f,+1.67542864e-02f,+1.85228810e-02f,-1.24671180e-02f,+1.02213070e-01f,
+8.79082456e-03f,+1.01544179e-01f,-1.16662741e-01f,+5.77988103e-02f,-1.57595143e-01f,
-1.32302390e-02f,-6.55656755e-02f,+1.39460206e-01f,+1.18955048e-02f,+1.77723676e-01f,
-1.56384776e-03f,+2.37191811e-01f,+3.39541920e-02f,-1.59191526e-02f,-2.74773370e-02f,
-7.20974384e-03f,-4.23094630e-01f,+1.22423526e-02f,-1.35841575e-02f,-1.45357892e-01f,
-3.90318222e-02f,-6.07277937e-02f,-6.97850287e-02f,+1.40145123e-01f,-2.02783886e-02f,
+1.01632975e-01f,+4.14159596e-02f,+8.41594562e-02f,-5.60851060e-02f,-5.54502755e-02f,
-5.99650666e-03f,-1.92564890e-01f,+1.74875513e-01f,+1.10713176e-01f,-2.70882957e-02f,
+1.49004487e-02f,+1.33798182e-01f,+9.82462168e-02f,-6.50201109e-04f,-7.24269524e-02f,
+3.49797402e-03f,-5.98997362e-02f,-1.82692576e-02f,-1.65125027e-01f,-2.67534368e-02f,
-1.32513747e-01f,-4.56858315e-02f,+3.91718112e-02f,-3.20362672e-02f,-3.07081696e-02f,
-2.83367392e-02f,-1.10527128e-02f,+1.04434557e-01f,+1.90365493e-01f,+7.03235194e-02f,
-1.37646934e-02f,-1.15314126e-01f,-4.50342670e-02f,-3.97767350e-02f,-3.17983329e-02f,
+3.29354964e-02f,+5.95836341e-02f,+2.19681002e-02f,+5.63756898e-02f,-1.72970537e-02f,
+1.24999896e-01f,+7.50518814e-02f,-3.12298667e-02f,+1.19981356e-01f,+1.69827454e-02f,
+2.36637462e-02f,+1.22073188e-01f,+7.36079738e-03f,+4.75845560e-02f,-3.74578685e-02f,
+8.29041190e-03f,-6.05066530e-02f,+1.51690887e-02f,-9.50838625e-02f,+8.08602013e-03f,
+5.62852025e-02f,+1.15139736e-02f,+1.95308067e-02f,-2.17613190e-01f,-5.13557605e-02f,
-7.15077668e-02f,+2.62404203e-01f,-7.47937858e-02f,+1.12591088e-01f,+1.53465383e-02f,
-1.81012216e-03f,-1.67917609e-02f,+3.35496105e-02f,-1.52555304e-02f,+1.97426882e-02f,
+4.65208590e-02f,-1.06260061e-01f,+7.13297026e-03f,-8.16232041e-02f,+4.93939854e-02f,
-1.81211263e-01f,-6.82988167e-02f,-5.85864112e-02f,+1.00828260e-01f,-2.10523158e-02f,
+4.85726781e-02f,-1.83862727e-02f,+8.28290433e-02f,-2.24016979e-02f,-1.44535452e-01f,
+4.11997642e-03f,+6.08385652e-02f,+1.42426103e-01f,-1.05169136e-02f,-8.74520615e-02f,
+1.02026537e-01f,+2.74367221e-02f,+7.79043809e-02f,+7.10081980e-02f,+7.48020876e-03f,
+4.49371897e-03f,-1.62843578e-02f,+5.16576692e-03f,-2.44818628e-01f,+4.61215377e-02f,
-4.96486798e-02f,-8.37385305e-04f,-5.62783740e-02f,-5.86805157e-02f,-3.59924845e-02f,
-6.46052137e-02f,-2.25539710e-02f,-3.15053090e-02f,+1.19440958e-01f,+2.59884626e-01f,
+1.91298965e-02f,-7.28473347e-03f,-7.71933794e-02f,-6.35450259e-02f,-3.55620123e-02f,
+4.86847665e-03f,-1.73078284e-01f,-2.45943651e-01f,-4.69165482e-03f,-8.81958529e-02f,
+5.91921993e-02f,-7.68603161e-02f,+3.81287374e-02f,+7.37298802e-02f,-7.89995864e-02f,
+1.77742876e-02f,+2.32459873e-01f,-3.12916711e-02f,-8.54182169e-02f,+4.81371246e-02f,
+2.84218192e-02f,-6.40237331e-02f,-1.79162562e-01f,-6.95126951e-02f,+1.40212819e-01f,
+2.41422262e-02f,+1.89099997e-01f,+1.27936333e-01f,-1.77852675e-01f,+1.26745418e-01f,
-1.22414581e-01f,+5.13669737e-02f,+1.77209958e-01f,+2.15765521e-01f,+4.22429387e-03f,
-1.04489714e-01f,+1.38524882e-02f,+3.10060326e-02f,+3.10006589e-02f,-4.27419273e-03f,
-3.16886641e-02f,-9.28840712e-02f,+9.42891017e-02f,+6.51681796e-02f,+4.65039071e-03f,
+1.46604419e-01f,+7.09114000e-02f,+1.09270453e-01f,-2.25622561e-02f,-2.94281721e-01f,
-1.19170673e-01f,-1.61083008e-03f,-2.68656407e-02f,-2.14780439e-02f,-3.67828682e-02f,
+7.16715306e-02f,-5.27971946e-02f,+1.50878981e-01f,-1.70162842e-02f,-2.79725753e-02f,
+1.56306520e-01f,-7.19357431e-02f,-1.87673420e-02f,+1.68248206e-01f,-1.21674858e-01f,
-1.85815524e-02f,-9.45947021e-02f,+3.23434435e-02f,+8.41244683e-02f,-7.71643370e-02f,
+2.08499998e-01f,-7.90427718e-03f,-2.33742237e-01f,+1.11482263e-01f,+5.08496054e-02f,
+2.83897202e-02f,-1.39866367e-01f,-7.32508581e-03f,-1.23615131e-01f,+7.04853162e-02f,
-9.08259302e-02f,+1.38118733e-02f,-5.16700223e-02f,+2.02545132e-02f,-4.39882167e-02f,
+4.87363264e-02f,+2.11395714e-02f,+3.10955793e-02f,+6.43169358e-02f,-2.65828103e-01f,
+7.49570597e-03f,+1.84243992e-02f,-9.28612351e-02f,+1.47887498e-01f,-7.70759885e-04f,
-1.78968996e-01f,-1.04459807e-01f,-6.52798777e-03f,-3.10823210e-02f,-3.73741873e-02f,
+3.45587428e-03f,+6.81360736e-02f,-1.41549706e-01f,+4.74820938e-03f,-1.73616167e-02f,
-1.33639887e-01f,-8.83288682e-02f,+1.55761270e-02f,-1.98006574e-02f,+2.72631377e-01f,
+6.68345168e-02f,-2.31383279e-01f,+3.43987867e-02f,-9.73584279e-02f,+8.24575871e-02f,
-3.61868516e-02f,-8.00545514e-03f,-1.45546896e-02f,+1.15802959e-01f,-7.20820129e-02f,
-2.69192010e-01f,+5.68731986e-02f,-2.82272369e-01f,-6.28739372e-02f,+1.36694595e-01f,
-1.63402334e-01f,-3.49432349e-01f,-1.54208159e-02f,-1.89231634e-01f,-1.77924663e-01f,
+1.73986658e-01f,-1.60990372e-01f,+1.32634953e-01f,+2.32057169e-01f,+6.27128929e-02f,
-1.25804335e-01f,+1.05976179e-01f,+1.40608355e-01f,+7.33728334e-02f,+2.79949848e-02f,
-3.29835713e-01f,-3.33367474e-02f,-5.86816967e-02f,+6.89909048e-03f,-1.07200973e-01f,
+1.30244598e-01f,-3.54152955e-02f,-1.82965584e-02f,+2.72396449e-02f,-1.32906334e-02f,
+5.26153762e-03f,+1.14647813e-01f,+2.74881031e-02f,-9.39791575e-02f,+7.63111934e-02f,
+4.60337959e-02f,+1.66490361e-01f,+4.70397761e-03f,-5.61049134e-02f,-6.68631643e-02f,
+1.66796371e-01f,+3.41405231e-03f,+1.40020594e-01f,-6.92282692e-02f,+1.43404409e-01f,
-6.38433322e-02f,-1.22812621e-01f,+3.25435586e-02f,-6.50301576e-02f,-1.42521563e-03f,
+3.39129083e-02f,-1.29608372e-02f,+4.45831530e-02f,+4.37410213e-02f,+5.32531030e-02f,
-2.44071782e-01f,-6.54907990e-03f,+1.21383136e-02f,-1.87053874e-01f,-2.66559180e-02f,
+2.92627007e-01f,+1.21488526e-01f,+5.32458536e-02f,-5.97043484e-02f,-3.07548970e-01f,
-9.61162969e-02f,+2.29192019e-01f,-3.56380284e-01f,+5.94647378e-02f,-6.66152835e-02f,
-5.25844842e-02f,+1.69205412e-01f,+1.46660194e-01f,-2.26697996e-02f,-2.59532481e-02f,
-3.52066271e-02f,-4.60372604e-02f,-8.79803859e-03f,+2.55999744e-01f,-4.88446318e-02f,
-2.45280508e-02f,-6.65578023e-02f,-7.79694458e-03f,-4.21293713e-02f,-3.39447730e-03f,
-3.27759273e-02f,+2.15632558e-01f,+2.27908120e-02f,-7.72764906e-02f,+1.90583646e-01f,
-1.07056417e-01f,+2.48658568e-01f,-4.22764756e-02f,-5.64010918e-01f,+1.09399468e-01f,
-1.50184944e-01f,-1.35272935e-01f,-4.37603891e-03f,+3.95632796e-02f,+9.97240618e-02f,
-3.08724735e-02f,-3.21773216e-02f,+4.32181265e-03f,-1.26450611e-02f,-1.81731895e-01f,
+5.49985766e-02f,+4.79481034e-02f,-2.33707670e-02f,-4.53799851e-02f,-7.69006088e-02f,
-3.01480107e-02f,+7.70164430e-02f,+1.55382268e-02f,+1.08132467e-01f,-2.32175410e-01f,
+8.36048182e-03f,+1.70117214e-01f,+1.75357983e-01f,+1.88372266e-02f,+2.04446167e-02f,
-2.04648543e-02f,-5.11610322e-02f,-2.38836303e-01f,-5.24434168e-03f,-8.63629952e-03f,
-2.41854414e-02f,-1.21429563e-02f,+4.00102558e-03f,-1.33715076e-02f,-1.42913058e-01f,
-3.88834298e-01f,-6.15346432e-02f,+3.71715538e-02f,-1.91598665e-02f,-4.61855493e-02f,
-2.80764401e-01f,-2.45609023e-02f,-1.01481853e-02f,-2.76156198e-02f,+2.05995683e-02f,
+1.90608203e-01f,-3.69367599e-02f,-1.49377054e-02f,-2.15540454e-02f,-1.48275234e-02f,
-5.07419817e-02f,-2.20804736e-02f,+9.42706764e-02f,-7.36088306e-03f,-2.28396151e-04f,
-2.15819865e-01f,+1.04091084e-02f,+1.88595459e-01f,+1.92065462e-02f,+4.86703366e-02f,
-4.00631987e-02f,-2.68198729e-01f,-6.75143749e-02f,-8.41896981e-03f,+2.72882152e-02f,
-1.17937975e-01f,-1.32898137e-01f,+1.57613382e-02f,-1.03705049e-01f,+1.08334161e-02f,
+1.40599072e-01f,+2.55371090e-02f,+3.45305353e-03f,+8.64494517e-02f,+3.79213393e-02f,
+6.18825257e-02f,+3.01683638e-02f,+2.13451952e-01f,+3.00507862e-02f,-2.69817915e-02f,
-2.47739136e-01f,-1.16071232e-01f,-3.98789234e-02f,-7.05539584e-02f,+7.08406419e-03f,
-5.31794876e-02f,+9.56842303e-02f,-6.81946345e-04f,-5.42076007e-02f,+8.27783719e-02f,
-1.79054305e-01f,-5.91361746e-02f,+1.08975925e-01f,-3.04269344e-02f,-1.28788278e-01f,
-9.67490207e-03f,-5.54422475e-02f,-1.46991340e-02f,-3.22861294e-03f,-2.12121233e-02f,
+1.03491150e-01f,+2.51940172e-02f,+5.78051656e-02f,-1.41899437e-01f,+1.39293657e-03f,
-6.94945157e-02f,+5.72329424e-02f,-1.78296603e-02f,+1.73886240e-01f,+5.03120711e-03f,
-1.43098056e-01f,-7.42629776e-03f,-6.57319576e-02f,+4.69189063e-02f,+5.15682530e-03f,
-3.10975723e-02f,-4.59340848e-02f,-3.78871635e-02f,+1.61214516e-01f,-1.03751905e-01f,
-2.12559670e-01f,-6.48759007e-02f,+7.33989011e-03f,-1.78912450e-02f,+2.64462661e-02f,
+2.72622444e-02f,-5.56655750e-02f,+2.33972576e-02f,+1.10945180e-01f,-1.42473787e-01f,
+1.19135395e-01f,+7.23220920e-03f,-5.54013439e-02f,+9.97601449e-02f,+8.24744329e-02f,
+5.51029742e-02f,-1.90262627e-02f,+5.99531718e-02f,+2.59390008e-02f,+1.26550436e-01f,
+4.33536507e-02f,-2.03686804e-01f,-7.37745538e-02f,+8.30221325e-02f,+8.07669759e-03f,
-3.41807425e-01f,+1.09974794e-01f,+9.70287845e-02f,-5.85328555e-03f,+1.08805344e-01f,
+4.48653288e-02f,+1.13626812e-02f,-5.56095466e-02f,+1.23705501e-02f,+4.55328040e-02f,
+5.86057454e-03f,-5.51360436e-02f,-2.43179560e-01f,+1.08155403e-02f,+1.03819426e-02f,
+7.24596158e-02f,-1.72312781e-01f,-1.50094390e-01f,+2.74816722e-01f,-3.51359742e-03f,
-1.03450827e-01f,+3.23498994e-03f,-1.41313560e-02f,-3.97375017e-01f,+2.49804676e-01f,
-1.35763064e-02f,+8.15031752e-02f,-6.86762780e-02f,+1.69194430e-01f,+2.25416608e-02f,
+1.09118894e-01f,-1.39646620e-01f,+3.22158992e-01f,-3.77135118e-03f,-1.67973097e-02f,
+1.42346323e-02f,-9.48758703e-03f,-1.88165218e-01f,+1.84178874e-02f,-3.90868597e-02f,
-1.20259434e-01f,+3.14268768e-02f,-5.64256422e-02f,+1.98280722e-01f,+1.04154848e-01f,
+9.96498466e-02f,-6.35475339e-03f,+1.08197570e-01f,-2.56366450e-02f,+1.58483744e-01f,
+5.33629134e-02f,+1.58076346e-01f,-1.36111146e-02f,-6.41748980e-02f,-8.67694169e-02f,
+2.16959207e-03f,-2.56404012e-01f,+2.42009506e-01f,-2.32734233e-02f,-1.45514563e-01f,
-4.84108590e-02f,-3.73407267e-03f,-3.19394432e-02f,+9.23805460e-02f,-1.31425232e-01f,
+1.11104928e-01f,-1.85945611e-02f,-8.75469181e-04f,-2.38500461e-02f,-6.80192709e-02f,
-2.09934190e-01f,+7.07647577e-02f,+4.39745262e-02f,-1.50514558e-01f,-2.06625208e-01f,
+9.31645837e-03f,+4.99462746e-02f,+1.00946479e-01f,+2.53351927e-02f,+9.00093839e-02f,
-1.44802153e-01f,+1.10827431e-01f,-1.73827663e-01f,-8.35039467e-02f,-4.37882334e-01f,
+1.32270142e-01f,+2.91416291e-02f,-4.90131825e-02f,+6.75193295e-02f,+3.05775795e-02f,
-1.85603127e-01f,+6.89305663e-02f,+1.11439638e-02f,-6.04516417e-02f,-2.42225796e-01f,
-1.18331974e-02f,+8.71601515e-03f,-3.64028551e-02f,+3.75065356e-02f,+1.29105002e-01f,
-5.90766128e-03f,+7.38545135e-02f,+1.03863962e-01f,+2.22616181e-01f,+3.00940350e-02f,
-5.32963462e-02f,-7.37929195e-02f,+6.99682534e-02f,+1.81036666e-02f,-2.50825316e-01f,
+6.32950454e-04f,+7.82262310e-02f,-1.84007529e-02f,+1.23196393e-01f,+2.19884992e-01f,
+6.41332924e-01f,-3.92964959e-01f,+1.25570789e-01f,+2.58648843e-01f,+1.82333201e-01f,
+2.83278525e-01f,-3.76485616e-01f,+7.47417286e-02f,-1.64890707e-01f,+2.74889648e-01f,
+3.80617119e-02f,+3.66691649e-01f,-2.36238807e-01f,+2.90706545e-01f,+4.99466667e-03f,
-2.92596996e-01f,+2.58321725e-02f,-1.85414150e-01f,-2.08541393e-01f,-2.54937857e-01f,
+5.29610097e-01f,-2.24799842e-01f,-2.38932461e-01f,-7.48901665e-02f,-1.44504204e-01f,
+5.65641046e-01f,+3.94339561e-02f,-2.04750776e-01f,+6.42493963e-01f,-1.66985065e-01f,
+4.01342273e-01f,+1.92005649e-01f,+4.85868566e-02f,+2.56777531e-03f,+4.54813382e-03f,
-2.31840804e-01f,+1.60499755e-02f,-1.76188558e-01f,-1.42518610e-01f,+4.45719138e-02f,
+1.32430702e-01f,-3.54251936e-02f,-7.38411024e-02f,-1.07535511e-01f,-1.36498928e-01f,
-4.36110049e-01f,+1.35737285e-01f,+4.72945362e-01f,+8.46680924e-02f,-4.12435010e-02f,
-4.17531461e-01f,-4.57672596e-01f,+3.32264155e-01f,+4.24502611e-01f,+8.90639126e-02f,
-1.00097880e-01f,-3.90030444e-02f,+2.20782571e-02f,+7.18026221e-01f,-9.72548150e-05f,
+8.37610438e-02f,+1.90649405e-01f,+3.65525156e-01f,-7.08268061e-02f,-2.25166187e-01f,
+1.07015692e-01f,-4.16676581e-01f,-2.26477701e-02f,+2.57693082e-01f,-7.16573521e-02f,
-1.24590937e-02f,-2.89644778e-01f,+2.33773053e-01f,-2.85654664e-01f,-1.64999232e-01f,
-1.99064136e-01f,-6.68188930e-02f,+3.97486463e-02f,-7.26408511e-02f,+4.22260687e-02f,
+1.33562619e-02f,+3.74750495e-02f,+6.68957159e-02f,-2.16101483e-01f,-1.61488190e-01f,
-2.97907352e-01f,-2.38186792e-01f,-2.87211776e-01f,+3.27964306e-01f,+9.76004153e-02f,
-2.39107639e-01f,+9.05154739e-03f,+4.58670370e-02f,+4.94544119e-01f,+2.16553569e-01f,
+3.26809287e-01f,-2.74156570e-01f,-9.40547511e-02f,+2.51607984e-01f,-2.81840950e-01f,
-1.42017409e-01f,+2.53825411e-02f,-2.15678602e-01f,+1.90387055e-01f,+1.29169017e-01f,
+1.12443276e-01f,+1.84953939e-02f,+1.16492391e-01f,-1.07075870e-02f,+2.83367336e-01f,
-1.01878241e-01f,-7.38603696e-02f,+5.70449084e-02f,+2.04829231e-01f,+1.88735798e-01f,
-7.20051602e-02f,+1.86724842e-01f,+4.83441353e-02f,+3.23177390e-02f,-6.79697022e-02f,
-9.66474414e-02f,+1.97906822e-01f,-6.72177738e-03f,-2.38362387e-01f,+2.70792216e-01f,
-7.60600194e-02f,+9.76803154e-02f,+4.78545316e-02f,-1.98846593e-01f,+1.75577968e-01f,
+2.45247439e-01f,-1.63345292e-01f,+2.75377911e-02f,-1.70252278e-01f,+1.24362558e-01f,
-5.22324704e-02f,-1.18687823e-01f,-4.47912179e-02f,+5.65067269e-02f,+4.16098461e-02f,
+4.72632088e-02f,-1.04033723e-01f,-3.70774977e-02f,-1.39942795e-01f,+7.78546557e-02f,
+1.69043720e-01f,+3.34180407e-02f,-1.22706391e-01f,-1.50818890e-02f,-6.73551708e-02f,
+1.25107825e-01f,-1.77079126e-01f,+5.10675795e-02f,+6.96548373e-02f,+1.81381800e-03f,
+1.17624544e-01f,-2.08767522e-02f,+4.18898202e-02f,+1.70000225e-01f,-1.33549795e-01f,
+1.53636541e-02f,-1.01831570e-01f,-8.47056732e-02f,-3.37946936e-02f,+1.61979645e-01f,
-3.24722864e-02f,+3.57512534e-02f,-1.32535070e-01f,+5.66641055e-02f,+1.40946314e-01f,
+1.86729982e-01f,+1.29617035e-01f,+2.64843106e-01f,+6.63991421e-02f,+2.02840772e-02f,
-1.93884000e-02f,-1.16612375e-01f,+1.95221618e-01f,+3.97472046e-02f,+1.31476587e-02f,
+5.94780184e-02f,+3.43739837e-02f,+2.01114430e-03f,-2.36384720e-01f,+1.76481023e-01f,
+1.82531383e-02f,-3.09831053e-01f,+7.35958070e-02f,+1.70423672e-01f,+1.47174085e-02f,
-7.05866143e-02f,-2.06035346e-01f,+1.39038861e-01f,+6.91308752e-02f,+3.77403527e-01f,
+2.69394308e-01f,+2.17476301e-02f,+1.00411452e-01f,+1.93888083e-01f,-8.34999681e-02f,
-1.38590634e-01f,-8.49904567e-02f,-7.55703300e-02f,-7.01800734e-02f,-1.61373213e-01f,
-7.10382089e-02f,+3.51416208e-02f,+3.21840458e-02f,-6.32790476e-02f,-1.66278705e-01f,
-1.03285842e-01f,+5.24602309e-02f,-2.02270404e-01f,-1.21526070e-01f,+1.08550578e-01f,
-5.30542322e-02f,+2.93464977e-02f,-1.29488125e-01f,+1.58518568e-01f,-2.02320516e-02f,
-2.08431363e-01f,-2.78993011e-01f,-5.37136793e-02f,+3.08313146e-02f,+1.91925958e-01f,
-1.18803032e-01f,-3.35006475e-01f,-1.16577141e-01f,-8.17128345e-02f,-9.08533670e-03f,
-5.38612865e-02f,+4.33048829e-02f,+5.99955022e-02f,-7.65094310e-02f,+5.00906892e-02f,
-4.49019857e-02f,-9.41257030e-02f,+5.81261069e-02f,-3.59026603e-02f,+1.35262772e-01f,
-9.19444337e-02f,-1.37796914e-02f,+1.21977888e-01f,-1.16546219e-02f,-1.73205107e-01f,
+6.62857760e-03f,-5.69316670e-02f,-6.34614453e-02f,-2.94468720e-02f,-7.16972426e-02f,
+3.52554545e-02f,-1.05871648e-01f,+3.15241963e-02f,+1.51633218e-01f,-1.93440229e-01f,
-4.85735349e-02f,+9.42596886e-03f,+8.09711516e-02f,+1.93538308e-01f,+1.10518895e-02f,
-1.72914326e-01f,+3.26730132e-01f,-1.08585507e-02f,-1.09023690e-01f,-6.03681803e-02f,
-1.98046029e-01f,-1.13131069e-01f,+1.44676581e-01f,-2.61810273e-01f,+1.08683472e-02f,
-1.60750687e-01f,+1.90826282e-02f,+9.90524590e-02f,-1.92564890e-01f,-4.76881564e-02f,
-3.26421887e-01f,+1.68571733e-02f,-5.62565327e-02f,-1.28696328e-02f,+1.99159622e-01f,
-1.49993539e-01f,-2.44162172e-01f,+3.03519011e-01f,-1.45965636e-01f,-1.89122543e-01f,
+3.37749720e-02f,-1.93782762e-01f,+1.60650417e-01f,+5.41246086e-02f,+4.29200158e-02f,
+2.14775670e-02f,+2.45987112e-03f,+1.48097858e-01f,+2.28367373e-02f,+1.57638006e-02f,
-2.25347411e-02f,-2.56655850e-02f,-4.56401892e-02f,-1.46854378e-03f,-3.96874957e-02f,
+1.17735595e-01f,+9.64520313e-03f,+7.37220095e-03f,+2.07133666e-02f,-7.78111815e-03f,
-2.48271395e-02f,-1.33398131e-01f,-1.21565044e-01f,+4.43297178e-02f,+1.19967058e-01f,
+1.86973587e-02f,+1.91909913e-02f,+4.17633951e-02f,-4.69037145e-02f,+2.12070152e-01f,
+1.54989436e-01f,-4.25206264e-03f,-6.49202615e-02f,-3.30482679e-03f,-8.51203054e-02f,
+2.43405607e-02f,-2.97606308e-02f,-2.94525549e-02f,+1.82670075e-02f,+6.46734983e-03f,
-3.09961457e-02f,-1.90710053e-01f,+1.14227243e-01f,+2.87325177e-02f,+3.60961966e-02f,
-3.27569246e-02f,+1.08524435e-03f,+5.62980864e-03f,+3.40790339e-02f,-1.73447907e-01f,
-1.07070236e-02f,+7.44217401e-03f,+1.69686973e-01f,-9.17594209e-02f,-2.08012890e-02f,
+4.18284386e-02f,+2.02293843e-02f,+6.14922233e-02f,+5.86683936e-02f,-1.05107320e-05f,
+1.49337146e-02f,-4.78344932e-02f,-9.08023678e-03f,+2.86034029e-02f,-1.04679227e-01f,
+9.02580284e-03f,+3.08110137e-02f,-3.52478400e-02f,-9.34727788e-02f,+6.15774393e-02f,
+1.22891637e-02f,-5.50356470e-02f,-9.78936106e-02f,-6.38879661e-04f,+3.25184874e-02f,
-8.14998988e-04f,-1.57554932e-02f,-4.04950976e-03f,-5.92140667e-02f,-3.01626902e-02f,
+1.67757720e-01f,+4.77523841e-02f,-1.53725315e-03f,-2.70851720e-02f,+6.67195171e-02f,
-3.52594964e-02f,+5.46423197e-02f,-1.06452350e-02f,-3.18245739e-02f,-7.40486849e-03f,
+1.28480950e-02f,-2.16525942e-02f,+2.81998932e-01f,+9.81566608e-02f,+2.96077523e-02f,
-4.36821394e-02f,+1.55656105e-02f,+1.07661374e-01f,+6.95478097e-02f,-7.43353143e-02f,
-1.18821813e-03f,+2.00130463e-01f,-7.51396269e-02f,+4.38464545e-02f,-1.20564312e-01f,
-5.47133535e-02f,+4.12019268e-02f,+1.85277797e-02f,+1.60318483e-02f,+1.97945666e-02f,
+4.67787795e-02f,+7.88729340e-02f,+9.70145091e-02f,-4.54387628e-02f,-3.13480198e-02f,
+3.44753414e-02f,+4.77893725e-02f,-6.37040511e-02f,-1.08734533e-01f,+1.14711590e-01f,
+1.31459624e-01f,-1.58153459e-01f,-7.73496404e-02f,-7.17602298e-02f,+7.85033703e-02f,
-3.93010043e-02f,-1.99857131e-02f,+1.06551632e-01f,-1.66572183e-01f,+1.06514432e-01f,
+1.60418805e-02f,-6.60991296e-02f,+2.98837828e-03f,+1.55206412e-01f,+1.76191375e-01f,
-4.02590670e-02f,+1.54356539e-01f,-2.49630406e-01f,+7.69254938e-02f,-1.55459279e-02f,
-1.45876231e-02f,+7.02826306e-02f,-1.63584128e-02f,-1.37513485e-02f,+2.83113122e-03f,
-1.44085497e-01f,-3.10271736e-02f,+5.84957097e-03f,-4.72561307e-02f,+6.78949431e-02f,
-8.27725902e-02f,-5.27343154e-02f,+3.34558301e-02f,-1.06635787e-01f,-2.05054530e-03f,
+1.87059361e-02f,+3.43871932e-03f,-2.88126338e-02f,+4.00223322e-02f,-1.68817062e-02f,
+3.38905044e-02f,-4.44333851e-02f,-1.19506717e-01f,-2.74988543e-02f,-2.94435889e-01f,
-9.24326852e-03f,+1.36178061e-01f,+8.13339204e-02f,+3.75599973e-02f,+6.71536243e-03f,
+3.56709063e-02f,+1.22891627e-02f,-1.15690127e-01f,+1.60780046e-02f,+4.81109396e-02f,
+9.55898240e-02f,-5.82251064e-02f,-8.96540284e-02f,-1.03790602e-02f,-9.53253210e-02f,
+1.30901292e-01f,+6.61696941e-02f,-5.06770089e-02f,-5.87019250e-02f,-3.60334180e-02f,
-1.61941200e-02f,+5.04074991e-03f,+2.64655109e-02f,-4.49183434e-02f,-1.53887346e-02f,
-6.92117661e-02f,+8.14820081e-02f,+2.97067296e-02f,-3.12845558e-02f,-1.68356925e-01f,
-1.43368721e-01f,+1.48312554e-01f,+5.35445660e-02f,+1.48673683e-01f,+6.03675060e-02f,
+1.11791030e-01f,-4.64964174e-02f,+1.65649150e-02f,-9.11698490e-03f,-9.76708084e-02f,
-1.42507836e-01f,-1.68785863e-02f,-8.83143693e-02f,+1.64636418e-01f,+4.80481014e-02f,
+3.06961406e-02f,+4.33577746e-02f,-2.20919121e-02f,-9.75202993e-02f,-1.37818426e-01f,
-8.27828124e-02f,+3.59351374e-02f,+2.42666863e-02f,+8.31470415e-02f,-7.16303810e-02f,
+3.32126990e-02f,+1.52030870e-01f,+1.98399752e-01f,-3.22295055e-02f,-5.59402183e-02f,
-2.68366560e-02f,+4.41701291e-03f,-1.01769157e-02f,+9.49040428e-02f,-3.95788401e-02f,
-7.19102025e-02f,+2.06948873e-02f,-1.83733478e-01f,+1.17145799e-01f,-1.76099781e-02f,
+1.30430505e-01f,+8.95017684e-02f,-4.74498980e-02f,+1.23825610e-01f,+4.14732099e-02f,
+4.06533666e-02f,+4.18544412e-02f,-1.26456946e-01f,-5.87107614e-02f,+1.05574824e-01f,
-2.75091641e-03f,-1.61401019e-01f,+3.35989334e-02f,-1.64867476e-01f,+6.85892403e-02f,
+2.77748823e-01f,+2.25465089e-01f,-4.52142768e-03f,-3.02422196e-02f,-1.03165656e-01f,
-1.46351933e-01f,+2.69795377e-02f,-1.22185312e-01f,-9.95489955e-02f,-1.01044346e-02f,
+1.41740501e-01f,-1.12028241e-01f,+1.34685636e-01f,+3.81608419e-02f,-2.52830256e-02f,
+7.19592497e-02f,+7.36087263e-02f,-4.51122485e-02f,-2.59640701e-02f,-3.47704627e-02f,
+2.78946161e-01f,-6.55752122e-02f,+3.25432569e-01f,-1.02660982e-02f,-1.11715920e-01f,
-6.96092397e-02f,+2.33919099e-02f,-5.40475845e-02f,-7.45289251e-02f,+6.43194094e-02f,
-2.58160848e-02f,-1.49275079e-01f,+1.99984964e-02f,-1.04626320e-01f,+6.76856488e-02f,
+2.99794804e-02f,-7.48320818e-02f,-5.15560508e-02f,+7.84078687e-02f,-4.43433225e-02f,
-1.34057775e-01f,+1.19657889e-02f,-1.18749291e-01f,-7.83673674e-03f,-1.21350020e-01f,
+5.19488305e-02f,+4.14751172e-02f,+7.37297684e-02f,-6.49031177e-02f,+5.69627434e-02f,
-1.04204237e-01f,+1.00651100e-01f,-4.99507412e-03f,-1.47952333e-01f,-3.25197540e-02f,
-2.82967258e-02f,+2.32317485e-02f,-3.04703619e-02f,+6.75599799e-02f,-4.01409239e-01f,
+7.94557258e-02f,-6.12532943e-02f,+1.44610107e-01f,+1.24350168e-01f,+3.24653238e-02f,
+4.03356515e-02f,-6.03122413e-02f,-1.41210735e-01f,+2.13826261e-02f,+3.31171080e-02f,
-1.76042924e-03f,-9.81119573e-02f,+4.40186560e-02f,+7.05516152e-03f,-5.04719354e-02f,
+1.33714434e-02f,+9.70230028e-02f,-6.08237367e-03f,-2.32416287e-01f,+1.12828523e-01f,
-6.25855196e-03f,+8.79222751e-02f,-6.76278621e-02f,+1.17898427e-01f,-1.08851954e-01f,
-2.56638248e-02f,+6.58342848e-03f,+1.31246103e-02f,+8.86749402e-02f,+5.68536296e-02f,
-2.90380865e-01f,+1.73051134e-01f,+7.28175044e-02f,-1.10889427e-01f,+1.63835928e-01f,
-5.35435267e-02f,-9.59122553e-02f,-1.86924145e-01f,+1.18714878e-02f,-2.67391261e-02f,
+1.19824596e-01f,+1.17234938e-01f,+1.86480824e-02f,-2.27536447e-02f,+1.53924018e-01f,
+7.46362582e-02f,+5.57581261e-02f,+4.97918352e-02f,-1.29686400e-01f,+3.90269309e-02f,
+6.54449835e-02f,-5.39200082e-02f,+6.66099265e-02f,+1.99835096e-02f,-1.33347422e-01f,
+5.97234033e-02f,-2.38414124e-01f,+8.59998465e-02f,-8.62273504e-04f,+1.24528103e-01f,
+1.11342691e-01f,+9.29052848e-03f,-8.98354277e-02f,+4.32905070e-02f,-5.76402023e-02f,
-4.16099615e-02f,+9.98631585e-03f,+1.53317317e-01f,+7.46506313e-03f,+8.18279013e-02f,
+1.35444492e-01f,+3.59923802e-02f,+7.71131143e-02f,+4.61219251e-02f,-3.48060466e-02f,
-1.19965570e-02f,+5.38777262e-02f,-3.32035348e-02f,+2.67879143e-02f,-9.52667668e-02f,
+7.29846628e-03f,+9.08663943e-02f,+2.95668300e-02f,-9.58689116e-03f,-5.50495945e-02f,
+6.38918392e-03f,-1.07189626e-01f,-8.52335896e-03f,-3.10297851e-02f,+6.59492984e-02f,
+1.07503735e-01f,+2.67880280e-02f,+2.13097082e-03f,-2.97607214e-04f,-2.25596275e-04f,
-5.24021685e-02f,+2.46191807e-02f,-9.30788647e-03f,+1.63813792e-02f,+4.48558964e-02f,
+2.31860071e-01f,+8.34934488e-02f,-2.60973666e-02f,+1.11225381e-01f,+1.31157590e-02f,
-3.66254374e-02f,-1.30132437e-02f,-3.69682424e-02f,-1.64173581e-02f,+1.07969344e-02f,
+3.70960273e-02f,-7.43433833e-03f,+5.40063269e-02f,+1.19921640e-02f,+1.44567341e-02f,
-1.41007872e-02f,+3.15545723e-02f,+1.52553692e-01f,-5.86603731e-02f,+8.14109445e-02f,
-1.75271835e-02f,-3.03131118e-02f,+4.79350574e-02f,+1.47426158e-01f,+5.16389944e-02f,
+1.81736182e-02f,-7.97064006e-02f,-6.24096836e-04f,-2.08252342e-03f,+1.05319405e-02f,
+2.57208645e-02f,+2.71573626e-02f,+4.02594311e-03f,+5.34831313e-03f,+1.87064949e-02f,
-2.75140237e-02f,+1.24177095e-02f,-2.18480211e-02f,-6.94005787e-02f,-1.41318351e-01f,
+7.75321722e-02f,-2.79089920e-02f,+2.16343589e-02f,+5.85381053e-02f,+1.32903792e-02f,
+2.35821940e-02f,+1.31208627e-02f,-1.64289854e-03f,-1.03382811e-01f,-7.09689781e-03f,
-1.45247728e-01f,+1.52700292e-02f,-1.18894592e-01f,-4.25372040e-03f,+1.39374822e-01f,
-4.01744619e-02f,+2.72746105e-03f,+1.27198724e-02f,-2.56352350e-02f,-1.38660930e-02f,
-7.05726370e-02f,-5.94376326e-02f,+9.77449585e-03f,-1.21727888e-03f,-4.79924530e-02f,
+7.01137772e-03f,+1.41823322e-01f,+1.16300911e-01f,-9.15607717e-03f,-3.83153604e-03f,
+7.25013539e-02f,+3.96025069e-02f,+2.12135278e-02f,+1.49595952e-02f,-9.78915766e-03f,
+3.55378003e-03f,-4.89134453e-02f,+4.63973032e-03f,-1.13242231e-01f,+5.29379724e-03f,
+1.76318660e-02f,-5.40013425e-04f,+8.95188451e-02f,+1.49191834e-03f,+9.94253531e-02f,
+1.32452205e-01f,-1.48567662e-01f,+2.71740626e-03f,+3.06927096e-02f,+2.03033686e-02f,
-1.82797119e-03f,-1.49255082e-01f,-1.15274452e-02f,+5.25941923e-02f,-1.54672498e-02f,
+3.02517531e-03f,-5.51253594e-02f,-8.23077708e-02f,+2.15576440e-02f,-8.90597403e-02f,
-1.14629239e-01f,+8.77219439e-03f,-1.31402180e-01f,+1.56321786e-02f,+1.45467706e-02f,
-3.19848284e-02f,+1.77704226e-02f,+1.31737059e-02f,-3.09743918e-02f,-7.76527729e-03f,
+2.11343646e-01f,-2.67890077e-02f,+3.92312892e-02f,-2.63960570e-01f,-1.20225303e-01f,
-5.15829921e-02f,+3.36498953e-02f,+8.83011892e-03f,-8.98598635e-04f,+4.65751439e-02f,
-2.31302120e-02f,-3.73207629e-02f,+1.86887324e-01f,-9.20716003e-02f,-8.41593221e-02f,
+2.11954061e-02f,-9.31923091e-03f,-1.42833337e-01f,-5.46880215e-02f,-4.48433362e-04f,
-2.43681688e-02f,+4.12937766e-03f,-1.12475287e-02f,-2.19877753e-02f,-4.51326631e-02f,
+6.71102330e-02f,-5.78224733e-02f,+3.13552804e-02f,-1.15892068e-01f,+4.92362268e-02f,
-6.45971075e-02f,+9.97267440e-02f,-1.74972452e-02f,-3.79136368e-03f,+6.92905486e-02f,
+2.09402828e-03f,-9.21388939e-02f,+7.13814166e-04f,+1.80105701e-01f,+5.50105842e-03f,
+4.18769419e-02f,-2.99740210e-02f,-2.82323011e-03f,+7.54446015e-02f,+6.15727305e-02f,
+4.11477638e-03f,+6.22481331e-02f,+4.30219136e-02f,+9.73477885e-02f,+1.05266059e-02f,
+7.45081948e-03f,-9.43437591e-03f,-4.61460389e-02f,-9.12534520e-02f,+1.67349037e-02f,
-8.36616207e-04f,-2.75622904e-02f,-2.03291953e-01f,-2.20376793e-02f,};
k2c_tensor dense_kernel = {&dense_kernel_array[0],2,2304,{24,96, 1, 1, 1}};
float dense_bias_array[96] = {
-3.36282611e-01f,-3.58660549e-01f,-3.42355967e-02f,-2.65428536e-02f,+1.15818843e-01f,
-8.69271979e-02f,-5.49851835e-01f,-3.53294671e-01f,-4.09437597e-01f,+3.59057099e-01f,
-4.42292601e-01f,+5.07735126e-02f,+1.09614588e-01f,-1.22860305e-01f,-4.71982025e-02f,
-2.60148174e-03f,-5.94248116e-01f,-5.34558058e-01f,-1.49365561e-02f,-4.16269787e-02f,
-5.23689866e-01f,-9.07136798e-02f,-2.18265027e-01f,-3.36959176e-02f,+8.84433761e-02f,
-2.44608894e-01f,-1.94777995e-01f,-1.59320906e-01f,+5.82006797e-02f,-2.25271672e-01f,
-4.55730379e-01f,-2.86391348e-01f,+5.40501401e-02f,-2.40133435e-01f,-2.96957403e-01f,
-1.82356741e-02f,-5.74749000e-02f,-3.99716556e-01f,-3.17150891e-01f,-1.16766565e-01f,
+7.31633650e-03f,-2.09914908e-01f,+5.28784841e-02f,-5.49275637e-01f,+7.69459605e-02f,
-3.49519432e-01f,+4.87533137e-02f,-5.06012067e-02f,+5.94960034e-01f,-2.88360238e-01f,
-2.38054797e-01f,-4.68087457e-02f,-3.00925493e-01f,-3.87896955e-01f,-1.65881827e-01f,
+4.91883568e-02f,-6.82971597e-01f,-5.91798484e-01f,-3.41906726e-01f,-6.57691717e-01f,
+1.17889404e-01f,+5.26157059e-02f,-4.94353652e-01f,-3.07461679e-01f,-3.85034055e-01f,
+4.83738780e-02f,-4.31657434e-02f,-5.91141582e-01f,-1.74340978e-01f,+1.34423468e-02f,
-7.39404142e-01f,-1.10539552e-02f,+2.67755657e-01f,-2.21386418e-01f,+6.83084354e-02f,
-2.18634009e-01f,-4.74088311e-01f,-1.23848863e-01f,-1.22789614e-01f,-5.16220272e-01f,
-3.48929733e-01f,-3.58507931e-01f,+9.97808296e-03f,-8.69622454e-02f,+2.43244489e-04f,
-2.82333523e-01f,-5.57466209e-01f,-2.92654097e-01f,+3.41457695e-01f,-1.81542382e-01f,
-1.36221752e-01f,-3.27142328e-01f,-8.56004953e-02f,-5.07302940e-01f,+2.19589800e-01f,
-1.47754252e-01f,};
k2c_tensor dense_bias = {&dense_bias_array[0],1,96,{96, 1, 1, 1, 1}};
float dense_fwork[2328] = {0};


float batch_normalization_0_output_array[96] = {0};
k2c_tensor batch_normalization_0_output = {&batch_normalization_0_output_array[0],1,96,{96, 1, 1, 1, 1}};
size_t batch_normalization_axis = 0;
float batch_normalization_mean_array[96] = {
+1.16608351e-01f,+1.24507964e-01f,+2.53786951e-01f,+1.61889538e-01f,+3.02635163e-01f,
+1.53173447e-01f,+3.47457789e-02f,+9.87160280e-02f,+7.69826099e-02f,+5.47871411e-01f,
+7.65912607e-02f,+2.79234886e-01f,+1.94147304e-01f,+1.81280404e-01f,+2.60642469e-01f,
+1.82599679e-01f,+3.43340635e-02f,+3.11148055e-02f,+2.43027374e-01f,+2.03831494e-01f,
+1.43474210e-02f,+2.49443933e-01f,+1.65584654e-01f,+2.96610713e-01f,+3.46934915e-01f,
+1.08196877e-01f,+1.33795589e-01f,+1.47607759e-01f,+2.89114654e-01f,+1.77651808e-01f,
+1.18155025e-01f,+7.02144802e-02f,+2.47340620e-01f,+1.66736394e-01f,+1.29515365e-01f,
+2.38521561e-01f,+2.74546027e-01f,+5.36517948e-02f,+1.50974318e-01f,+2.55243629e-01f,
+2.60104746e-01f,+1.70867667e-01f,+1.64089605e-01f,+4.37539071e-02f,+2.35246286e-01f,
+1.25034764e-01f,+2.12493151e-01f,+1.71788052e-01f,+5.29521525e-01f,+5.65272644e-02f,
+1.43322796e-01f,+1.86608955e-01f,+1.24383695e-01f,+9.58436280e-02f,+1.30100444e-01f,
+1.52867198e-01f,+4.60145064e-03f,+3.05745099e-02f,+1.36949465e-01f,+7.45723210e-03f,
+3.61885607e-01f,+1.94724396e-01f,+8.53141546e-02f,+6.79072663e-02f,+8.36744010e-02f,
+2.04748064e-01f,+1.61695644e-01f,+4.86285239e-02f,+1.69887647e-01f,+1.56291530e-01f,
+6.51980983e-03f,+2.46168241e-01f,+4.24412847e-01f,+1.28752321e-01f,+2.00900704e-01f,
+7.46905729e-02f,+4.72654216e-02f,+1.68078378e-01f,+2.95857906e-01f,+5.29898629e-02f,
+7.64451995e-02f,+5.26127405e-02f,+2.96136469e-01f,+2.84386635e-01f,+1.97392121e-01f,
+1.07129149e-01f,+3.22672836e-02f,+9.71457064e-02f,+3.62582475e-01f,+1.69038907e-01f,
+1.10310651e-01f,+1.77575037e-01f,+2.82028586e-01f,+3.93004939e-02f,+2.95646220e-01f,
+1.43221736e-01f,};
k2c_tensor batch_normalization_mean = {&batch_normalization_mean_array[0],1,96,{96, 1, 1, 1, 1}};
float batch_normalization_stdev_array[96] = {
+2.20282599e-01f,+2.56130964e-01f,+3.88473451e-01f,+2.12122545e-01f,+3.92187089e-01f,
+2.47908384e-01f,+1.16068393e-01f,+2.02075094e-01f,+1.72074512e-01f,+5.43985724e-01f,
+1.62517518e-01f,+3.16210181e-01f,+2.61702955e-01f,+2.73724765e-01f,+3.35029095e-01f,
+2.94803202e-01f,+1.06735468e-01f,+1.03960894e-01f,+3.75227422e-01f,+3.06497186e-01f,
+6.06073700e-02f,+3.62557560e-01f,+2.88130730e-01f,+3.92934203e-01f,+4.01218086e-01f,
+1.95799321e-01f,+2.53296971e-01f,+2.29765534e-01f,+3.42178166e-01f,+3.35442275e-01f,
+2.51643628e-01f,+1.59994289e-01f,+2.69740552e-01f,+2.71239251e-01f,+2.21697614e-01f,
+3.72325659e-01f,+3.48149121e-01f,+1.56409383e-01f,+2.82505840e-01f,+3.59366119e-01f,
+3.41555268e-01f,+2.71501988e-01f,+2.56834507e-01f,+1.09177642e-01f,+3.40399235e-01f,
+2.55776107e-01f,+3.00295115e-01f,+2.53562152e-01f,+4.10248518e-01f,+1.66492984e-01f,
+2.78990239e-01f,+3.19278628e-01f,+2.16615051e-01f,+2.10256994e-01f,+2.22054869e-01f,
+2.28493586e-01f,+4.07341272e-02f,+9.57754180e-02f,+2.54318565e-01f,+5.13088331e-02f,
+3.83380383e-01f,+3.13164175e-01f,+1.94603696e-01f,+1.77683592e-01f,+1.83997780e-01f,
+2.71383673e-01f,+2.66396195e-01f,+1.29025146e-01f,+2.75754243e-01f,+2.57316709e-01f,
+4.94998209e-02f,+3.78737867e-01f,+3.72329205e-01f,+2.45663375e-01f,+3.11534673e-01f,
+1.78337872e-01f,+1.09667398e-01f,+2.72723675e-01f,+3.67068797e-01f,+1.42881304e-01f,
+1.62483588e-01f,+1.22274935e-01f,+3.58024687e-01f,+3.85082513e-01f,+2.95132011e-01f,
+2.13744074e-01f,+1.05234861e-01f,+2.01620206e-01f,+3.60492885e-01f,+2.92675197e-01f,
+2.03615755e-01f,+2.81513065e-01f,+3.64413470e-01f,+1.09393448e-01f,+3.33689094e-01f,
+2.26527661e-01f,};
k2c_tensor batch_normalization_stdev = {&batch_normalization_stdev_array[0],1,96,{96, 1, 1, 1, 1}};
float batch_normalization_gamma_array[96] = {
+1.01483619e+00f,+1.03288472e+00f,+8.53692532e-01f,+8.96694481e-01f,+1.08607209e+00f,
+9.17519569e-01f,+1.29079854e+00f,+7.67687678e-01f,+1.00970852e+00f,+8.65563810e-01f,
+7.87036538e-01f,+8.49885046e-01f,+1.03919947e+00f,+8.53466988e-01f,+8.07349741e-01f,
+9.93261516e-01f,+8.68834436e-01f,+1.29354441e+00f,+8.95548820e-01f,+8.83247495e-01f,
+1.06165898e+00f,+8.52701783e-01f,+8.48694324e-01f,+8.08347344e-01f,+9.13880587e-01f,
+9.78524446e-01f,+9.22054231e-01f,+1.10888052e+00f,+1.02233577e+00f,+7.81023622e-01f,
+1.08039594e+00f,+1.11530983e+00f,+8.91854942e-01f,+7.69060612e-01f,+1.03154171e+00f,
+8.97723198e-01f,+1.06113052e+00f,+8.24875295e-01f,+8.96345496e-01f,+8.88106704e-01f,
+8.59969020e-01f,+8.31842959e-01f,+1.06718338e+00f,+9.53355849e-01f,+9.83055353e-01f,
+1.00578547e+00f,+9.34124112e-01f,+9.50712323e-01f,+1.09189689e+00f,+9.00731385e-01f,
+9.22422767e-01f,+9.87490654e-01f,+1.05671239e+00f,+1.10827291e+00f,+7.39219785e-01f,
+1.08942997e+00f,+1.13757277e+00f,+7.71518469e-01f,+1.05540562e+00f,+1.01831150e+00f,
+9.82466578e-01f,+1.07680213e+00f,+7.43126810e-01f,+8.41316104e-01f,+9.12554562e-01f,
+1.02002621e+00f,+1.05685449e+00f,+7.99867690e-01f,+9.29632187e-01f,+1.02976012e+00f,
+9.38868225e-01f,+1.05734432e+00f,+8.78934264e-01f,+9.26540911e-01f,+1.13587427e+00f,
+8.68886948e-01f,+1.04587126e+00f,+9.01740193e-01f,+8.75512540e-01f,+9.17269766e-01f,
+9.07407701e-01f,+8.06086421e-01f,+9.12496209e-01f,+8.18342447e-01f,+9.27982330e-01f,
+9.77474034e-01f,+1.04189336e+00f,+8.69546413e-01f,+1.13618457e+00f,+8.63850534e-01f,
+8.50713313e-01f,+9.98218775e-01f,+1.05713415e+00f,+1.14565647e+00f,+9.58875537e-01f,
+8.37684214e-01f,};
k2c_tensor batch_normalization_gamma = {&batch_normalization_gamma_array[0],1,96,{96, 1, 1, 1, 1}};
float batch_normalization_beta_array[96] = {
+6.82056025e-02f,-6.97748423e-01f,+8.54310673e-03f,-4.82001096e-01f,+4.79934633e-01f,
+2.59739220e-01f,+1.59518108e-01f,-5.10034621e-01f,-2.62467474e-01f,-1.96385890e-01f,
-4.07463610e-01f,-3.42319399e-01f,+4.26010221e-01f,+1.21773653e-01f,-6.27704620e-01f,
+2.09784368e-03f,-5.32973766e-01f,+1.62658513e-01f,-3.32540134e-03f,+1.60098016e-01f,
-2.64426228e-02f,-1.04258820e-01f,+1.40184769e-02f,-3.57550383e-01f,-1.90351188e-01f,
+2.86271200e-02f,+1.27113849e-01f,+3.12221974e-01f,+8.25349465e-02f,-9.32774469e-02f,
+3.07757735e-01f,+8.35972354e-02f,-5.03973305e-01f,-5.10113358e-01f,+1.16535172e-01f,
+2.30492905e-01f,-4.16976929e-01f,-6.27492592e-02f,+1.23626612e-01f,-4.61829334e-01f,
-8.87227654e-02f,-2.94420153e-01f,+4.05756831e-01f,-5.66080034e-01f,+6.02418408e-02f,
-5.49551845e-01f,+2.94045359e-01f,+3.08483720e-01f,+4.64730352e-01f,-3.39966938e-02f,
+1.34213567e-01f,+1.65908962e-01f,+2.04001129e-01f,+3.32373947e-01f,-1.94116473e-01f,
+5.26000857e-01f,-5.49568713e-01f,-8.00559759e-01f,+2.51827985e-01f,-3.55494112e-01f,
-4.13843721e-01f,+3.15492719e-01f,-3.09647173e-01f,-5.14370538e-02f,-4.13492113e-01f,
+4.77588087e-01f,+4.67911869e-01f,-2.84300864e-01f,-2.45884120e-01f,+3.66750658e-01f,
-2.63814420e-01f,+3.39060903e-01f,-6.79731965e-01f,+1.22644342e-01f,+2.87969708e-01f,
-4.80668284e-02f,-4.35818642e-01f,+1.33537978e-01f,-1.42988533e-01f,-2.43558794e-01f,
-2.08755925e-01f,-3.53357270e-02f,-5.58334291e-01f,-2.27118924e-01f,+2.92288572e-01f,
+5.04528210e-02f,-6.17199004e-01f,-3.57845902e-01f,+4.61663961e-01f,+1.31257594e-01f,
+1.18736766e-01f,-2.43301485e-02f,-2.74589300e-01f,+1.49122193e-01f,+6.22314453e-01f,
+2.34145924e-01f,};
k2c_tensor batch_normalization_beta = {&batch_normalization_beta_array[0],1,96,{96, 1, 1, 1, 1}};


float dense_1_0_output_array[96] = {0};
k2c_tensor dense_1_0_output = {&dense_1_0_output_array[0],1,96,{96, 1, 1, 1, 1}};
float dense_1_kernel_array[9216] = {
-5.32310195e-02f,-1.52088001e-01f,-2.18390867e-01f,+5.10863997e-02f,-2.26524428e-01f,
+1.09975927e-01f,-5.71599901e-02f,-6.81019872e-02f,+6.92297891e-02f,-2.64383405e-02f,
+2.01195851e-01f,+2.37896279e-01f,+6.27856553e-02f,+1.88934989e-02f,-8.25028121e-02f,
-1.43104047e-01f,+1.27508203e-02f,+2.26501957e-01f,+1.61914751e-01f,+6.32958114e-02f,
-4.75943424e-02f,-1.76869277e-02f,+1.40867606e-01f,+4.02432829e-02f,-1.08635277e-01f,
-1.92037150e-01f,-1.72446594e-01f,+1.46422356e-01f,+1.03223667e-01f,-4.55073714e-02f,
+2.21264690e-01f,-2.14831289e-02f,-7.96749815e-02f,+4.41116355e-02f,+9.38448310e-02f,
+1.79102216e-02f,+8.80394969e-03f,+1.87155351e-01f,+1.00947637e-02f,+9.81591642e-02f,
-5.24170659e-02f,+4.61478718e-02f,+2.11654902e-02f,+7.46049546e-03f,+1.38007522e-01f,
+2.40816742e-01f,+9.15451869e-02f,+1.25586018e-01f,-1.49872079e-01f,-8.39512125e-02f,
+2.41188854e-02f,-7.34407380e-02f,+1.20410465e-01f,+6.74885586e-02f,-3.42895746e-01f,
-1.13757690e-02f,+5.70019856e-02f,-1.96643740e-01f,-1.36274517e-01f,-1.08895963e-02f,
-7.66624808e-02f,-2.06501022e-01f,-6.09991141e-02f,+7.84076527e-02f,+2.12947920e-01f,
+8.21100846e-02f,+1.08082011e-01f,+1.12516567e-01f,+8.22459534e-02f,-2.26215348e-01f,
-8.74581486e-02f,-7.06954449e-02f,+7.36013502e-02f,-1.46536767e-01f,-9.11573470e-02f,
-8.72218758e-02f,-1.85942482e-02f,+2.04621747e-01f,-1.63366765e-01f,+1.72844753e-01f,
-7.66396746e-02f,+1.57809377e-01f,-3.59178148e-02f,-1.06801577e-01f,+3.63038518e-02f,
-1.07460998e-01f,-2.30266862e-02f,+1.27853349e-01f,-7.95494393e-02f,-3.66827130e-01f,
+1.21517412e-01f,-9.50288698e-02f,-1.28662735e-01f,-9.43097025e-02f,+8.75463244e-03f,
-8.72351006e-02f,-2.24437434e-02f,-1.34502605e-01f,-2.27967843e-01f,-1.98558178e-02f,
+4.06180285e-02f,-3.35269421e-02f,+6.43223375e-02f,+1.28287300e-01f,+1.75640061e-01f,
+2.13751430e-03f,-2.86820717e-02f,+6.35130629e-02f,+6.80130795e-02f,+1.62811372e-02f,
+7.85655975e-02f,+5.79649992e-02f,+2.40786910e-01f,-3.54312733e-02f,-5.81059884e-03f,
-9.88276601e-02f,-9.06564668e-03f,-5.66788986e-02f,-4.98507991e-02f,+5.10705113e-02f,
-6.71813637e-02f,+5.83299547e-02f,+1.99606508e-01f,+5.78558408e-02f,-4.67732623e-02f,
-3.03537101e-02f,-1.44466355e-01f,-2.44750418e-02f,-1.31687194e-01f,-1.20491430e-01f,
+3.60467173e-02f,+1.38619393e-01f,+5.42331822e-02f,+1.47870049e-01f,+3.22002321e-02f,
+1.02600478e-01f,+3.19935344e-02f,-9.46693402e-03f,-3.33462283e-02f,-1.93623334e-01f,
+5.34346886e-02f,-1.92860886e-02f,+6.29636720e-02f,-2.27676742e-02f,-2.04199240e-01f,
+1.83349904e-02f,-5.93929132e-03f,-1.81502879e-01f,+4.30203304e-02f,-4.26898375e-02f,
+2.58455157e-01f,-2.77856618e-01f,+5.23604127e-03f,+2.17653643e-02f,-1.00059725e-01f,
+6.87835086e-03f,-2.16453508e-01f,+2.56714851e-01f,+4.67715152e-02f,+7.10474178e-02f,
-1.07733466e-01f,+7.85122514e-02f,+1.24642923e-01f,+8.23224895e-03f,+7.66156390e-02f,
+3.39957058e-01f,+2.26709377e-02f,+4.65329945e-01f,-2.07135811e-01f,+5.24660163e-02f,
+1.50724828e-01f,+6.18753992e-02f,-1.61662418e-02f,+1.30886380e-02f,-2.55277343e-02f,
-9.24945399e-02f,+1.72126815e-01f,+3.03287655e-02f,+1.04238704e-01f,-5.50233461e-02f,
+4.90822457e-02f,+8.46470520e-02f,+5.99197410e-02f,-1.84379935e-01f,+6.81196749e-02f,
+2.74579562e-02f,-4.46631610e-02f,+3.63673009e-02f,-4.11063507e-02f,+1.20915413e-01f,
+2.59241790e-01f,-2.19964579e-01f,+6.63746968e-02f,-2.22548068e-01f,-6.85046911e-02f,
-1.36509597e-01f,+2.00670678e-02f,+6.36883900e-02f,-2.34627619e-01f,-1.96189852e-03f,
-2.98216604e-02f,-6.84183985e-02f,-1.22798793e-01f,+1.40594825e-01f,+5.40264770e-02f,
-2.48859301e-01f,-2.28388440e-02f,-1.32407889e-01f,-5.16780932e-03f,-1.76606141e-02f,
+7.06536770e-02f,-6.33662120e-02f,-1.07601143e-01f,-2.72942744e-02f,-2.07623556e-01f,
-1.66763157e-01f,+1.50789246e-01f,-1.81207538e-01f,-5.27116098e-02f,-2.46598255e-02f,
-3.69765982e-02f,+3.27487700e-02f,+7.29321986e-02f,+3.82764935e-02f,+6.39125705e-03f,
-1.47750765e-01f,+5.93566187e-02f,-1.34424837e-02f,-1.82892635e-01f,-1.95676431e-01f,
-2.28750929e-01f,-7.52905384e-02f,-2.11803585e-01f,-1.26363322e-01f,-1.22013465e-01f,
-5.18259518e-02f,-3.28040347e-02f,+1.73660845e-01f,-2.23211154e-01f,+9.31091607e-02f,
+9.28903744e-02f,-9.79382768e-02f,-4.39528525e-02f,-8.68132897e-03f,-2.48026192e-01f,
-7.52729997e-02f,+1.20037213e-01f,-1.63243145e-01f,+1.84070524e-02f,-5.90926707e-02f,
+1.16150461e-01f,+7.92837366e-02f,+8.71218089e-03f,+7.66770989e-02f,-5.34030944e-02f,
-7.97604546e-02f,-6.63457513e-02f,-3.14345919e-02f,+7.30437189e-02f,-1.55833662e-01f,
-1.38042241e-01f,+2.57035308e-02f,-1.22535579e-01f,+2.69397162e-02f,+8.50741565e-02f,
-3.66779454e-02f,+1.36912346e-01f,+4.99072187e-02f,-1.44095169e-02f,+2.15067100e-02f,
-7.22993538e-02f,+1.04359247e-01f,-8.64757448e-02f,+1.12325273e-01f,+1.40733812e-02f,
-9.12449136e-02f,+3.49159352e-02f,-6.54947478e-03f,-1.86066538e-01f,+1.31349310e-01f,
-2.92600989e-02f,+4.31704372e-02f,+1.40732247e-02f,+8.45812261e-02f,+9.91818979e-02f,
+1.29050761e-01f,+2.10278090e-02f,+4.48565930e-02f,+3.10195573e-02f,+1.67945195e-02f,
+9.47774127e-02f,-3.01778674e-01f,+1.19352460e-01f,-7.12857172e-02f,-3.97785716e-02f,
+1.81121781e-01f,+7.86065981e-02f,-2.08235942e-02f,-1.91731244e-01f,-2.61822417e-02f,
+1.46831438e-01f,-1.29484296e-01f,+1.85517713e-01f,-2.25191377e-02f,+6.59953803e-02f,
+1.33068308e-01f,+1.14464499e-01f,-2.72581372e-02f,-1.89169392e-01f,-9.81614515e-02f,
-9.94344577e-02f,-4.43275869e-02f,-1.79565065e-02f,+6.04409501e-02f,+1.03049196e-01f,
-5.94280995e-02f,-5.99531792e-02f,+2.24355003e-03f,-1.30321503e-01f,+1.26292616e-01f,
+1.68108065e-02f,-1.27991974e-01f,+6.37567975e-03f,-1.66035876e-01f,-7.78254271e-02f,
-2.88947523e-02f,-1.34469077e-01f,-4.58786190e-02f,-8.15172866e-02f,+3.63650657e-02f,
+1.05247751e-01f,+1.17306411e-01f,+6.33980781e-02f,-1.73150778e-01f,+7.17933243e-03f,
-1.43639043e-01f,+8.71509761e-02f,-6.87816814e-02f,+1.26451194e-01f,+2.45474242e-02f,
+1.48048177e-01f,-1.54725863e-02f,-7.58675020e-03f,-8.42723027e-02f,-1.58260465e-02f,
-2.47021437e-01f,-2.44686585e-02f,+5.87455705e-02f,+1.13310434e-01f,-6.65720329e-02f,
-8.39923248e-02f,+1.64536953e-01f,-1.27785981e-01f,+6.80048019e-03f,+4.08350676e-02f,
+4.64986674e-02f,+3.58122145e-03f,+1.97893813e-01f,-2.16579199e-01f,-4.38724980e-02f,
-1.34656741e-03f,+1.21584788e-01f,-1.71651598e-04f,-9.32611227e-02f,+7.07660392e-02f,
-8.45531076e-02f,+7.48643503e-02f,+9.60855708e-02f,+3.62440050e-02f,-1.10103488e-01f,
+7.25961551e-02f,-7.33970627e-02f,+1.76882207e-01f,-1.85929567e-01f,-6.19927198e-02f,
-1.70549229e-02f,+1.25063524e-01f,+9.05309469e-02f,+1.78558171e-01f,+7.24463612e-02f,
-3.21695469e-02f,-9.69400629e-02f,+1.24922551e-01f,-2.36664921e-01f,+1.36745080e-01f,
-2.08388761e-01f,-1.81926444e-01f,+6.58199331e-03f,-1.41909018e-01f,-1.62770689e-01f,
-2.25411162e-01f,+9.90879312e-02f,+5.47876619e-02f,+7.38730207e-02f,-2.75114849e-02f,
-2.37519946e-02f,-4.35026102e-02f,+2.33631372e-01f,+7.01956525e-02f,+1.33241877e-01f,
-5.19400574e-02f,-3.25472176e-01f,-3.20627183e-01f,+7.83409849e-02f,-6.38315082e-02f,
+2.09911466e-02f,-7.31232204e-03f,+6.62725791e-02f,+1.95579790e-02f,+1.19637849e-03f,
+2.68000543e-01f,-1.32672340e-01f,-1.20695300e-01f,-8.33085626e-02f,+3.26239429e-02f,
+6.41443813e-03f,-9.37589109e-02f,+2.22764805e-01f,+9.47467536e-02f,-8.45799074e-02f,
-1.20067865e-01f,-9.71630216e-02f,-8.22771713e-02f,+4.14059013e-02f,-1.06398880e-01f,
-1.40106842e-01f,-7.74344727e-02f,-1.34545192e-02f,+1.49892285e-01f,-8.02919269e-02f,
+5.41165322e-02f,-1.38603002e-01f,+9.14297812e-03f,-1.10357746e-01f,-2.57358164e-01f,
+1.64267085e-02f,-1.59659028e-01f,-5.20446263e-02f,-8.40250999e-02f,-5.80013245e-02f,
-6.05165213e-02f,-1.29061356e-01f,+1.14875384e-01f,-8.65039974e-02f,-1.75180092e-01f,
+1.97769284e-01f,-5.88066056e-02f,+1.89745262e-01f,-8.60871598e-02f,+2.50760764e-02f,
-2.58982480e-01f,+7.84670785e-02f,-1.29801258e-01f,+1.06950462e-01f,+2.27638111e-02f,
+1.52642459e-01f,+8.49617347e-02f,-1.05131470e-01f,+6.52413219e-02f,-7.88875148e-02f,
-1.37135834e-01f,-1.30077302e-01f,-3.05940732e-02f,+7.64921531e-02f,+5.61307669e-02f,
-8.42026696e-02f,+4.14588243e-01f,-8.71266946e-02f,+6.68997765e-02f,-1.92514971e-01f,
+7.48847472e-03f,+1.67769734e-02f,-5.45354709e-02f,+1.30310776e-02f,+9.51612964e-02f,
-4.53169830e-02f,-1.72706440e-01f,-1.19706757e-01f,+6.51376497e-04f,-1.25361621e-01f,
-6.61173835e-02f,-4.58448865e-02f,-1.59522176e-01f,-1.14688970e-01f,-2.20766990e-04f,
-4.85835262e-02f,-2.00115237e-02f,-4.15007249e-02f,-1.23839475e-01f,-1.84050500e-01f,
+6.26281202e-02f,+8.25168714e-02f,-4.02125940e-02f,+7.09281266e-02f,-9.07011852e-02f,
+2.06718557e-02f,-5.66378720e-02f,+1.56470940e-01f,+8.05070922e-02f,+5.60485087e-02f,
-3.80320288e-02f,+2.18148932e-01f,-4.69967313e-02f,-9.34405476e-02f,-5.39727602e-03f,
+2.39180159e-02f,-3.91021132e-01f,-4.20507155e-02f,+4.51353304e-02f,-5.88212572e-02f,
+1.89381182e-01f,-3.36661935e-02f,-1.58290237e-01f,-6.11896627e-02f,-1.13718258e-02f,
-1.76582664e-01f,-1.48951977e-01f,+1.58779681e-01f,-1.09053478e-01f,+7.65517130e-02f,
+1.26070589e-01f,-1.10409409e-01f,+2.03091875e-01f,+5.44690713e-02f,+1.00737542e-01f,
-4.57173213e-02f,+1.11946024e-01f,-2.18090434e-02f,+5.08264415e-02f,+9.92011875e-02f,
-1.28334209e-01f,+3.36720310e-02f,+1.73912033e-01f,+1.61134988e-01f,-2.05412760e-01f,
+2.86135320e-02f,+4.83751632e-02f,+1.21507004e-01f,-8.23717564e-02f,+1.90385863e-01f,
+3.10541689e-02f,+1.33377612e-01f,-2.33795475e-02f,+5.41575346e-03f,-1.35548791e-04f,
-1.67825725e-02f,-1.11804400e-02f,+1.67492747e-01f,-3.66151799e-03f,-7.44159967e-02f,
-1.49632376e-02f,-2.89972872e-02f,+1.23054069e-02f,-4.11074758e-02f,+4.94377837e-02f,
+1.06434621e-01f,+9.42656584e-03f,+4.53402102e-02f,+1.34443671e-01f,+1.14984594e-01f,
+1.19583637e-01f,+9.98813361e-02f,-1.12277806e-01f,+6.17978126e-02f,+5.68057448e-02f,
+3.49029116e-02f,+5.62161095e-02f,+1.75687879e-01f,+2.55585849e-01f,-1.94041640e-01f,
+1.75136432e-01f,-1.39254183e-01f,-1.77530870e-01f,+3.15309316e-02f,+1.42503589e-01f,
+1.41298780e-02f,+9.42297578e-02f,+1.35797337e-01f,-4.17210758e-02f,+9.85897426e-03f,
+4.01415348e-01f,-6.48645610e-02f,-1.80035189e-01f,+4.07480270e-01f,-1.43591186e-03f,
-1.04889281e-01f,-5.94276413e-02f,-4.58447039e-01f,+1.07357517e-01f,+1.55500531e-01f,
+1.21499039e-01f,+1.51104163e-02f,-3.69407833e-02f,-5.63130807e-03f,+4.63801399e-02f,
+6.21861592e-02f,-8.20954889e-02f,-2.53561959e-02f,+2.01422021e-01f,+1.12509184e-01f,
-5.10571972e-02f,-4.44082841e-02f,-5.19796126e-02f,+7.14500993e-02f,+1.01816177e-01f,
-5.71648702e-02f,-1.28271520e-01f,-1.05961293e-01f,-1.32309631e-01f,-6.53852597e-02f,
+1.15445293e-01f,-1.32260367e-01f,+2.79959459e-02f,+6.80946782e-02f,+4.76251915e-02f,
-6.84845001e-02f,+2.30110008e-02f,+7.93388635e-02f,+1.88509434e-01f,+7.34600872e-02f,
-1.30509268e-02f,-2.54581153e-01f,-3.07781488e-01f,-4.42224331e-02f,-1.18463412e-01f,
+5.82213886e-03f,+1.26484081e-01f,+1.05356343e-01f,+1.41875893e-01f,-1.54420882e-01f,
-1.19894922e-01f,+4.42710407e-02f,+1.54896215e-01f,+6.51927888e-02f,-1.54499650e-01f,
+1.41927272e-01f,-1.88627362e-01f,-3.15689951e-01f,+2.01043803e-02f,+1.04431115e-01f,
+2.13334686e-03f,-8.73092096e-03f,+1.80224225e-01f,-4.29589935e-02f,-1.41942561e-01f,
+2.56785303e-01f,+1.08666159e-02f,+5.49118631e-02f,+5.40514551e-02f,-4.90397699e-02f,
+2.15414613e-02f,-2.50072870e-02f,-1.17514476e-01f,-1.05649866e-01f,-3.04799289e-01f,
-1.32958561e-01f,-7.70276934e-02f,-6.77088127e-02f,+6.38651624e-02f,-7.60293752e-02f,
-5.87174408e-02f,-7.58758709e-02f,+1.32607386e-01f,-1.96753204e-01f,-8.41250792e-02f,
-6.58218443e-01f,-1.38944358e-01f,-1.99960750e-02f,-1.03008911e-01f,+1.33808717e-01f,
+9.85442027e-02f,+1.48917481e-01f,+1.00538768e-01f,+8.12044069e-02f,-4.82298248e-02f,
-1.10105962e-01f,+1.14561968e-01f,+1.36556163e-01f,-3.13171558e-02f,-6.37153760e-02f,
-1.03974156e-01f,+1.63166281e-02f,-9.52116027e-03f,+5.16086444e-03f,-2.92761642e-02f,
+5.28848656e-02f,-7.51953200e-02f,-4.32658270e-02f,+1.20216735e-01f,+1.39144547e-02f,
+9.67731848e-02f,-4.32158485e-02f,+1.25704601e-01f,-1.35589615e-01f,+1.47479713e-01f,
-5.87612316e-02f,+1.83192044e-01f,+4.83213291e-02f,-4.47211675e-02f,+1.66431561e-01f,
-4.91199493e-02f,+4.37770449e-02f,+4.17486280e-02f,-1.11147821e-01f,+1.37112230e-01f,
+1.07825711e-01f,-9.17482898e-02f,-1.64186910e-01f,-5.55582829e-02f,+4.55828197e-02f,
+9.85354185e-02f,-1.14591524e-01f,-1.51936844e-01f,-2.23633144e-02f,+5.83564118e-02f,
+2.70921625e-02f,+2.04184093e-02f,+1.41642690e-01f,-6.50318787e-02f,-4.13064845e-02f,
+1.83737189e-01f,-3.87938544e-02f,+1.35714084e-01f,+2.01231800e-02f,+8.38448405e-02f,
-1.44025534e-02f,-6.14372976e-02f,-5.99114299e-02f,-5.79314632e-03f,+1.09866068e-01f,
-1.38093948e-01f,+1.94033816e-01f,+1.07067503e-01f,+8.95053223e-02f,+8.54723155e-02f,
-3.05320397e-02f,-1.10791974e-01f,-2.10844249e-01f,+6.09199964e-02f,+6.24657646e-02f,
-1.88102052e-01f,-1.49562046e-01f,-1.34971455e-01f,+1.18332610e-01f,+9.53391939e-03f,
+8.65062624e-02f,+4.09386344e-02f,-1.25092879e-01f,-1.73953980e-01f,+1.09764703e-01f,
-9.35213715e-02f,+1.63272798e-01f,-5.33158295e-02f,+4.31691334e-02f,-4.28566858e-02f,
-1.83572490e-02f,+2.78677382e-02f,+5.38544655e-02f,-5.86504769e-03f,+1.06008731e-01f,
-6.71964511e-02f,+1.25674307e-02f,+8.69493410e-02f,-1.31141201e-01f,+1.02130778e-01f,
+2.02662498e-01f,+2.31194310e-02f,+1.08146310e-01f,-1.80095136e-02f,+4.57640141e-02f,
-1.23801164e-01f,-5.89583442e-03f,+8.59280899e-02f,-8.80052075e-02f,-2.77358834e-02f,
-1.30379662e-01f,+2.31408491e-03f,-4.50767502e-02f,-8.76880586e-02f,-1.07479006e-01f,
-6.38849735e-02f,-1.75941870e-01f,-6.73151761e-02f,+6.68818504e-02f,+9.58897173e-02f,
+3.70548330e-02f,+7.48803988e-02f,+1.26336068e-01f,-7.48927798e-03f,+8.69368911e-02f,
+7.39565492e-02f,-9.64307878e-03f,+9.69327018e-02f,-7.66311288e-02f,-1.21176451e-01f,
-5.97205982e-02f,-1.04343165e-02f,-2.49333024e-01f,-2.13111356e-01f,-5.27112186e-02f,
+1.23580964e-02f,-6.82994053e-02f,-7.24173784e-02f,+1.78455561e-01f,-5.33935949e-02f,
-6.77236021e-02f,+3.47631872e-02f,+1.63928582e-03f,-5.08122183e-02f,+8.89875814e-02f,
-2.03248382e-01f,+5.49036041e-02f,+9.36083570e-02f,+1.24066092e-01f,-2.94237211e-02f,
+4.14993986e-02f,-2.55189370e-02f,+1.71013772e-01f,+9.99006629e-02f,-2.97678143e-01f,
-4.60688844e-02f,-2.25847483e-01f,+7.33449012e-02f,+1.03332937e-01f,-4.58179042e-02f,
-9.27842557e-02f,+3.21852937e-02f,+1.20564438e-01f,+7.11107850e-02f,+3.51021066e-02f,
-6.84204772e-02f,+2.29164045e-02f,-1.33495808e-01f,-5.76603189e-02f,-2.64179092e-02f,
-1.59515545e-01f,+1.17304614e-02f,+7.33727440e-02f,+2.62037441e-02f,+7.02107251e-02f,
-1.63800478e-01f,-5.24010658e-02f,+1.82225078e-01f,-4.97615077e-02f,-7.52540911e-03f,
-7.77562037e-02f,-1.32095397e-01f,-1.65270030e-01f,-4.53170016e-02f,-4.02096100e-03f,
+1.58835769e-01f,-4.17529613e-01f,+7.65481032e-03f,+6.78383857e-02f,+1.60602648e-02f,
+3.59067097e-02f,+1.24499768e-01f,+9.32646915e-02f,+1.68225542e-01f,-3.06527838e-02f,
+4.64633733e-01f,+2.30510667e-01f,-1.71371102e-01f,+1.37762830e-01f,+3.88783514e-02f,
+4.25359942e-02f,-3.31388377e-02f,-4.12895083e-02f,+2.69199461e-02f,+4.78824861e-02f,
+8.87328088e-02f,+6.54421700e-03f,-1.02602370e-01f,+3.21293324e-02f,-1.47652313e-01f,
-6.11196421e-02f,-2.23483846e-01f,-1.58538297e-01f,+5.37590533e-02f,-1.63486019e-01f,
-5.01234978e-02f,+3.13033126e-02f,+1.56485930e-01f,+8.27800184e-02f,+3.97045128e-02f,
-2.08540872e-01f,-5.82949221e-02f,-1.43898740e-01f,+1.66877896e-01f,+1.30899325e-01f,
-1.25943823e-02f,+1.59962505e-01f,-1.24607079e-01f,+1.09142706e-01f,+1.11894850e-02f,
+2.15145648e-02f,+8.53500664e-02f,+6.38490394e-02f,-2.10819617e-02f,-2.51224577e-01f,
-2.92656496e-02f,+6.90968288e-03f,+7.40813836e-02f,-3.61150578e-02f,-1.24581546e-01f,
-7.41076320e-02f,-1.39360622e-01f,-8.39318931e-02f,-5.52066043e-02f,+1.36193470e-04f,
-2.20090821e-01f,-1.07416295e-01f,+8.54558721e-02f,+1.20142229e-01f,+2.18434772e-03f,
+1.15252070e-01f,-1.86116263e-01f,+6.52259495e-03f,+5.85508272e-02f,-2.24859357e-01f,
+1.89786479e-02f,-9.74847302e-02f,-3.22044790e-01f,+1.48616493e-01f,+1.03319645e-01f,
-2.71442607e-02f,+5.45135923e-02f,-4.21420820e-02f,-1.10192768e-01f,-3.33363265e-01f,
-1.54069811e-02f,+6.96496442e-02f,-2.53600746e-01f,-1.65907890e-02f,-1.07653320e-01f,
+2.90036853e-02f,+1.43562898e-01f,+6.43873122e-03f,-3.56072456e-01f,-1.27660379e-01f,
-1.06577992e-01f,+5.77667058e-02f,-1.91446871e-01f,+1.99095547e-01f,+1.50228282e-02f,
-2.87969708e-02f,-2.22870037e-02f,-3.87736112e-02f,-2.45570019e-01f,+1.67873710e-01f,
+1.54823102e-02f,+5.56309894e-02f,-6.24525920e-02f,+4.70437519e-02f,+7.13427216e-02f,
+2.37244610e-02f,-3.80271929e-03f,+1.97522849e-01f,-2.09597908e-02f,-8.95637199e-02f,
-1.91810988e-02f,+8.32894593e-02f,+3.19010243e-02f,-2.12492988e-01f,+2.55359225e-02f,
+5.54923229e-02f,-3.53870429e-02f,+1.04938296e-03f,-1.50229052e-01f,+2.37521660e-02f,
+2.27250695e-01f,+4.33205068e-02f,-1.55780569e-01f,-9.28510576e-02f,+1.65137965e-02f,
-1.72777884e-02f,+7.32598677e-02f,+1.60463810e-01f,+7.71762878e-02f,+9.47551057e-02f,
+1.69601008e-01f,+1.84750278e-02f,+2.25148171e-01f,-3.44116911e-02f,-4.30529490e-02f,
-2.46815663e-02f,+1.41087091e-02f,-1.62316903e-01f,-1.22131243e-01f,+3.50245684e-01f,
+5.34870550e-02f,-8.40871632e-02f,+4.32554223e-02f,+6.07156232e-02f,-1.76386431e-01f,
-8.23953971e-02f,-1.36249125e-01f,-5.60948774e-02f,+4.78361882e-02f,-1.62213862e-01f,
-8.49493593e-02f,-9.01906714e-02f,-4.92336899e-02f,-6.93756342e-02f,-6.72801062e-02f,
+4.91523929e-03f,-7.85318837e-02f,-3.61079089e-02f,+2.78285258e-02f,+8.30144882e-02f,
+1.42997935e-01f,+3.67755927e-02f,+3.59466635e-02f,+5.40569872e-02f,+2.37545241e-02f,
-1.76862299e-01f,+1.18410356e-01f,-3.48723419e-02f,-3.70113961e-02f,+3.23286504e-02f,
+4.60691117e-02f,+4.83094975e-02f,+1.42142817e-01f,-1.88234244e-02f,-1.57418549e-01f,
-1.24853782e-01f,+6.76692352e-02f,+1.61417633e-01f,-2.03018531e-01f,+1.95835471e-01f,
-1.36389673e-01f,+7.92239383e-02f,+1.27046421e-01f,-4.44006175e-02f,-2.71621719e-02f,
-1.49600327e-01f,-1.54955983e-01f,+6.11980297e-02f,+1.13833666e-01f,-4.15454097e-02f,
+1.09754123e-01f,-3.13084908e-02f,+8.05997252e-02f,-3.58472392e-03f,-5.97690828e-02f,
-9.37561318e-02f,-4.68666852e-02f,+8.59789550e-02f,-2.45925691e-02f,+9.14847627e-02f,
+1.20039776e-01f,-1.88551426e-01f,+4.90211621e-02f,+4.12984267e-02f,+6.38026744e-02f,
+7.40010068e-02f,-1.00877330e-01f,+9.87761766e-02f,-5.72591946e-02f,+1.74337655e-01f,
+5.67053305e-03f,+4.26108688e-02f,-5.47730252e-02f,-5.48650101e-02f,+8.47055763e-02f,
-4.13297415e-02f,-4.88574691e-02f,-1.66052252e-01f,-1.30505152e-02f,-1.06592283e-01f,
+2.51016747e-02f,+4.26333249e-02f,-1.56906039e-01f,-1.67550683e-01f,-6.33092038e-03f,
-3.57148908e-02f,+5.99554554e-02f,+3.12030632e-02f,+8.81925449e-02f,+5.70060164e-02f,
-1.02574654e-01f,-6.91647083e-02f,-2.08250545e-02f,-1.18681312e-01f,-1.14039881e-02f,
-1.81194395e-02f,-6.23198263e-02f,-3.85378040e-02f,-1.28893172e-02f,-1.14989420e-02f,
-6.71242326e-02f,-1.81827962e-01f,+4.77466844e-02f,-1.09730557e-01f,-2.75044620e-01f,
-6.34611249e-02f,-2.33476851e-02f,+5.75182140e-02f,+1.11749070e-02f,-2.47157916e-01f,
-1.89197078e-01f,-1.95885301e-02f,+8.59382078e-02f,-2.24424243e-01f,-9.78104994e-02f,
+1.07604703e-02f,-8.82989261e-03f,+6.47638068e-02f,+2.09620241e-02f,+9.95260030e-02f,
+3.67149971e-02f,-7.32886419e-02f,+1.62069183e-02f,-1.59663245e-01f,-1.99091583e-01f,
+1.16901800e-01f,+2.06350431e-01f,+1.45859793e-01f,+8.26091915e-02f,+4.80646305e-02f,
-1.67528614e-01f,+1.62024479e-02f,+2.39122007e-02f,+4.78011481e-02f,-2.28804406e-02f,
-2.19852906e-02f,+1.13498293e-01f,+5.75859770e-02f,-1.38122350e-01f,+6.57103807e-02f,
-1.16206504e-01f,-1.82979882e-01f,+4.36483026e-02f,+7.48584000e-03f,-1.55837536e-01f,
+1.19298451e-01f,+9.56620928e-03f,-7.64259696e-02f,+2.51932085e-01f,-2.02994451e-01f,
-2.62894601e-01f,+2.66588092e-01f,+2.89395871e-03f,+1.63556367e-01f,-3.40715647e-02f,
+1.37977013e-02f,+1.93013042e-01f,+1.15896938e-02f,-7.53078843e-03f,-7.07942806e-03f,
+7.42673129e-02f,+4.39971276e-02f,+8.17288682e-02f,+6.86829016e-02f,+2.05185384e-01f,
+1.36308128e-03f,+8.83563012e-02f,+1.39684036e-01f,-1.74960777e-01f,-7.27420449e-02f,
+5.67445196e-02f,+9.15637016e-02f,-5.51906079e-02f,+9.46828201e-02f,+1.43358648e-01f,
-6.27752617e-02f,+4.12036590e-02f,-2.69655406e-01f,-5.70334829e-02f,+4.12132204e-01f,
-1.17689744e-01f,-8.28600153e-02f,-3.36035602e-02f,+1.65914789e-01f,-9.60638598e-02f,
+2.52479855e-02f,-1.79992393e-01f,-6.77700415e-02f,-2.02919990e-01f,+1.00915529e-01f,
-9.40793008e-02f,-4.83443253e-02f,+6.70620576e-02f,+8.53480026e-03f,-5.83240502e-02f,
+3.59305516e-02f,+3.03801335e-02f,+1.43187657e-01f,+1.79825589e-01f,+2.65702121e-02f,
+1.96691543e-01f,-1.07107259e-01f,-1.79773904e-02f,+9.72322226e-02f,-4.86011803e-02f,
-6.24533668e-02f,+1.62122026e-01f,+9.88156348e-02f,+1.65494472e-01f,+3.59198488e-02f,
-1.80799112e-01f,-2.52596717e-02f,-1.17780760e-01f,+1.46147236e-01f,+4.02079411e-02f,
-1.20280817e-01f,-1.75774202e-01f,+1.26634147e-02f,-1.36999404e-02f,+9.29777250e-02f,
-6.37168884e-02f,+1.02936188e-02f,-2.81500131e-01f,+1.79065213e-01f,-3.78176868e-02f,
+1.51168048e-01f,-8.34992975e-02f,-9.56111774e-02f,-2.42143482e-01f,-5.69536462e-02f,
-2.09913179e-01f,+2.43584756e-02f,+7.98293203e-02f,+1.55779228e-01f,-4.13770862e-02f,
+8.06567818e-02f,-7.40011260e-02f,+7.82308504e-02f,-1.03539620e-02f,+1.31987303e-01f,
-6.93640932e-02f,-1.05592022e-02f,-3.75111140e-02f,+1.74118727e-01f,+1.05883833e-02f,
-5.74670359e-03f,-2.40633518e-01f,-2.71783382e-01f,-8.47770348e-02f,+3.95079739e-02f,
-2.87011880e-02f,+1.06749415e-01f,-8.57771337e-02f,+4.43402790e-02f,-3.64077151e-01f,
+1.67792678e-01f,+2.47895747e-01f,-3.56509089e-02f,-8.99991859e-03f,+5.09882458e-02f,
+7.63727203e-02f,-4.74386625e-02f,-3.54199745e-02f,-1.03339911e-01f,+1.37735009e-01f,
-3.45907435e-02f,+1.83813572e-01f,-2.51699954e-01f,-3.19049880e-02f,+1.46928594e-01f,
-2.10859150e-01f,-4.54409886e-03f,-4.78128949e-03f,-1.72419518e-01f,-1.99078485e-01f,
+3.43750007e-02f,+3.93973403e-02f,-1.50892250e-02f,+1.02878295e-01f,-1.20503865e-02f,
+1.01860151e-01f,-8.66850764e-02f,+6.51522055e-02f,-1.18986763e-01f,-1.61887109e-01f,
-2.15139672e-01f,+2.02360284e-02f,+1.03533551e-01f,+1.10781744e-01f,-6.79309964e-02f,
+4.28148871e-03f,+4.68236506e-02f,-1.22096660e-02f,-2.18062147e-01f,-1.48501113e-01f,
+9.99197140e-02f,-1.75561979e-01f,+1.18464768e-01f,+7.00127035e-02f,-1.25730947e-01f,
-8.38172659e-02f,-2.25452743e-02f,+1.81594983e-01f,-8.58748332e-02f,-3.56656425e-02f,
+7.30909407e-02f,+2.47183442e-02f,-2.06659183e-01f,+2.45641209e-02f,+5.95034659e-02f,
-1.14766583e-01f,+1.27229929e-01f,+9.57220793e-03f,-1.75928921e-01f,+1.67143673e-01f,
-1.95334241e-01f,-1.76231295e-01f,+1.45142108e-01f,+2.29493473e-02f,-3.29695418e-02f,
+2.79736742e-02f,-3.48782167e-02f,-2.63133552e-02f,+1.54361054e-02f,-1.68346465e-01f,
+1.94187020e-03f,+1.46639779e-01f,-1.33924276e-01f,-7.16944933e-02f,-1.04680255e-01f,
+2.10475042e-01f,+1.52847394e-02f,-4.40722480e-02f,+1.18139170e-01f,-4.29498255e-02f,
+8.81200358e-02f,-7.30257183e-02f,+1.58822536e-01f,+8.11285600e-02f,-6.18958995e-02f,
-1.15859974e-02f,+1.15382209e-01f,-9.52525362e-02f,-1.39618758e-03f,+1.40629232e-01f,
+1.04444459e-01f,-1.08542237e-02f,+2.93842107e-02f,+1.29213721e-01f,-5.57962954e-02f,
+2.30948115e-03f,+8.42091963e-02f,+7.18631223e-02f,-6.81345463e-02f,-3.55395377e-02f,
+2.41032764e-02f,-1.04531936e-01f,-1.26089215e-01f,+8.86060447e-02f,+3.01640421e-01f,
+1.05800860e-01f,+6.66540936e-02f,-4.81638825e-03f,+9.85171199e-02f,-1.02474831e-01f,
+1.49059355e-01f,+7.99490064e-02f,+8.76896307e-02f,+1.05616301e-01f,+2.26349458e-02f,
-2.30113007e-02f,+1.80221833e-02f,+1.64901182e-01f,-4.64475527e-02f,-2.66778797e-01f,
-1.22247547e-01f,-1.56792060e-01f,-4.86432090e-02f,-1.61333710e-01f,+7.87380859e-02f,
-2.84686647e-02f,-7.00726584e-02f,-1.06581539e-01f,-2.08328832e-02f,+4.22519892e-02f,
+2.92661369e-01f,-1.22245848e-01f,-8.65188241e-02f,-2.49778703e-01f,-4.22499739e-02f,
+2.97503144e-01f,-5.69491945e-02f,+7.88755435e-03f,-1.25133052e-01f,-1.52216077e-01f,
+3.50568235e-01f,+3.59271094e-02f,-9.47766844e-03f,-6.03784621e-02f,+5.71892709e-02f,
+8.71369019e-02f,-1.35745052e-02f,+4.67415899e-02f,+6.92206174e-02f,+1.02894073e-02f,
-1.10458516e-01f,+2.83075552e-02f,+1.29507959e-01f,-1.02986563e-02f,+2.04089820e-01f,
-7.30967447e-02f,+1.13514215e-01f,-6.89773485e-02f,+4.37272936e-02f,-4.26086225e-02f,
+1.01969190e-01f,-1.28995761e-01f,-1.53589305e-02f,-3.40215825e-02f,-1.33632928e-01f,
+1.12637661e-01f,-1.18200868e-01f,+2.79696524e-01f,-3.60373482e-02f,-1.40003236e-02f,
+7.12788850e-02f,+2.12372188e-02f,+1.92677096e-01f,-2.64954306e-02f,+3.96327674e-02f,
+2.67044634e-01f,+1.51604429e-01f,+7.90396109e-02f,+2.29062585e-04f,-7.04598129e-02f,
-1.36369139e-01f,+1.35316938e-01f,+8.55439380e-02f,-5.77391088e-02f,+1.25677794e-01f,
+6.73776418e-02f,+1.22104645e-01f,-8.93134400e-02f,+1.22653328e-01f,-7.41690397e-02f,
+1.85562566e-01f,+7.78840408e-02f,+6.49851114e-02f,+4.13900620e-04f,+4.83266674e-02f,
+7.93335363e-02f,+2.14647502e-01f,-2.22654152e-03f,-1.20123424e-01f,+3.83201577e-02f,
+1.93727180e-01f,+2.22893693e-02f,+3.42250280e-02f,+2.64292378e-02f,-4.99634147e-02f,
+2.00779825e-01f,+6.20806264e-03f,+3.44128720e-02f,+1.43621325e-01f,-1.32543057e-01f,
-1.30329967e-01f,-9.18552727e-02f,+7.04255775e-02f,-1.60905905e-02f,+4.11661752e-02f,
+6.20148480e-02f,+1.40251309e-01f,+3.35904323e-02f,-1.08577982e-01f,+1.06607102e-01f,
-3.96517441e-02f,+2.04934943e-02f,-3.09548408e-01f,+3.13345715e-02f,-1.40076727e-01f,
-2.35261619e-01f,+1.16613835e-01f,+4.36218418e-02f,-1.35972857e-01f,-8.17912146e-02f,
-3.83187868e-02f,-2.85827275e-02f,-3.69975381e-02f,+1.34488001e-01f,-1.04691654e-01f,
+1.44280493e-01f,-6.93202913e-02f,+7.33367428e-02f,+4.40165401e-02f,+9.01793242e-02f,
+1.50191531e-01f,+9.72269252e-02f,+5.82967065e-02f,-5.50708100e-02f,+2.65211668e-02f,
-5.19520342e-02f,+1.53556362e-01f,+9.71939117e-02f,-1.07127905e-01f,-5.76129034e-02f,
+2.19084486e-01f,-1.14288768e-02f,+8.29714984e-02f,-1.14515893e-01f,-5.05164675e-02f,
+7.52541982e-03f,+1.45714089e-01f,-1.23477675e-01f,-1.79537050e-02f,+4.73296531e-02f,
+2.70871967e-01f,+1.80337261e-02f,+1.32573158e-01f,-9.81465802e-02f,+6.45402959e-03f,
+1.18795492e-01f,-6.76139537e-03f,-5.27485609e-02f,+2.60378942e-02f,+8.35880265e-02f,
+7.62595162e-02f,+3.09670679e-02f,+9.89599824e-02f,+8.90451018e-03f,-1.62388280e-01f,
+2.74056196e-01f,+2.59897262e-01f,+1.62735537e-01f,-2.22544298e-01f,-1.73306718e-01f,
+7.89613277e-02f,+3.99488807e-02f,+1.20638944e-01f,+1.77357662e-02f,+5.98127432e-02f,
-2.26461627e-02f,+3.25070769e-02f,-1.32406369e-01f,-1.02760606e-01f,+1.56244069e-01f,
+1.52842209e-01f,-5.48165850e-02f,-9.13635269e-02f,-1.34151010e-02f,-6.26952723e-02f,
-1.69188529e-02f,+1.46227553e-01f,-3.05386521e-02f,+4.93120812e-02f,-4.39540446e-02f,
+2.82644741e-02f,-1.63133085e-01f,-6.71740845e-02f,+4.03353237e-02f,-3.01783392e-03f,
+3.63292426e-01f,+1.44692399e-02f,+1.17152333e-01f,+1.17969383e-02f,+7.15384856e-02f,
-8.35944116e-02f,-1.49174526e-01f,-1.68227434e-01f,-1.79338350e-03f,+9.01085585e-02f,
+4.36802618e-02f,+1.86114535e-02f,+1.73306055e-02f,+8.41913447e-02f,-2.80299671e-02f,
-7.24035650e-02f,+4.05221730e-02f,+1.59971595e-01f,-8.31467882e-02f,+4.01688255e-02f,
+3.36267352e-02f,+3.29189897e-02f,+1.69798508e-01f,+3.16659780e-03f,+1.61150932e-01f,
-1.06246106e-01f,-6.14878386e-02f,+3.05595752e-02f,-7.49814436e-02f,+1.12735638e-02f,
-1.31882802e-01f,-5.99091575e-02f,-5.03729843e-02f,-1.26798362e-01f,+6.45270348e-02f,
+1.10503867e-01f,+1.11701764e-01f,+6.89148903e-02f,-2.07007691e-01f,-9.36912671e-02f,
+2.64663137e-02f,+1.57126158e-01f,+1.89517543e-01f,+2.54438631e-02f,-1.79768324e-01f,
+1.68384761e-01f,+1.45728514e-01f,+1.37655735e-01f,-2.33608454e-01f,+6.03634566e-02f,
-3.09029426e-02f,-7.29915081e-03f,+1.41935930e-01f,+1.37346417e-01f,+3.31388056e-01f,
+9.63838771e-02f,+1.13754839e-01f,-1.85833126e-02f,-3.21158092e-03f,+5.06398715e-02f,
-2.50109762e-01f,-2.46450871e-01f,+1.18382864e-01f,+4.89812642e-02f,+3.47541086e-02f,
+3.54305794e-03f,+3.27077284e-02f,-3.65150683e-02f,+7.41764158e-02f,-1.29058376e-01f,
-9.35191959e-02f,-5.09412847e-02f,-9.42454562e-02f,-1.98226292e-02f,+1.70742087e-02f,
+1.87521167e-02f,+7.07843527e-02f,-1.00024469e-01f,+1.13434508e-01f,+6.83827922e-02f,
+8.70597363e-02f,+7.26555511e-02f,+1.61237746e-01f,+3.61887217e-02f,+4.76161130e-02f,
+1.28205821e-01f,+1.75115541e-02f,+2.64030427e-01f,-4.26570661e-02f,+2.30743036e-01f,
-8.78701657e-02f,-1.23627715e-01f,+2.52721548e-01f,-2.54996568e-01f,-3.20580453e-01f,
+3.86316255e-02f,-1.68646630e-02f,-4.65663552e-01f,+1.69712827e-01f,+7.73018003e-02f,
-9.30901840e-02f,+2.89316606e-02f,-1.47747979e-01f,-8.76987875e-02f,-1.13354407e-01f,
-6.64674938e-02f,+8.07161778e-02f,-5.41462004e-02f,+5.14908955e-02f,-2.39052281e-01f,
+3.05653393e-01f,-1.82535484e-01f,-2.10909754e-01f,-3.52242030e-03f,-1.37648240e-01f,
-6.77223802e-02f,-1.85242072e-02f,+9.11233276e-02f,-1.31297454e-01f,+3.32542568e-01f,
+9.14297476e-02f,-1.37554882e-02f,+1.58348009e-02f,-9.49554145e-02f,+5.82725629e-02f,
-7.24281669e-02f,+1.09512387e-02f,-5.26595674e-03f,+2.00676873e-01f,+5.03652955e-05f,
-1.90959573e-01f,+2.72494964e-02f,+1.47254974e-01f,-1.21453218e-01f,+5.31413220e-03f,
-2.43116498e-01f,-1.46384433e-01f,+1.51569307e-01f,+2.61323880e-02f,+9.10212547e-02f,
+2.81464700e-02f,+4.38815542e-02f,+8.37290958e-02f,+9.52367559e-02f,-1.73320457e-01f,
+2.16612592e-01f,-1.57236427e-01f,+2.50377715e-01f,-1.49117067e-01f,+2.76105016e-01f,
+1.74183577e-01f,-1.83035880e-01f,+1.69995174e-01f,-9.00582299e-02f,-1.42709121e-01f,
-9.42423269e-02f,+1.43478036e-01f,-1.01928599e-01f,-5.07311476e-03f,-5.94679601e-02f,
+1.97307244e-01f,+2.18142971e-01f,-1.28091231e-01f,+2.83084899e-01f,+1.31258229e-02f,
-2.62620687e-01f,+1.15824342e-01f,-3.47545184e-02f,+2.37906829e-01f,+1.84287643e-03f,
+1.07945561e-01f,+1.10540405e-01f,-1.16006799e-01f,-1.63467303e-02f,+2.13228781e-02f,
-5.05553335e-02f,+1.70634955e-01f,+9.33139771e-02f,-5.55288978e-02f,-5.42949140e-01f,
+1.35881215e-01f,-1.84907526e-01f,-8.58519450e-02f,+4.34529446e-02f,-2.06274405e-01f,
-6.52802736e-02f,-7.81408027e-02f,+7.74950832e-02f,+7.03633875e-02f,+5.78062423e-02f,
+1.62934452e-01f,+2.29362864e-02f,-4.39802781e-02f,-1.51251918e-02f,-3.71548831e-02f,
+8.20110142e-02f,-3.76761258e-02f,-1.95703596e-01f,-2.02584080e-02f,-2.75824927e-02f,
-4.65746000e-02f,-1.32817760e-01f,+6.57318234e-02f,-3.39435674e-02f,+1.57262176e-01f,
+1.65673018e-01f,+1.21373288e-01f,+9.47639644e-02f,-8.66375957e-03f,-1.44272134e-01f,
+3.74207995e-03f,-8.76856595e-02f,-4.25257534e-02f,-3.25991623e-02f,-3.82731436e-03f,
-1.56401023e-01f,+1.67105943e-01f,+4.94606495e-02f,+1.52813405e-01f,+5.34756444e-02f,
+1.00019880e-01f,+5.95941246e-02f,+1.14634976e-01f,+7.84451887e-02f,-1.29072458e-01f,
+1.60531849e-02f,-1.84409339e-02f,+3.08805816e-02f,+1.11198407e-02f,+7.05672801e-02f,
-1.70839410e-02f,-6.17659763e-02f,-6.00768924e-02f,-4.47122864e-02f,-1.57795101e-01f,
+1.08848326e-01f,-4.34128754e-02f,+2.32686754e-02f,+9.77380015e-03f,+9.34624746e-02f,
+9.85160377e-03f,-5.22410497e-02f,-2.03480236e-02f,-1.74942873e-02f,+1.22699782e-01f,
+1.02776773e-02f,-8.39047879e-02f,+3.05466373e-02f,+1.65861323e-01f,+2.57267535e-01f,
+6.24261089e-02f,-1.20438784e-02f,+6.04799166e-02f,-1.96721591e-02f,+6.66053826e-03f,
+2.15245441e-01f,-1.76599622e-01f,+1.18363425e-02f,+8.70064646e-02f,+7.85705633e-03f,
-9.24199894e-02f,-3.20134312e-02f,-1.05072506e-01f,+7.74114858e-04f,-3.72975208e-02f,
-2.02842951e-02f,-1.91260919e-01f,+3.98367494e-02f,-1.18932299e-01f,-2.12787408e-02f,
+3.14412303e-02f,+2.01228350e-01f,+1.90499262e-03f,-8.20538625e-02f,-2.73654729e-01f,
+4.13526036e-02f,+1.64811388e-02f,-1.05209351e-01f,-8.93396959e-02f,+8.15530345e-02f,
+1.18777066e-01f,+7.41988122e-02f,+5.52518852e-02f,-1.91353653e-02f,-9.43543315e-02f,
+6.75694435e-04f,+4.87676747e-02f,+9.96890143e-02f,-5.10588475e-02f,+5.91902360e-02f,
+1.20543309e-01f,-1.24176398e-01f,-3.33469287e-02f,-1.41032994e-01f,-3.54223043e-01f,
+7.36538470e-02f,-1.72914207e-01f,+3.29439081e-02f,-1.57386020e-01f,+2.65637282e-02f,
+1.76103152e-02f,+1.09568667e-02f,-1.17832080e-01f,-1.92983776e-01f,+9.32650920e-03f,
+6.89619929e-02f,-5.21656349e-02f,+7.51182288e-02f,-1.29377782e-01f,+2.14377381e-02f,
+1.33781999e-01f,-2.59095132e-01f,+3.88029106e-02f,-3.38046551e-02f,+5.74596524e-02f,
+1.07233778e-01f,+6.93912134e-02f,-2.02906474e-01f,+2.68296897e-02f,+9.87983868e-03f,
-8.63351896e-02f,+5.16978540e-02f,-2.42684595e-02f,+1.36277433e-02f,+1.22245640e-01f,
+9.51183215e-02f,-1.47871658e-01f,-1.67999893e-01f,-6.36139959e-02f,-8.93163085e-02f,
-3.21726859e-01f,-7.16160834e-02f,+4.93481383e-02f,-9.49044600e-02f,+3.46051529e-02f,
+9.30298045e-02f,-2.49621883e-01f,-3.22327673e-01f,+8.43216553e-02f,-3.45240114e-04f,
-8.77821892e-02f,+5.11700884e-02f,+3.08498349e-02f,-1.31994933e-01f,-8.97850469e-02f,
+9.34423506e-02f,+9.68954787e-02f,-1.49961077e-02f,-2.79625673e-02f,+1.98555253e-02f,
+7.08999783e-02f,+2.92349812e-02f,-4.02200148e-02f,+3.13043930e-02f,-1.18673379e-02f,
+1.68417200e-01f,+4.71398123e-02f,+1.74525380e-02f,+2.36219112e-02f,+2.39618777e-04f,
+1.49010107e-01f,-1.37249142e-01f,-7.19749629e-02f,-6.06558751e-03f,+1.98980257e-01f,
+1.89162251e-02f,+1.50290728e-02f,-2.30677336e-01f,+1.93353333e-02f,-8.46656039e-02f,
-4.97937389e-02f,-2.56333090e-02f,-3.16593125e-02f,-3.19415092e-01f,-1.23375393e-01f,
+1.29078060e-01f,+8.22930560e-02f,-6.02413667e-03f,+1.03358239e-01f,+1.40325099e-01f,
+6.10607937e-02f,+1.00605711e-01f,-1.45074770e-01f,-9.74056348e-02f,-1.36693031e-01f,
-2.55830228e-01f,-7.85795674e-02f,+2.26244539e-01f,+2.13440612e-01f,+3.66404951e-02f,
+8.44041184e-02f,+2.15367358e-02f,+1.13278382e-01f,-1.04067691e-01f,-1.31101623e-01f,
+1.46582350e-01f,-6.92416653e-02f,-2.63031833e-02f,+1.10313110e-01f,+1.22015299e-02f,
+1.13809973e-01f,-2.16624141e-02f,+8.18243308e-04f,-4.91864644e-02f,+3.27915922e-02f,
-2.84393221e-01f,+8.89549218e-03f,+1.31331936e-01f,+2.27071404e-01f,+7.60597689e-03f,
-1.67833358e-01f,-8.86296039e-04f,-1.91064999e-01f,+7.42671713e-02f,+1.50326116e-03f,
+1.09284021e-01f,-9.86524299e-02f,+5.94991483e-02f,+3.33524421e-02f,+1.58033103e-01f,
-5.32931499e-02f,+2.20761821e-01f,+3.63425426e-02f,+1.00396313e-01f,+3.70240137e-02f,
+1.55922547e-01f,+5.35365380e-02f,-1.88995674e-01f,-1.02601565e-01f,+6.20978028e-02f,
+1.22479945e-02f,-2.43939087e-01f,+6.91465735e-02f,-1.95944458e-01f,+5.06267212e-02f,
+1.24348029e-02f,+1.01494558e-01f,+2.49657724e-02f,+5.24172373e-02f,+7.82847330e-02f,
+5.78985475e-02f,-3.31857741e-01f,+1.82865486e-02f,+1.18452542e-01f,-1.36954278e-01f,
+1.36127770e-01f,+5.86962849e-02f,+3.68063599e-02f,-4.10473168e-01f,+1.00539420e-02f,
+2.89281141e-02f,-1.84705835e-02f,+7.09007829e-02f,+2.07159650e-02f,+1.69658303e-01f,
-1.65892586e-01f,+1.47783920e-01f,+4.89208288e-02f,-2.95652393e-02f,-7.59591982e-02f,
+3.88584882e-02f,-1.04938135e-01f,+4.47337478e-02f,+5.81745990e-02f,-6.47548214e-02f,
-1.72425546e-02f,-1.09869249e-01f,+7.04697073e-02f,-8.30187052e-02f,-3.47016528e-02f,
+5.57377702e-03f,+1.29935682e-01f,+1.47433370e-01f,+5.38817756e-02f,-1.41511589e-01f,
+3.07840705e-02f,+4.03028503e-02f,+4.71841060e-02f,+1.21112116e-01f,+3.56897227e-02f,
-1.05178274e-01f,+6.32120818e-02f,+1.33818183e-02f,-1.44248292e-01f,-3.11858449e-02f,
-7.91091695e-02f,-3.25544327e-01f,-1.10080494e-02f,-2.97620118e-01f,+6.99734911e-02f,
-7.67899007e-02f,-1.15267143e-01f,+1.57061756e-01f,+1.10357795e-02f,-2.39853710e-01f,
-2.63844263e-02f,-9.65188891e-02f,+2.55721640e-02f,-1.77345291e-01f,+3.97032686e-02f,
-6.39042556e-02f,-1.08427651e-01f,+5.86850606e-02f,-6.82045966e-02f,-8.31485689e-02f,
-9.67249498e-02f,+9.39005241e-02f,+3.83499078e-02f,-1.73696622e-01f,+3.14593762e-02f,
+1.38683796e-01f,+1.20096058e-01f,-1.13811400e-02f,-4.69648093e-03f,+1.25247613e-02f,
-2.61192769e-01f,+9.24766436e-03f,+1.21588213e-03f,-3.36227082e-02f,+3.68024781e-02f,
-6.58182129e-02f,-1.20383345e-01f,-3.92390102e-01f,+4.33295444e-02f,-6.08027801e-02f,
-4.48222123e-02f,+8.95706043e-02f,+6.28637746e-02f,-1.12658128e-01f,+5.56438304e-02f,
+8.65115672e-02f,+1.30547835e-02f,-8.34617168e-02f,-2.55436927e-01f,-9.10879299e-02f,
+1.62617579e-01f,-4.21089940e-02f,+1.77399702e-02f,+6.51410669e-02f,-8.89672861e-02f,
+1.40170543e-03f,-1.83047518e-01f,+1.83187574e-01f,+8.61955807e-03f,-3.94903235e-02f,
-6.08802959e-02f,+9.41328481e-02f,+2.41664097e-01f,-8.14071223e-02f,-8.30400586e-02f,
+5.15880175e-02f,-5.62679134e-02f,-9.37482268e-02f,-3.63237783e-02f,+3.47796381e-02f,
-6.27219304e-02f,-7.94002414e-03f,+1.60287797e-01f,+6.41467571e-02f,+3.94609105e-03f,
+1.50483727e-01f,+1.36431307e-01f,-3.98483202e-02f,-8.79297778e-03f,-1.25887655e-02f,
-6.66885674e-02f,+1.06565431e-01f,+3.43794934e-03f,+5.93931451e-02f,-1.98087826e-01f,
+3.69396545e-02f,-9.99221578e-02f,-1.32937193e-01f,-5.19589223e-02f,+1.64839000e-01f,
-4.06770818e-02f,-5.03480248e-02f,-6.27716677e-03f,+2.60424451e-03f,-1.51875705e-01f,
+5.40533513e-02f,-5.04373908e-02f,+6.93475828e-02f,-7.37368539e-02f,+1.07103750e-01f,
+2.48948857e-01f,-2.65582770e-01f,-6.82308385e-03f,-3.63256596e-03f,-7.54586281e-03f,
-6.76059118e-03f,+2.75249705e-02f,-2.44589120e-01f,-2.80652463e-01f,-9.26797464e-02f,
-7.79470801e-02f,+5.10920547e-02f,-3.69826294e-02f,-8.12520906e-02f,+1.18936338e-01f,
-1.29600048e-01f,+3.30113247e-02f,-5.68016879e-02f,-2.28303373e-01f,+1.23433657e-01f,
-1.27948850e-01f,+1.59076095e-01f,-9.62719098e-02f,+1.92837138e-02f,-1.75661206e-01f,
-1.02277860e-01f,-3.12571973e-02f,+9.28778276e-02f,-8.54199287e-03f,+5.60058793e-03f,
+1.35374948e-01f,-6.66542202e-02f,+7.26351365e-02f,+8.23100358e-02f,+6.08750805e-02f,
+1.03661671e-01f,+2.55273916e-02f,+3.88666727e-02f,+4.54906859e-02f,-6.62504733e-02f,
-6.93897083e-02f,-1.49527311e-01f,-4.59933467e-02f,-9.58439335e-02f,-1.81121305e-02f,
-7.66526312e-02f,-1.27994552e-01f,-9.15982053e-02f,+1.02744527e-01f,+3.29617113e-02f,
+1.54843777e-01f,-1.74819529e-01f,+1.46110386e-01f,-3.24874789e-01f,-9.92983952e-02f,
+3.71541418e-02f,-5.88240959e-02f,+1.06512927e-01f,+3.02902274e-02f,-5.15010580e-02f,
-1.71082169e-02f,+3.81887779e-02f,+8.43755752e-02f,+1.64033934e-01f,-1.58298105e-01f,
+1.03015356e-01f,-8.70986134e-02f,+5.29248826e-02f,-2.65828907e-01f,-1.65022369e-02f,
-1.12532936e-01f,-3.34960818e-02f,-9.40746143e-02f,-1.42413422e-01f,-1.90867543e-01f,
-6.20038770e-02f,+4.06830758e-02f,+9.10287946e-02f,+1.07799647e-02f,+1.32635206e-01f,
-1.23110630e-01f,-1.36075169e-01f,-9.92725566e-02f,+1.53094307e-01f,+1.11962676e-01f,
-1.34460166e-01f,-8.14929605e-03f,-4.44724560e-02f,+2.08774414e-02f,-1.19357537e-02f,
+7.69005939e-02f,+1.33376107e-01f,+1.69663623e-01f,+9.54845455e-03f,-1.02654979e-01f,
+1.19742468e-01f,-1.03002340e-01f,-1.35126695e-01f,-7.16415867e-02f,+1.07981205e-01f,
+1.40756875e-01f,+3.46013419e-02f,-5.19589856e-02f,-1.48987304e-02f,-1.91965941e-02f,
-3.05244997e-02f,-1.50146529e-01f,-6.48471862e-02f,-9.80204158e-03f,-3.03560961e-02f,
+1.10719008e-02f,-1.73281983e-01f,+1.22919932e-01f,+4.14957479e-02f,-1.80392906e-01f,
-1.53659359e-01f,+1.66316226e-01f,+4.67611030e-02f,-8.89490917e-02f,+1.81628769e-04f,
-6.50911778e-03f,-3.60234231e-02f,-5.20361029e-02f,-7.44274855e-02f,-1.78951859e-01f,
+6.68465495e-02f,+2.80047581e-02f,+6.56839041e-03f,+2.04244256e-01f,+5.37540466e-02f,
+1.56375334e-01f,+1.01385564e-01f,+9.57737342e-02f,+1.71545163e-01f,+1.14710808e-01f,
+4.87570129e-02f,+5.35941496e-02f,-2.12426394e-01f,+4.79688384e-02f,-1.32103907e-02f,
+8.80583599e-02f,-1.72143027e-01f,+3.07560316e-03f,-1.32553101e-01f,+7.85335749e-02f,
+2.06939150e-02f,+1.38537541e-01f,-6.75599352e-02f,-1.84796527e-02f,-4.33133990e-02f,
-7.72495344e-02f,+1.57433331e-01f,+8.88122916e-02f,-1.18227147e-01f,+3.34940217e-02f,
+2.08559647e-01f,-4.36937287e-02f,+8.32840502e-02f,+6.06778637e-02f,+1.04766421e-01f,
-5.19087799e-02f,-1.88073739e-02f,+2.90953182e-02f,-8.19563866e-02f,+3.65671813e-02f,
+4.01313156e-02f,+5.02906516e-02f,-7.89270643e-03f,-1.08580522e-01f,-2.06805885e-01f,
-2.95384116e-02f,-1.45506756e-02f,-9.47400481e-02f,-3.00592892e-02f,+1.55433923e-01f,
+1.27033606e-01f,-6.18616976e-02f,-1.19046226e-01f,+8.13765898e-02f,+1.02129027e-01f,
-1.16182067e-01f,+1.69454113e-01f,-1.13749258e-01f,-2.29149982e-02f,+1.31048843e-01f,
+1.58530816e-01f,-1.45725176e-01f,-3.98727581e-02f,+9.87041160e-04f,+2.26361260e-01f,
+1.28326537e-02f,+8.27085823e-02f,+1.34513393e-01f,-2.29341120e-01f,+3.62391248e-02f,
+7.70664439e-02f,+7.11537572e-03f,-4.02851440e-02f,+1.11006975e-01f,-3.00268810e-02f,
-2.85367638e-01f,-4.57756072e-02f,+1.05952591e-01f,-4.92765456e-02f,-2.56646927e-02f,
-2.03744352e-01f,-1.14281446e-01f,-3.33798788e-02f,-7.18106106e-02f,+1.69980451e-01f,
-1.78738490e-01f,-1.10326752e-01f,-8.61055553e-02f,-1.39393970e-01f,+1.46077359e-02f,
+9.32533592e-02f,+5.66743733e-03f,-8.23536515e-02f,-1.42748326e-01f,-7.18347356e-02f,
-3.68788280e-02f,-6.41050041e-02f,-2.02881526e-02f,-3.67990807e-02f,-1.16743222e-02f,
+2.24951923e-01f,+7.15811923e-02f,-6.38169572e-02f,+4.33885008e-02f,-4.26382147e-04f,
+3.20919044e-02f,+1.21632092e-01f,-3.07671037e-02f,-4.15724562e-03f,+6.08416088e-02f,
+6.03348687e-02f,-7.27812871e-02f,-2.24732950e-01f,+1.87146366e-02f,+7.92457834e-02f,
+8.21639374e-02f,+8.92012864e-02f,+7.38288611e-02f,-7.20345527e-02f,-2.59178989e-02f,
-1.86112430e-02f,-1.03235640e-01f,-2.60547064e-02f,+7.51603842e-02f,+4.14384864e-02f,
+1.12809744e-02f,+1.27374241e-02f,-1.17475376e-01f,-7.61980889e-03f,+2.65807826e-02f,
+7.24801496e-02f,+1.60109270e-02f,-1.76287338e-01f,+9.99119580e-02f,+4.12014015e-02f,
-2.31576279e-01f,+1.42442510e-02f,-2.53537204e-02f,-2.83625312e-02f,-5.11098001e-03f,
+5.98340891e-02f,-3.37746553e-02f,-4.66786057e-01f,-1.95408702e-01f,+6.31568721e-03f,
+1.63461280e-03f,-7.56969601e-02f,+1.77030504e-01f,+2.38090623e-02f,+6.05504587e-02f,
+1.12192638e-01f,+5.53624108e-02f,+3.36375716e-03f,-1.09452412e-01f,+5.30172959e-02f,
+6.83323666e-02f,+1.03645064e-01f,-1.77335501e-01f,+1.42218649e-01f,+1.35006696e-01f,
+1.24876030e-01f,+2.17944041e-01f,+5.37167788e-02f,-1.71603318e-02f,-3.31285736e-03f,
-3.71740729e-01f,-2.94020891e-01f,+1.20873274e-02f,-8.88798460e-02f,-9.75138471e-02f,
+8.36414918e-02f,+4.65099700e-02f,-8.01972747e-02f,-5.12714013e-02f,+7.10455477e-02f,
-3.82833555e-02f,+5.47427908e-02f,+1.60590515e-01f,-1.08873591e-01f,+8.30986053e-02f,
-2.75691807e-01f,+1.57535240e-01f,-1.50374681e-01f,-4.17575426e-02f,+7.96401277e-02f,
+1.82128653e-01f,-4.01747450e-02f,+1.07999325e-01f,-1.67608753e-01f,+1.14402711e-01f,
-3.66904922e-02f,+6.24069944e-02f,+4.00277637e-02f,+1.03301592e-01f,-2.19260231e-01f,
+1.47880211e-01f,-1.16064698e-01f,-3.21054831e-02f,-7.22496361e-02f,-3.54089513e-02f,
-1.59919128e-01f,-1.41423032e-01f,-1.12817094e-01f,+5.84007055e-02f,-4.31806110e-02f,
-6.13747425e-02f,+5.36517873e-02f,+5.23641445e-02f,+7.55278580e-03f,+5.04182745e-03f,
+1.09741867e-01f,-2.17474654e-01f,-2.24463746e-01f,-1.42257467e-01f,-1.21031769e-01f,
-1.64994553e-01f,+6.26041442e-02f,+3.77356410e-02f,-7.47100264e-02f,+1.10603787e-01f,
+9.02393013e-02f,+2.07761586e-01f,+2.48332825e-02f,-3.08527172e-01f,+1.96498200e-01f,
-2.39177167e-01f,-1.61541775e-02f,+1.63574308e-01f,-2.88073029e-02f,+9.18442905e-02f,
-9.74678174e-02f,-1.05585836e-01f,-2.26336196e-02f,+1.60455868e-01f,+1.21306139e-03f,
+2.45763063e-02f,+9.08300802e-02f,-5.26400357e-02f,+7.50964284e-02f,+1.15897387e-01f,
-4.90086302e-02f,-1.02251865e-01f,-3.93370450e-01f,-3.18539962e-02f,+1.00630008e-01f,
-5.56683242e-01f,+6.03441298e-02f,+1.90047529e-02f,+9.75980889e-03f,-2.16518026e-02f,
-4.29511033e-02f,-2.95930803e-01f,+5.02024181e-02f,+1.42440230e-01f,+1.72934644e-02f,
+5.48079722e-02f,-3.09203402e-04f,-4.23251912e-02f,-5.82579263e-02f,+1.10292956e-01f,
-4.46286872e-02f,+1.69123560e-02f,-1.86668515e-01f,+2.36468092e-01f,+3.85557301e-02f,
+2.41946336e-02f,+5.66495918e-02f,-4.35847454e-02f,+4.71004024e-02f,+1.47357807e-02f,
+2.45406833e-02f,+2.00149253e-01f,-1.13473356e-01f,+1.35437652e-01f,+3.59524563e-02f,
-6.31787023e-03f,-2.57738382e-01f,-1.17143057e-01f,+2.89223529e-02f,-2.81331260e-02f,
-3.77626047e-02f,+1.29402474e-01f,-8.37843195e-02f,+2.16350555e-02f,-4.75865928e-03f,
-4.54559140e-02f,-1.07293703e-01f,+1.25251785e-01f,+3.71876024e-02f,+1.34548724e-01f,
-5.43196946e-02f,-5.45862876e-03f,-6.93731084e-02f,-5.64713776e-02f,+2.24509656e-01f,
+9.76679027e-02f,+7.97290877e-02f,-2.03653276e-01f,+8.49677622e-03f,+3.10101658e-02f,
+3.47834900e-02f,+7.87406564e-02f,-4.88836654e-02f,-2.15154320e-01f,-4.16034982e-02f,
-1.02330007e-01f,-6.84808791e-02f,-9.63045135e-02f,+8.22053254e-02f,-1.55095562e-01f,
+2.25080028e-02f,+1.47179186e-01f,+2.30073854e-02f,+1.17632322e-01f,-1.05418533e-01f,
+7.95239490e-03f,-1.37502581e-01f,-8.71456191e-02f,-2.99206488e-02f,+1.92437489e-02f,
+3.06445137e-02f,+9.67020318e-02f,-3.79179977e-02f,+1.63345352e-01f,-2.57638544e-02f,
-9.67776924e-02f,+5.90434764e-03f,+4.25334089e-02f,+5.95863424e-02f,-1.16657722e-03f,
-1.21500574e-01f,+8.29612613e-02f,+1.45042703e-01f,-1.20812297e-01f,-1.61893249e-01f,
+6.16550185e-02f,+1.07548870e-02f,-1.42906442e-01f,-3.32263976e-01f,+1.41580477e-01f,
-9.94567797e-02f,+5.91965988e-02f,-2.29188055e-01f,-8.63772631e-02f,+1.38704747e-01f,
+3.22832167e-02f,+1.10625781e-01f,-3.24485078e-02f,+1.14470981e-01f,+8.38432610e-02f,
-1.59697056e-01f,-2.52610203e-02f,-1.65760562e-01f,+1.03601530e-01f,-5.29764853e-02f,
+4.72024269e-02f,+2.07351316e-02f,-3.54450762e-01f,-3.29289474e-02f,+2.62102365e-01f,
-7.62814134e-02f,-3.14637214e-01f,-1.03747919e-01f,+2.45263968e-02f,-1.07464388e-01f,
+1.11486159e-01f,+1.68855600e-02f,+7.87497833e-02f,+1.25707686e-01f,+2.44505354e-03f,
-1.05275244e-01f,+7.08962530e-02f,+2.73091167e-01f,+1.94599420e-01f,+1.14857852e-02f,
-8.18102658e-02f,+1.29811406e-01f,+3.98255661e-02f,+3.76702286e-02f,-3.57409537e-01f,
-4.06080857e-02f,+1.71043202e-01f,-9.77336913e-02f,-2.25607857e-01f,+1.25934035e-01f,
-3.54676813e-01f,-8.69442374e-02f,+1.36416018e-01f,-1.44886047e-01f,-8.66922811e-02f,
+4.19097245e-02f,+2.85483189e-02f,-2.36776873e-01f,-1.79210037e-01f,-2.85824209e-01f,
+8.61812532e-02f,-6.33118376e-02f,+9.24643800e-02f,+2.51980294e-02f,+9.55755711e-02f,
-4.40039858e-02f,+2.52643585e-01f,+8.95407982e-03f,+1.69756159e-01f,-3.61362919e-02f,
+1.51312038e-01f,-3.82430591e-02f,+9.40047204e-02f,-4.37532589e-02f,-3.11318450e-02f,
-1.02293901e-01f,-2.88380380e-03f,-8.02535214e-06f,-2.00746320e-02f,-1.99772090e-01f,
+1.38604743e-02f,-6.10691309e-02f,+2.30491012e-02f,-6.11963458e-02f,-2.00553965e-02f,
+7.11217746e-02f,+7.48346746e-02f,-1.20045155e-01f,+4.88478094e-02f,-1.43487915e-01f,
-2.23448500e-03f,+5.18739633e-02f,-2.00550959e-01f,+1.08635705e-02f,+4.57251444e-02f,
-2.71164984e-01f,+3.13653685e-02f,-1.06954850e-01f,+5.26861660e-02f,+4.34779450e-02f,
-8.11943226e-03f,+4.05365042e-02f,-5.17014191e-02f,-5.98502159e-03f,-3.37965749e-02f,
+1.20957367e-01f,+3.66444074e-05f,-6.17861524e-02f,-7.61416927e-02f,-4.33167862e-03f,
+2.43593171e-01f,+1.82046518e-01f,-4.33011577e-02f,-7.55774379e-02f,-5.96003830e-02f,
+3.94762829e-02f,+3.56490649e-02f,+5.28260469e-02f,-1.64455384e-01f,-8.85339156e-02f,
-5.85037731e-02f,-6.94806799e-02f,-8.29536915e-02f,+1.35197937e-01f,+1.21126883e-03f,
-8.11163262e-02f,+1.11260377e-01f,+1.02501370e-01f,-1.97604403e-01f,+9.75808725e-02f,
+9.15913582e-02f,+5.58615178e-02f,+1.48304582e-01f,-1.12075135e-01f,-1.04920760e-01f,
-1.05364613e-01f,-2.48264477e-01f,-3.98230851e-02f,+2.10345224e-01f,+3.54913622e-02f,
-1.03040352e-01f,-2.75049299e-01f,+6.01084232e-02f,-8.35969299e-02f,+1.45885602e-01f,
+9.22275111e-02f,+1.77353695e-01f,-3.47274333e-01f,-4.85113785e-02f,+2.46336609e-02f,
+5.77244945e-02f,-1.12513408e-01f,+1.51783563e-02f,-4.67322394e-02f,-6.00088835e-02f,
+7.41082337e-03f,+5.43793999e-02f,+1.20968394e-01f,-2.93356404e-02f,+9.70868766e-02f,
+8.04963112e-02f,-9.09258332e-03f,-2.86975771e-01f,+1.00181043e-01f,-1.72647014e-01f,
-2.90689953e-02f,-7.58392066e-02f,-7.88012668e-02f,+7.04592764e-02f,-7.81803951e-02f,
+1.13767207e-01f,+2.19769608e-02f,+1.44002914e-01f,+2.44429260e-02f,+1.44424900e-01f,
+1.09973192e-01f,-2.34479561e-01f,-5.40971123e-02f,-1.14917003e-01f,+2.27987871e-01f,
+1.89757884e-01f,+5.75692095e-02f,-1.87964007e-01f,-1.76698361e-02f,-3.86875756e-02f,
-1.19554244e-01f,+1.47087514e-01f,+2.47109886e-02f,+4.71428223e-02f,+5.28629571e-02f,
+1.28424227e-01f,-7.83687830e-02f,-1.22178152e-01f,+4.96156476e-02f,+4.87773977e-02f,
+1.68626681e-01f,-1.25609607e-01f,-2.55794674e-01f,+2.35635146e-01f,+3.62216830e-02f,
-1.06241792e-01f,-7.64189139e-02f,-3.99816036e-02f,+7.42238462e-02f,+3.84992100e-02f,
+6.58641458e-02f,-6.18213378e-02f,+1.76506061e-02f,-1.45453066e-02f,-1.29268738e-02f,
-8.19529146e-02f,+2.42586277e-04f,-1.16675436e-01f,-8.71601701e-02f,+3.00623514e-02f,
-1.75152466e-01f,-1.99214786e-01f,+6.89350292e-02f,+9.16733500e-03f,-5.16669732e-03f,
+1.80762690e-02f,+1.05374351e-01f,-1.28639082e-03f,-6.52146935e-02f,-3.80480587e-02f,
+1.12265676e-01f,+6.45671263e-02f,+9.30148736e-02f,+1.56476513e-01f,+1.05240442e-01f,
+1.99756697e-02f,+5.55651896e-02f,-1.42974615e-01f,-2.84508497e-01f,+5.93600161e-02f,
+1.12424912e-02f,+3.08528226e-02f,+6.56083375e-02f,+1.58367202e-01f,+8.95609483e-02f,
-4.10960540e-02f,-3.53356861e-02f,+5.30392118e-02f,+4.54305150e-02f,+2.19548374e-01f,
+9.42036286e-02f,-8.65388364e-02f,-9.30598229e-02f,+1.24572121e-01f,+6.17855089e-03f,
-3.87984738e-02f,-3.81512307e-02f,-1.99761152e-01f,-8.54711086e-02f,+6.71988130e-02f,
-3.67494114e-02f,-3.03947125e-02f,-8.87689218e-02f,-2.26235818e-02f,+4.03437689e-02f,
-1.47485640e-02f,-1.76096130e-02f,+3.24033536e-02f,-1.68977425e-01f,-6.17909357e-02f,
-6.96573034e-02f,-7.08896592e-02f,+6.92854002e-02f,-3.54631282e-02f,+4.24138978e-02f,
-2.35831127e-01f,+4.81467843e-02f,+7.32923821e-02f,+1.23057887e-02f,+1.13336585e-01f,
+1.06182337e-01f,+9.00533795e-03f,+1.10183463e-01f,-8.55864957e-02f,-2.09360085e-02f,
+7.25083873e-02f,+1.53813148e-02f,+2.92653013e-02f,-2.48332888e-01f,+3.82564999e-02f,
+5.08520268e-02f,+1.25110388e-01f,-5.16877919e-02f,+4.64241728e-02f,-2.48599187e-01f,
+2.56122828e-01f,-3.34538817e-02f,+1.57540634e-01f,-7.37707391e-02f,-7.46450201e-02f,
-2.74882913e-02f,-8.27388763e-02f,+9.71850827e-02f,+2.42613163e-03f,-2.39675194e-02f,
-7.64290467e-02f,-1.11593522e-01f,-7.62271956e-02f,-5.38869686e-02f,-1.37831077e-01f,
-7.29106441e-02f,-2.60211760e-03f,-5.66577949e-02f,-1.17786966e-01f,+9.26389620e-02f,
-5.81140183e-02f,-5.10359645e-01f,+1.29290298e-01f,-7.17489272e-02f,+1.60268053e-01f,
-1.50763616e-02f,-4.61089015e-02f,-4.44770716e-02f,+1.26006946e-01f,+1.40323373e-03f,
-2.55955189e-01f,+4.25818004e-03f,+2.31017560e-01f,-4.42973934e-02f,-1.06075302e-01f,
+8.97027627e-02f,+1.30879521e-01f,+1.37476787e-01f,-1.75536454e-01f,-3.09622660e-03f,
-9.63747725e-02f,-1.05688475e-01f,-1.28571987e-01f,-4.97375764e-02f,-6.01286963e-02f,
+1.60786420e-01f,+1.33952767e-01f,-5.72520606e-02f,+6.46089315e-02f,-7.83011019e-02f,
+1.07481152e-01f,-2.71853417e-01f,-2.03951925e-01f,-1.84129849e-01f,-2.87932277e-01f,
